\data\
ngram 1=5276
ngram 2=25517

\1-grams:
-0.8383099736242159	('</s>',)
-99	('<s>',)
-1.9552797805612405	('a',)
-4.686868545747979	('abated',)
-4.686868545747979	('abed',)
-4.686868545747979	('abhor',)
-4.3858385500839985	('abhorrd',)
-4.686868545747979	('abhorring',)
-4.686868545747979	('abides',)
-4.686868545747979	('abilities',)
-4.686868545747979	('abjects',)
-4.3858385500839985	('able',)
-4.686868545747979	('abode',)
-4.3858385500839985	('abortive',)
-3.385838550083998	('about',)
-4.084808554420017	('above',)
-4.686868545747979	('abroach',)
-4.084808554420017	('abroad',)
-4.084808554420017	('absence',)
-4.084808554420017	('absolute',)
-4.3858385500839985	('abundance',)
-4.686868545747979	('abundantly',)
-4.209747291028317	('abused',)
-4.686868545747979	('accents',)
-4.209747291028317	('accept',)
-4.686868545747979	('acceptance',)
-4.686868545747979	('access',)
-4.686868545747979	('accessary',)
-4.686868545747979	('accident',)
-4.686868545747979	('accidentally',)
-4.686868545747979	('acclamations',)
-4.686868545747979	('accompanied',)
-4.686868545747979	('accompany',)
-4.686868545747979	('accomplish',)
-4.686868545747979	('according',)
-3.9878985414119605	('account',)
-4.686868545747979	('accounted',)
-4.209747291028317	('accursed',)
-4.686868545747979	('accusation',)
-4.3858385500839985	('accusations',)
-4.084808554420017	('accuse',)
-4.209747291028317	('accused',)
-4.3858385500839985	('accusers',)
-4.686868545747979	('accuseth',)
-4.686868545747979	('accustomd',)
-4.686868545747979	('aches',)
-4.686868545747979	('achieve',)
-4.686868545747979	('achieved',)
-4.686868545747979	('acquaint',)
-4.686868545747979	('acquaintance',)
-4.686868545747979	('acquit',)
-4.686868545747979	('acquittance',)
-3.9878985414119605	('act',)
-4.686868545747979	('acting',)
-3.5729251934411423	('action',)
-4.209747291028317	('actions',)
-4.686868545747979	('actor',)
-4.686868545747979	('acts',)
-4.686868545747979	('aday',)
-4.686868545747979	('adders',)
-4.3858385500839985	('addition',)
-4.084808554420017	('adieu',)
-4.686868545747979	('admire',)
-4.686868545747979	('admit',)
-4.3858385500839985	('admits',)
-4.3858385500839985	('admitted',)
-4.686868545747979	('admitting',)
-4.686868545747979	('ado',)
-4.686868545747979	('adoing',)
-4.686868545747979	('adopt',)
-4.686868545747979	('adoreth',)
-4.686868545747979	('adorn',)
-4.686868545747979	('adrian',)
-4.209747291028317	('advance',)
-4.3858385500839985	('advanced',)
-4.686868545747979	('advancement',)
-4.209747291028317	('advantage',)
-4.686868545747979	('adventure',)
-4.209747291028317	('adversaries',)
-4.686868545747979	('adversely',)
-4.686868545747979	('advice',)
-4.686868545747979	('advise',)
-4.686868545747979	('advised',)
-4.686868545747979	('advocate',)
-3.6868685457479793	('aedile',)
-4.084808554420017	('aediles',)
-4.3858385500839985	('aery',)
-4.686868545747979	('aerys',)
-4.3858385500839985	('affairs',)
-4.686868545747979	('affect',)
-4.686868545747979	('affected',)
-4.686868545747979	('affecting',)
-4.3858385500839985	('affection',)
-4.3858385500839985	('affections',)
-4.686868545747979	('affects',)
-4.686868545747979	('afflicts',)
-4.3858385500839985	('afford',)
-4.686868545747979	('affrighted',)
-4.3858385500839985	('affrights',)
-4.686868545747979	('afire',)
-4.686868545747979	('afoot',)
-4.209747291028317	('afraid',)
-4.686868545747979	('afresh',)
-4.686868545747979	('afric',)
-3.4315960406446733	('after',)
-4.686868545747979	('aftermeeting',)
-4.3858385500839985	('afternoon',)
-3.1553896287057244	('again',)
-4.686868545747979	('againbut',)
-2.979298369650043	('against',)
-3.9878985414119605	('age',)
-4.3858385500839985	('aged',)
-4.686868545747979	('agents',)
-4.686868545747979	('ages',)
-4.686868545747979	('agony',)
-4.686868545747979	('agreed',)
-4.686868545747979	('agreeing',)
-4.686868545747979	('agrippa',)
-4.686868545747979	('agrowing',)
-4.686868545747979	('agued',)
-4.3858385500839985	('ah',)
-4.084808554420017	('aid',)
-4.686868545747979	('aiding',)
-4.686868545747979	('aidless',)
-4.686868545747979	('aim',)
-4.686868545747979	('aiming',)
-4.686868545747979	('aims',)
-3.7326260363086545	('air',)
-4.209747291028317	('alack',)
-4.686868545747979	('alarum',)
-4.686868545747979	('alarums',)
-3.7837785587560355	('alas',)
-4.686868545747979	('albans',)
-4.686868545747979	('albeit',)
-4.686868545747979	('alexander',)
-4.686868545747979	('alias',)
-4.084808554420017	('alike',)
-4.209747291028317	('alive',)
-2.3625860904502867	('all',)
-4.686868545747979	('allaying',)
-4.686868545747979	('allegiance',)
-4.686868545747979	('allhail',)
-4.3858385500839985	('allies',)
-4.686868545747979	('allow',)
-4.686868545747979	('allowance',)
-4.209747291028317	('alls',)
-4.686868545747979	('ally',)
-3.6454758605897544	('almost',)
-4.209747291028317	('alms',)
-3.4827485630920543	('alone',)
-3.7837785587560355	('along',)
-4.3858385500839985	('aloud',)
-3.7326260363086545	('already',)
-4.3858385500839985	('also',)
-4.686868545747979	('alter',)
-4.686868545747979	('alteration',)
-4.209747291028317	('although',)
-4.686868545747979	('altitude',)
-4.686868545747979	('altogether',)
-4.084808554420017	('always',)
-2.789241454457538	('am',)
-4.686868545747979	('amazonian',)
-4.209747291028317	('ambitious',)
-4.686868545747979	('ambling',)
-3.8417705057337224	('amen',)
-4.686868545747979	('amended',)
-4.686868545747979	('amendment',)
-4.686868545747979	('amends',)
-4.686868545747979	('amity',)
-3.9878985414119605	('among',)
-4.209747291028317	('amongst',)
-4.686868545747979	('amorous',)
-4.686868545747979	('amplified',)
-2.880688571764092	('an',)
-4.686868545747979	('ancestor',)
-4.686868545747979	('anchors',)
-3.908717295364336	('ancient',)
-4.686868545747979	('ancus',)
-1.662793558440553	('and',)
-4.3858385500839985	('angel',)
-4.686868545747979	('angels',)
-4.084808554420017	('anger',)
-4.686868545747979	('angers',)
-3.8417705057337224	('angry',)
-4.686868545747979	('anhungry',)
-4.686868545747979	('annals',)
-2.9544747859250107	('anne',)
-4.686868545747979	('anointed',)
-4.084808554420017	('anon',)
-3.456419624369705	('another',)
-3.456419624369705	('answer',)
-4.209747291028317	('answerd',)
-4.686868545747979	('answering',)
-4.686868545747979	('ant',)
-4.686868545747979	('anthony',)
-4.084808554420017	('antiates',)
-4.686868545747979	('antique',)
-3.9878985414119605	('antium',)
-4.686868545747979	('anvil',)
-3.1553896287057244	('any',)
-4.686868545747979	('apace',)
-4.3858385500839985	('apart',)
-4.686868545747979	('apes',)
-4.686868545747979	('apish',)
-4.686868545747979	('apoplexy',)
-4.209747291028317	('apparent',)
-3.6868685457479793	('appear',)
-4.686868545747979	('appearance',)
-4.686868545747979	('appeard',)
-4.686868545747979	('appease',)
-4.3858385500839985	('appetite',)
-4.686868545747979	('applause',)
-4.686868545747979	('applied',)
-4.686868545747979	('apply',)
-4.686868545747979	('appointed',)
-4.686868545747979	('apprehended',)
-4.686868545747979	('apprehension',)
-4.3858385500839985	('approaches',)
-4.209747291028317	('approbation',)
-4.686868545747979	('approve',)
-4.686868545747979	('approved',)
-4.686868545747979	('apronmen',)
-4.686868545747979	('apt',)
-4.686868545747979	('aptness',)
-4.686868545747979	('arabia',)
-4.686868545747979	('arch',)
-4.084808554420017	('archbishop',)
-2.3625860904502867	('are',)
-4.686868545747979	('arei',)
-4.686868545747979	('arguing',)
-4.686868545747979	('arguments',)
-4.686868545747979	('arise',)
-4.686868545747979	('arithmetic',)
-3.6868685457479793	('arm',)
-4.686868545747979	('armd',)
-4.686868545747979	('armed',)
-4.686868545747979	('armies',)
-4.686868545747979	('armour',)
-3.6454758605897544	('arms',)
-3.7837785587560355	('army',)
-4.686868545747979	('armys',)
-4.686868545747979	('arriving',)
-4.686868545747979	('arrogance',)
-3.2397105144057603	('art',)
-4.686868545747979	('article',)
-4.686868545747979	('articulate',)
-2.221485694299561	('as',)
-4.686868545747979	('ascend',)
-4.686868545747979	('ascent',)
-4.686868545747979	('ash',)
-4.686868545747979	('ashes',)
-4.209747291028317	('aside',)
-3.8417705057337224	('ask',)
-4.686868545747979	('askd',)
-4.686868545747979	('asked',)
-4.686868545747979	('asker',)
-4.3858385500839985	('asking',)
-4.209747291028317	('asleep',)
-4.209747291028317	('aspect',)
-4.3858385500839985	('ass',)
-4.3858385500839985	('assault',)
-4.3858385500839985	('assemble',)
-4.3858385500839985	('assembly',)
-4.3858385500839985	('assist',)
-4.3858385500839985	('assistance',)
-4.686868545747979	('associated',)
-4.686868545747979	('asss',)
-4.686868545747979	('assuage',)
-3.9878985414119605	('assured',)
-4.686868545747979	('asunder',)
-2.6337901022645593	('at',)
-4.686868545747979	('atone',)
-4.686868545747979	('atonement',)
-4.686868545747979	('attach',)
-4.686868545747979	('attaind',)
-4.686868545747979	('attempt',)
-4.686868545747979	('attempted',)
-3.6076872997003546	('attend',)
-4.686868545747979	('attendant',)
-4.686868545747979	('attended',)
-4.686868545747979	('attends',)
-4.686868545747979	('auburn',)
-4.686868545747979	('audible',)
-4.3858385500839985	('audience',)
-4.686868545747979	('audit',)
-2.794773943057499	('aufidius',)
-4.686868545747979	('aufidiuses',)
-4.686868545747979	('augers',)
-3.9878985414119605	('aught',)
-4.686868545747979	('augurer',)
-4.209747291028317	('aunt',)
-4.686868545747979	('austerity',)
-4.686868545747979	('author',)
-4.3858385500839985	('authorities',)
-4.209747291028317	('authority',)
-4.686868545747979	('avaunt',)
-4.686868545747979	('avenged',)
-4.3858385500839985	('avoid',)
-4.686868545747979	('avouch',)
-4.3858385500839985	('awake',)
-4.686868545747979	('awaked',)
-4.686868545747979	('awaken',)
-4.686868545747979	('award',)
-3.1955068519137066	('away',)
-4.686868545747979	('awe',)
-4.686868545747979	('aweless',)
-4.084808554420017	('awhile',)
-4.686868545747979	('awry',)
-3.1553896287057244	('ay',)
-4.686868545747979	('babe',)
-4.3858385500839985	('babes',)
-4.3858385500839985	('babies',)
-4.686868545747979	('baby',)
-4.686868545747979	('bachelor',)
-3.36464925101406	('back',)
-4.686868545747979	('backs',)
-4.686868545747979	('backthats',)
-3.7837785587560355	('bad',)
-4.3858385500839985	('bade',)
-4.686868545747979	('baes',)
-4.3858385500839985	('baited',)
-4.686868545747979	('baits',)
-4.209747291028317	('bald',)
-4.686868545747979	('bale',)
-4.686868545747979	('balladmakers',)
-4.686868545747979	('balm',)
-4.686868545747979	('balms',)
-4.209747291028317	('bands',)
-3.9878985414119605	('banish',)
-3.7326260363086545	('banishd',)
-3.9878985414119605	('banished',)
-4.686868545747979	('banishers',)
-3.908717295364336	('banishment',)
-4.686868545747979	('banners',)
-4.686868545747979	('barbariansas',)
-4.686868545747979	('barded',)
-4.3858385500839985	('bare',)
-4.686868545747979	('bark',)
-4.686868545747979	('barking',)
-4.686868545747979	('barm',)
-4.686868545747979	('barrd',)
-4.3858385500839985	('barren',)
-4.686868545747979	('barrst',)
-4.686868545747979	('bars',)
-4.084808554420017	('base',)
-4.686868545747979	('baseness',)
-4.686868545747979	('basest',)
-4.686868545747979	('basilisks',)
-4.686868545747979	('bastard',)
-4.084808554420017	('bastards',)
-4.686868545747979	('bate',)
-4.686868545747979	('bath',)
-4.3858385500839985	('bats',)
-4.686868545747979	('batten',)
-4.686868545747979	('battery',)
-3.908717295364336	('battle',)
-4.209747291028317	('battles',)
-2.1723207930876933	('be',)
-4.686868545747979	('beach',)
-4.686868545747979	('beam',)
-4.686868545747979	('beams',)
-3.1553896287057244	('bear',)
-4.209747291028317	('beard',)
-4.3858385500839985	('beards',)
-4.209747291028317	('bearing',)
-3.908717295364336	('bears',)
-4.209747291028317	('beast',)
-4.3858385500839985	('beastly',)
-4.3858385500839985	('beasts',)
-3.540740510069741	('beat',)
-4.686868545747979	('beaten',)
-4.3858385500839985	('beating',)
-3.908717295364336	('beauty',)
-4.686868545747979	('beautys',)
-4.686868545747979	('became',)
-3.7837785587560355	('because',)
-3.7326260363086545	('become',)
-4.3858385500839985	('becomes',)
-4.686868545747979	('becomet',)
-3.8417705057337224	('bed',)
-4.686868545747979	('bedashd',)
-4.686868545747979	('bedchamber',)
-4.686868545747979	('bedfellow',)
-4.686868545747979	('bedward',)
-3.063619255350079	('been',)
-4.686868545747979	('befal',)
-4.686868545747979	('befalln',)
-2.938680518741779	('before',)
-4.686868545747979	('beforetime',)
-3.7837785587560355	('beg',)
-4.209747291028317	('began',)
-4.3858385500839985	('beggar',)
-4.686868545747979	('beggarly',)
-4.209747291028317	('beggars',)
-4.3858385500839985	('beggd',)
-4.686868545747979	('begged',)
-4.3858385500839985	('begging',)
-3.9878985414119605	('begin',)
-4.686868545747979	('beginning',)
-4.3858385500839985	('begins',)
-4.686868545747979	('begnaw',)
-4.686868545747979	('begun',)
-4.3858385500839985	('behalf',)
-4.686868545747979	('behavior',)
-4.084808554420017	('beheld',)
-3.908717295364336	('behind',)
-3.7837785587560355	('behold',)
-4.3858385500839985	('beholding',)
-4.686868545747979	('beholdst',)
-3.107084949131169	('being',)
-4.686868545747979	('belch',)
-3.7837785587560355	('believe',)
-4.686868545747979	('believet',)
-4.3858385500839985	('belike',)
-3.7326260363086545	('belly',)
-4.3858385500839985	('bellys',)
-4.686868545747979	('belonging',)
-4.686868545747979	('belongs',)
-4.209747291028317	('beloved',)
-3.9878985414119605	('below',)
-4.686868545747979	('bemock',)
-4.3858385500839985	('bench',)
-4.686868545747979	('bencher',)
-4.3858385500839985	('bend',)
-4.686868545747979	('bended',)
-4.686868545747979	('beneath',)
-4.209747291028317	('benefit',)
-4.686868545747979	('benefits',)
-4.686868545747979	('bent',)
-4.686868545747979	('bereaves',)
-4.686868545747979	('bereft',)
-4.686868545747979	('berkeley',)
-3.36464925101406	('beseech',)
-4.686868545747979	('beside',)
-4.209747291028317	('besides',)
-3.456419624369705	('best',)
-4.3858385500839985	('bestow',)
-4.686868545747979	('bestrid',)
-4.686868545747979	('bestride',)
-4.686868545747979	('bethink',)
-4.209747291028317	('betide',)
-4.686868545747979	('betray',)
-4.686868545747979	('betrayd',)
-3.255504781588992	('better',)
-3.6868685457479793	('between',)
-3.9878985414119605	('betwixt',)
-4.686868545747979	('bewail',)
-4.3858385500839985	('beware',)
-4.686868545747979	('beweep',)
-4.686868545747979	('bewept',)
-4.686868545747979	('bewitchment',)
-4.686868545747979	('bewray',)
-4.084808554420017	('beyond',)
-3.6868685457479793	('bid',)
-4.686868545747979	('bidding',)
-4.084808554420017	('bids',)
-4.3858385500839985	('big',)
-4.686868545747979	('bigger',)
-4.686868545747979	('billeted',)
-4.686868545747979	('billows',)
-4.686868545747979	('birthplace',)
-4.3858385500839985	('bisson',)
-4.686868545747979	('bite',)
-4.3858385500839985	('bites',)
-4.686868545747979	('biting',)
-4.686868545747979	('bits',)
-4.084808554420017	('bitter',)
-4.686868545747979	('bitterest',)
-4.686868545747979	('bitterness',)
-3.9878985414119605	('black',)
-4.686868545747979	('blackfaced',)
-4.686868545747979	('blade',)
-3.7837785587560355	('blame',)
-4.686868545747979	('blameful',)
-4.686868545747979	('blanks',)
-4.686868545747979	('blast',)
-4.686868545747979	('blasts',)
-4.3858385500839985	('blaze',)
-4.686868545747979	('bleared',)
-4.3858385500839985	('bled',)
-4.686868545747979	('bleed',)
-4.3858385500839985	('bleeding',)
-4.686868545747979	('bleedst',)
-4.686868545747979	('blemish',)
-4.686868545747979	('blended',)
-3.9878985414119605	('bless',)
-4.3858385500839985	('blessd',)
-4.3858385500839985	('blessed',)
-4.686868545747979	('blessing',)
-4.686868545747979	('blessings',)
-4.209747291028317	('blest',)
-4.084808554420017	('blind',)
-4.686868545747979	('block',)
-4.686868545747979	('blockhead',)
-3.063619255350079	('blood',)
-4.686868545747979	('bloodless',)
-3.6454758605897544	('bloody',)
-4.686868545747979	('blots',)
-4.3858385500839985	('blow',)
-4.3858385500839985	('blown',)
-3.908717295364336	('blows',)
-4.686868545747979	('blunt',)
-3.9878985414119605	('blush',)
-4.686868545747979	('blushd',)
-4.686868545747979	('blushing',)
-4.686868545747979	('boasting',)
-4.686868545747979	('boats',)
-4.3858385500839985	('bodies',)
-4.686868545747979	('bodily',)
-3.510777286692298	('body',)
-4.3858385500839985	('bodys',)
-4.686868545747979	('boisterous',)
-4.084808554420017	('bold',)
-4.686868545747979	('bolder',)
-4.686868545747979	('boldness',)
-4.686868545747979	('bolt',)
-4.686868545747979	('bolted',)
-4.686868545747979	('bond',)
-4.3858385500839985	('bones',)
-4.686868545747979	('bonnet',)
-4.686868545747979	('bonneted',)
-4.686868545747979	('bonny',)
-4.3858385500839985	('book',)
-4.3858385500839985	('boon',)
-4.3858385500839985	('bore',)
-4.084808554420017	('born',)
-3.9878985414119605	('borne',)
-4.084808554420017	('bosom',)
-4.3858385500839985	('bosoms',)
-4.686868545747979	('botchers',)
-3.084808554420017	('both',)
-4.686868545747979	('bottled',)
-4.209747291028317	('bottom',)
-4.686868545747979	('bought',)
-3.6868685457479793	('bound',)
-4.686868545747979	('bounds',)
-4.686868545747979	('bounteous',)
-4.686868545747979	('bountiful',)
-4.686868545747979	('bout',)
-4.686868545747979	('bouted',)
-4.686868545747979	('bow',)
-4.3858385500839985	('bowd',)
-4.209747291028317	('bowels',)
-4.686868545747979	('bower',)
-4.686868545747979	('bowl',)
-4.3858385500839985	('bows',)
-3.3251407097303862	('boy',)
-4.209747291028317	('boys',)
-4.209747291028317	('brace',)
-4.686868545747979	('brag',)
-4.686868545747979	('braggart',)
-4.686868545747979	('braggd',)
-4.084808554420017	('brain',)
-3.4081149447951504	('brakenbury',)
-4.3858385500839985	('bran',)
-4.686868545747979	('branches',)
-4.3858385500839985	('brand',)
-4.686868545747979	('brat',)
-4.686868545747979	('brats',)
-3.7326260363086545	('brave',)
-4.686868545747979	('bravely',)
-4.686868545747979	('brawl',)
-4.686868545747979	('brawn',)
-4.686868545747979	('breach',)
-4.686868545747979	('bread',)
-3.5729251934411423	('break',)
-4.3858385500839985	('breaking',)
-4.686868545747979	('breaks',)
-3.8417705057337224	('breast',)
-4.3858385500839985	('breasts',)
-3.7326260363086545	('breath',)
-4.209747291028317	('breathe',)
-4.686868545747979	('breathed',)
-4.686868545747979	('breathes',)
-4.686868545747979	('breathing',)
-4.686868545747979	('breathingwhile',)
-4.3858385500839985	('breaths',)
-4.209747291028317	('bred',)
-4.686868545747979	('breed',)
-4.686868545747979	('brethren',)
-4.686868545747979	('bribe',)
-3.908717295364336	('brief',)
-4.3858385500839985	('briefly',)
-4.686868545747979	('briers',)
-4.3858385500839985	('bright',)
-3.540740510069741	('bring',)
-4.686868545747979	('bringing',)
-4.686868545747979	('brings',)
-4.686868545747979	('bristled',)
-4.686868545747979	('brittle',)
-4.686868545747979	('broil',)
-4.686868545747979	('broiled',)
-4.686868545747979	('broils',)
-4.084808554420017	('broke',)
-4.3858385500839985	('broken',)
-4.686868545747979	('brood',)
-4.3858385500839985	('brook',)
-4.686868545747979	('brookd',)
-3.288928537075942	('brother',)
-4.3858385500839985	('brotherhood',)
-3.6868685457479793	('brothers',)
-3.6454758605897544	('brought',)
-4.084808554420017	('brow',)
-4.686868545747979	('browbound',)
-4.686868545747979	('brown',)
-4.084808554420017	('brows',)
-4.686868545747979	('bruised',)
-4.686868545747979	('bruising',)
-4.686868545747979	('brunt',)
-4.686868545747979	('brutish',)
-2.718385597194044	('brutus',)
-3.033656031972636	('buckingham',)
-4.686868545747979	('buckle',)
-4.686868545747979	('budge',)
-4.686868545747979	('budger',)
-4.3858385500839985	('buildeth',)
-4.686868545747979	('buildings',)
-4.686868545747979	('built',)
-4.686868545747979	('bulk',)
-4.686868545747979	('bulks',)
-4.686868545747979	('bunchbackd',)
-4.686868545747979	('burdens',)
-4.686868545747979	('burgundy',)
-4.686868545747979	('burial',)
-4.3858385500839985	('buried',)
-4.209747291028317	('burn',)
-4.686868545747979	('burnd',)
-4.686868545747979	('burned',)
-4.3858385500839985	('burning',)
-4.686868545747979	('burnt',)
-4.686868545747979	('burrows',)
-4.686868545747979	('burst',)
-4.686868545747979	('burthen',)
-4.209747291028317	('bury',)
-4.686868545747979	('busied',)
-3.6076872997003546	('business',)
-4.686868545747979	('bussing',)
-4.686868545747979	('bustle',)
-4.686868545747979	('busy',)
-2.2335502057009418	('but',)
-4.686868545747979	('butcher',)
-4.686868545747979	('butcherd',)
-4.686868545747979	('butchered',)
-4.3858385500839985	('butcheries',)
-4.686868545747979	('butchers',)
-4.686868545747979	('butterflies',)
-4.209747291028317	('butterfly',)
-4.686868545747979	('buttock',)
-4.686868545747979	('butts',)
-3.9878985414119605	('buy',)
-4.686868545747979	('buzzards',)
-2.4058351785002516	('by',)
-4.686868545747979	('byr',)
-4.686868545747979	('byt',)
-4.3858385500839985	('c',)
-4.686868545747979	('cabin',)
-4.686868545747979	('cacodemon',)
-3.456419624369705	('caius',)
-4.3858385500839985	('calamity',)
-3.288928537075942	('call',)
-3.6868685457479793	('calld',)
-4.686868545747979	('called',)
-4.686868545747979	('calling',)
-4.3858385500839985	('calls',)
-4.686868545747979	('callt',)
-4.084808554420017	('calm',)
-4.686868545747979	('calmly',)
-4.686868545747979	('calmness',)
-4.686868545747979	('calved',)
-4.686868545747979	('cambric',)
-3.456419624369705	('came',)
-4.686868545747979	('camels',)
-4.686868545747979	('camest',)
-4.3858385500839985	('camp',)
-2.8944768562497254	('can',)
-4.686868545747979	('cankerd',)
-4.686868545747979	('cannibally',)
-2.880688571764092	('cannot',)
-4.686868545747979	('cannotthe',)
-4.3858385500839985	('canon',)
-4.3858385500839985	('canopy',)
-4.084808554420017	('canst',)
-4.686868545747979	('cant',)
-4.686868545747979	('cap',)
-4.686868545747979	('capacity',)
-4.686868545747979	('caparison',)
-4.686868545747979	('capers',)
-4.3858385500839985	('capital',)
-3.510777286692298	('capitol',)
-4.686868545747979	('capitulate',)
-3.9878985414119605	('caps',)
-4.3858385500839985	('captain',)
-4.686868545747979	('captive',)
-4.686868545747979	('captives',)
-4.686868545747979	('carbon',)
-4.686868545747979	('carbuncle',)
-4.686868545747979	('carcasses',)
-3.7326260363086545	('care',)
-4.686868545747979	('cared',)
-4.3858385500839985	('careful',)
-4.686868545747979	('carelessness',)
-3.9878985414119605	('cares',)
-4.3858385500839985	('carried',)
-4.3858385500839985	('carries',)
-3.908717295364336	('carry',)
-4.686868545747979	('carters',)
-4.686868545747979	('case',)
-4.686868545747979	('casque',)
-4.084808554420017	('cast',)
-4.686868545747979	('castaways',)
-4.686868545747979	('cat',)
-4.686868545747979	('catalogue',)
-4.209747291028317	('catch',)
-4.686868545747979	('catched',)
-4.686868545747979	('catching',)
-3.908717295364336	('catesby',)
-4.686868545747979	('catos',)
-4.686868545747979	('cats',)
-4.3858385500839985	('caught',)
-3.255504781588992	('cause',)
-4.3858385500839985	('caused',)
-4.686868545747979	('causer',)
-4.686868545747979	('cautelous',)
-4.686868545747979	('caution',)
-4.209747291028317	('cease',)
-4.3858385500839985	('cedars',)
-4.686868545747979	('cement',)
-4.209747291028317	('censure',)
-4.3858385500839985	('censured',)
-4.686868545747979	('censures',)
-4.686868545747979	('centuries',)
-4.686868545747979	('centurions',)
-4.686868545747979	('ceremony',)
-3.6868685457479793	('certain',)
-4.686868545747979	('certainly',)
-4.686868545747979	('certainties',)
-4.686868545747979	('chafed',)
-4.3858385500839985	('chaff',)
-4.686868545747979	('chain',)
-4.686868545747979	('chair',)
-4.686868545747979	('chairs',)
-4.3858385500839985	('chamber',)
-4.209747291028317	('chamberlain',)
-4.686868545747979	('chamberpot',)
-3.8417705057337224	('chance',)
-4.3858385500839985	('chances',)
-3.908717295364336	('change',)
-4.3858385500839985	('changed',)
-4.686868545747979	('changeling',)
-4.686868545747979	('channel',)
-4.3858385500839985	('character',)
-3.6076872997003546	('charge',)
-3.9878985414119605	('charged',)
-4.084808554420017	('charges',)
-4.3858385500839985	('charitable',)
-3.7837785587560355	('charity',)
-4.686868545747979	('charm',)
-4.686868545747979	('charms',)
-4.686868545747979	('charter',)
-4.686868545747979	('charters',)
-4.686868545747979	('chase',)
-4.686868545747979	('chaste',)
-4.686868545747979	('chastely',)
-4.686868545747979	('chats',)
-4.209747291028317	('cheap',)
-4.686868545747979	('cheapa',)
-4.686868545747979	('cheated',)
-4.686868545747979	('cheek',)
-3.908717295364336	('cheeks',)
-4.209747291028317	('cheer',)
-4.686868545747979	('cheered',)
-4.686868545747979	('cheerfully',)
-4.686868545747979	('cheque',)
-4.686868545747979	('cheques',)
-4.3858385500839985	('cherish',)
-4.686868545747979	('cherishd',)
-4.686868545747979	('cherry',)
-4.209747291028317	('chertsey',)
-4.686868545747979	('chests',)
-4.3858385500839985	('chide',)
-4.3858385500839985	('chief',)
-4.3858385500839985	('chiefest',)
-3.5729251934411423	('child',)
-4.3858385500839985	('childish',)
-4.686868545747979	('childishfoolish',)
-4.686868545747979	('childishness',)
-3.6076872997003546	('children',)
-4.209747291028317	('childrens',)
-4.686868545747979	('chin',)
-3.9878985414119605	('choice',)
-4.686868545747979	('choke',)
-4.084808554420017	('choler',)
-4.084808554420017	('choose',)
-4.686868545747979	('chop',)
-4.209747291028317	('chose',)
-4.3858385500839985	('chosen',)
-4.686868545747979	('christian',)
-4.686868545747979	('christianlike',)
-4.686868545747979	('christs',)
-4.686868545747979	('chronicle',)
-4.686868545747979	('churchyard',)
-4.686868545747979	('cicatrices',)
-4.686868545747979	('circumspect',)
-4.3858385500839985	('circumstance',)
-4.686868545747979	('circumvention',)
-4.686868545747979	('cited',)
-4.3858385500839985	('cities',)
-2.704597312708411	('citizen',)
-3.271895197777161	('citizens',)
-3.09580393872148	('city',)
-4.3858385500839985	('claim',)
-4.686868545747979	('clambering',)
-4.686868545747979	('clamour',)
-4.686868545747979	('clappd',)
-2.860793743047153	('clarence',)
-4.3858385500839985	('clean',)
-4.686868545747979	('cleave',)
-4.686868545747979	('clifford',)
-4.3858385500839985	('clip',)
-4.686868545747979	('cloaks',)
-4.084808554420017	('close',)
-4.686868545747979	('closely',)
-4.686868545747979	('closet',)
-4.686868545747979	('cloth',)
-4.686868545747979	('clothe',)
-4.686868545747979	('clothes',)
-4.686868545747979	('cloud',)
-3.9878985414119605	('clouds',)
-4.3858385500839985	('cloudy',)
-4.686868545747979	('clout',)
-4.686868545747979	('cloven',)
-4.3858385500839985	('clubs',)
-4.686868545747979	('cluckd',)
-4.3858385500839985	('clusters',)
-4.686868545747979	('clutchd',)
-4.3858385500839985	('coal',)
-4.686868545747979	('coals',)
-4.686868545747979	('cobbled',)
-4.686868545747979	('cockatrice',)
-4.686868545747979	('cockle',)
-4.686868545747979	('coffin',)
-4.686868545747979	('coffind',)
-4.3858385500839985	('cog',)
-4.686868545747979	('coign',)
-4.686868545747979	('coin',)
-4.686868545747979	('coining',)
-3.8417705057337224	('cold',)
-4.686868545747979	('colder',)
-4.686868545747979	('colic',)
-4.686868545747979	('collected',)
-4.3858385500839985	('colour',)
-4.686868545747979	('coloured',)
-4.686868545747979	('combine',)
-2.661562680483209	('come',)
-4.686868545747979	('comeliness',)
-4.686868545747979	('comely',)
-3.4827485630920543	('comes',)
-4.3858385500839985	('comest',)
-3.6454758605897544	('comfort',)
-4.686868545747979	('comfortable',)
-4.686868545747979	('comforter',)
-4.686868545747979	('comforts',)
-3.908717295364336	('coming',)
-2.7574496200336864	('cominius',)
-3.9878985414119605	('command',)
-4.084808554420017	('commanded',)
-4.3858385500839985	('commanding',)
-4.686868545747979	('commandment',)
-4.686868545747979	('commands',)
-4.209747291028317	('commend',)
-4.686868545747979	('commendable',)
-4.084808554420017	('commission',)
-4.209747291028317	('commit',)
-4.209747291028317	('committed',)
-3.385838550083998	('common',)
-4.686868545747979	('commonalty',)
-4.686868545747979	('commoners',)
-4.209747291028317	('commons',)
-4.686868545747979	('commonwealth',)
-4.686868545747979	('compact',)
-4.686868545747979	('companion',)
-4.686868545747979	('companions',)
-4.686868545747979	('companionship',)
-3.7837785587560355	('company',)
-4.3858385500839985	('compass',)
-4.686868545747979	('compassion',)
-4.686868545747979	('competency',)
-4.3858385500839985	('complain',)
-4.3858385500839985	('complaining',)
-4.686868545747979	('complainings',)
-4.686868545747979	('complaint',)
-4.3858385500839985	('complaints',)
-4.686868545747979	('complexions',)
-4.686868545747979	('composition',)
-4.686868545747979	('compound',)
-4.3858385500839985	('compounded',)
-4.686868545747979	('concealment',)
-4.3858385500839985	('conclude',)
-4.3858385500839985	('concluded',)
-4.686868545747979	('conclusion',)
-4.686868545747979	('condemn',)
-4.209747291028317	('condemned',)
-4.686868545747979	('condemning',)
-3.8417705057337224	('condition',)
-4.209747291028317	('conditions',)
-4.3858385500839985	('conduct',)
-4.686868545747979	('conducted',)
-4.686868545747979	('conduits',)
-4.686868545747979	('confederate',)
-4.686868545747979	('confer',)
-4.3858385500839985	('conference',)
-4.209747291028317	('confess',)
-4.686868545747979	('confidence',)
-4.686868545747979	('confine',)
-4.686868545747979	('confined',)
-4.3858385500839985	('confirm',)
-4.686868545747979	('confirmd',)
-4.686868545747979	('confirmed',)
-4.3858385500839985	('confound',)
-4.686868545747979	('confused',)
-4.3858385500839985	('confusion',)
-4.686868545747979	('confusions',)
-4.686868545747979	('congeald',)
-4.686868545747979	('congregations',)
-4.686868545747979	('conies',)
-4.686868545747979	('conjectural',)
-4.686868545747979	('conjure',)
-4.686868545747979	('conjures',)
-4.686868545747979	('connd',)
-4.3858385500839985	('conquer',)
-3.8417705057337224	('conscience',)
-3.9878985414119605	('consent',)
-4.686868545747979	('consented',)
-4.686868545747979	('consequence',)
-3.908717295364336	('consider',)
-4.686868545747979	('considerate',)
-4.686868545747979	('considering',)
-4.686868545747979	('consistory',)
-4.686868545747979	('conspectuities',)
-3.7837785587560355	('conspirator',)
-4.3858385500839985	('conspirators',)
-4.209747291028317	('constant',)
-4.686868545747979	('constrains',)
-4.686868545747979	('construction',)
-3.2397105144057603	('consul',)
-3.9878985414119605	('consuls',)
-4.686868545747979	('consulship',)
-4.686868545747979	('consulships',)
-4.686868545747979	('consume',)
-4.3858385500839985	('consumed',)
-4.686868545747979	('contagion',)
-4.686868545747979	('contains',)
-4.686868545747979	('contemn',)
-4.686868545747979	('contemning',)
-3.9878985414119605	('contempt',)
-4.686868545747979	('contend',)
-3.6868685457479793	('content',)
-4.686868545747979	('contented',)
-4.686868545747979	('contest',)
-4.686868545747979	('continue',)
-4.3858385500839985	('continued',)
-4.686868545747979	('contradiction',)
-4.686868545747979	('contrariety',)
-4.686868545747979	('contrary',)
-4.686868545747979	('contrived',)
-4.686868545747979	('controlld',)
-4.686868545747979	('controlt',)
-4.3858385500839985	('controversy',)
-4.3858385500839985	('convenient',)
-4.686868545747979	('convented',)
-4.686868545747979	('conversation',)
-4.686868545747979	('converse',)
-4.686868545747979	('converses',)
-4.686868545747979	('convey',)
-4.686868545747979	('conveyances',)
-4.686868545747979	('conveying',)
-4.686868545747979	('convict',)
-4.686868545747979	('cool',)
-4.686868545747979	('cordial',)
-2.4291899708787947	('coriolanus',)
-3.456419624369705	('corioli',)
-4.686868545747979	('cormorant',)
-3.6868685457479793	('corn',)
-4.686868545747979	('cornerstone',)
-4.686868545747979	('corrected',)
-4.686868545747979	('correcting',)
-4.3858385500839985	('corrupt',)
-4.686868545747979	('corrupting',)
-3.7837785587560355	('corse',)
-4.686868545747979	('corslet',)
-4.686868545747979	('cost',)
-4.686868545747979	('costard',)
-4.3858385500839985	('cotus',)
-3.09580393872148	('could',)
-4.686868545747979	('couldst',)
-4.686868545747979	('council',)
-3.7837785587560355	('counsel',)
-4.686868545747979	('counselld',)
-4.686868545747979	('counsellor',)
-4.209747291028317	('counsels',)
-4.686868545747979	('count',)
-4.686868545747979	('counted',)
-4.3858385500839985	('countenance',)
-4.686868545747979	('countenances',)
-4.686868545747979	('counterfeit',)
-4.686868545747979	('counterfeitly',)
-4.686868545747979	('countermand',)
-4.686868545747979	('counterpoise',)
-4.686868545747979	('counterpoised',)
-4.686868545747979	('counterseald',)
-4.686868545747979	('countess',)
-3.2397105144057603	('country',)
-4.686868545747979	('countryman',)
-4.3858385500839985	('countrymen',)
-3.6868685457479793	('countrys',)
-4.3858385500839985	('courage',)
-3.8417705057337224	('course',)
-4.3858385500839985	('court',)
-4.686868545747979	('courteous',)
-4.209747291028317	('courtesy',)
-4.686868545747979	('courts',)
-3.7837785587560355	('cousin',)
-4.686868545747979	('cousins',)
-4.686868545747979	('coverture',)
-4.686868545747979	('covetous',)
-4.686868545747979	('covets',)
-4.209747291028317	('coward',)
-3.9878985414119605	('cowardly',)
-4.686868545747979	('cowards',)
-4.686868545747979	('coxcombs',)
-4.686868545747979	('coyd',)
-4.686868545747979	('crabtrees',)
-4.686868545747979	('crack',)
-4.209747291028317	('crackd',)
-4.686868545747979	('cracking',)
-4.686868545747979	('cradle',)
-4.686868545747979	('craft',)
-4.686868545747979	('crafted',)
-4.686868545747979	('crafts',)
-4.686868545747979	('crammed',)
-4.686868545747979	('cranks',)
-4.084808554420017	('crave',)
-4.3858385500839985	('craves',)
-4.686868545747979	('created',)
-4.686868545747979	('creature',)
-4.3858385500839985	('creeping',)
-4.209747291028317	('crept',)
-4.686868545747979	('crest',)
-4.3858385500839985	('cried',)
-3.9878985414119605	('cries',)
-4.686868545747979	('criminal',)
-4.686868545747979	('cripple',)
-4.686868545747979	('crooked',)
-4.686868545747979	('croppd',)
-4.3858385500839985	('crosby',)
-4.209747291028317	('cross',)
-4.686868545747979	('crossrow',)
-4.209747291028317	('crown',)
-4.084808554420017	('crownd',)
-4.686868545747979	('crowned',)
-4.209747291028317	('crows',)
-4.209747291028317	('cruel',)
-4.686868545747979	('crueller',)
-4.686868545747979	('cruelty',)
-4.3858385500839985	('crush',)
-4.686868545747979	('crust',)
-4.686868545747979	('crutch',)
-4.686868545747979	('crutches',)
-3.456419624369705	('cry',)
-4.686868545747979	('crying',)
-4.686868545747979	('cuckolds',)
-4.686868545747979	('cudgel',)
-4.686868545747979	('cunning',)
-4.3858385500839985	('cup',)
-4.686868545747979	('cupboarding',)
-4.686868545747979	('cur',)
-4.686868545747979	('curb',)
-4.686868545747979	('curbs',)
-4.686868545747979	('curdied',)
-4.209747291028317	('cure',)
-3.9878985414119605	('current',)
-4.686868545747979	('currents',)
-4.3858385500839985	('curs',)
-3.4827485630920543	('curse',)
-3.908717295364336	('cursed',)
-3.6868685457479793	('curses',)
-4.3858385500839985	('cursing',)
-4.686868545747979	('curst',)
-4.686868545747979	('curtaild',)
-4.686868545747979	('curtsy',)
-4.209747291028317	('cushion',)
-4.3858385500839985	('cushions',)
-3.8417705057337224	('custom',)
-4.686868545747979	('customary',)
-3.7326260363086545	('cut',)
-4.686868545747979	('cymbals',)
-4.686868545747979	('cypress',)
-4.686868545747979	('dabbled',)
-4.686868545747979	('daggers',)
-3.9878985414119605	('daily',)
-4.686868545747979	('dallies',)
-4.686868545747979	('dally',)
-4.686868545747979	('dam',)
-4.686868545747979	('damage',)
-4.686868545747979	('damask',)
-4.686868545747979	('dames',)
-4.686868545747979	('damnable',)
-4.3858385500839985	('damned',)
-4.3858385500839985	('dance',)
-4.686868545747979	('dances',)
-3.9878985414119605	('danger',)
-3.6868685457479793	('dangerous',)
-4.686868545747979	('dangerously',)
-4.3858385500839985	('dangers',)
-3.8417705057337224	('dare',)
-4.3858385500839985	('darest',)
-4.3858385500839985	('dark',)
-4.686868545747979	('darken',)
-4.686868545747979	('darkend',)
-4.686868545747979	('darkly',)
-4.3858385500839985	('darkness',)
-4.686868545747979	('darts',)
-4.686868545747979	('dash',)
-4.686868545747979	('dastard',)
-3.7837785587560355	('daughter',)
-4.209747291028317	('daughters',)
-4.686868545747979	('daws',)
-3.3066573040363734	('day',)
-3.6454758605897544	('days',)
-3.3066573040363734	('dead',)
-4.686868545747979	('deadkilling',)
-3.8417705057337224	('deadly',)
-4.686868545747979	('deaf',)
-4.3858385500839985	('deal',)
-4.686868545747979	('dealt',)
-3.3066573040363734	('dear',)
-4.3858385500839985	('dearer',)
-4.3858385500839985	('dearest',)
-4.3858385500839985	('dearly',)
-4.084808554420017	('dearth',)
-2.901538710737212	('death',)
-4.084808554420017	('deaths',)
-4.3858385500839985	('debase',)
-4.686868545747979	('debile',)
-4.3858385500839985	('debt',)
-4.686868545747979	('decay',)
-4.686868545747979	('decayed',)
-4.3858385500839985	('deceit',)
-4.686868545747979	('deceive',)
-4.3858385500839985	('deceived',)
-4.686868545747979	('deceivest',)
-4.686868545747979	('deckd',)
-4.3858385500839985	('declines',)
-4.686868545747979	('decreed',)
-4.686868545747979	('decrees',)
-3.510777286692298	('deed',)
-4.686868545747979	('deedachieving',)
-3.6076872997003546	('deeds',)
-3.5729251934411423	('deep',)
-4.686868545747979	('deeper',)
-4.686868545747979	('deepest',)
-4.686868545747979	('deeprevolving',)
-4.686868545747979	('defaced',)
-4.686868545747979	('defect',)
-4.686868545747979	('defective',)
-4.3858385500839985	('defence',)
-4.084808554420017	('defend',)
-4.686868545747979	('defender',)
-4.686868545747979	('defenders',)
-4.686868545747979	('deformed',)
-4.3858385500839985	('deformity',)
-4.686868545747979	('defused',)
-4.686868545747979	('defying',)
-4.209747291028317	('degree',)
-4.686868545747979	('degrees',)
-4.3858385500839985	('deity',)
-4.3858385500839985	('delay',)
-4.686868545747979	('deliberate',)
-4.3858385500839985	('delight',)
-4.686868545747979	('delightful',)
-3.7326260363086545	('deliver',)
-4.209747291028317	('deliverd',)
-4.686868545747979	('delivered',)
-4.3858385500839985	('delivers',)
-4.3858385500839985	('delivery',)
-4.686868545747979	('deluge',)
-4.3858385500839985	('demand',)
-4.686868545747979	('demands',)
-4.686868545747979	('demandst',)
-4.686868545747979	('demerits',)
-4.686868545747979	('denials',)
-4.209747291028317	('denied',)
-4.686868545747979	('denier',)
-4.686868545747979	('denounced',)
-3.6868685457479793	('deny',)
-4.686868545747979	('denying',)
-4.686868545747979	('depart',)
-4.686868545747979	('depending',)
-4.686868545747979	('depends',)
-4.686868545747979	('depopulate',)
-4.686868545747979	('deposed',)
-3.7837785587560355	('derby',)
-4.686868545747979	('descant',)
-4.686868545747979	('descended',)
-4.209747291028317	('desert',)
-4.686868545747979	('deserts',)
-3.6868685457479793	('deserve',)
-3.6868685457479793	('deserved',)
-4.084808554420017	('deserves',)
-4.686868545747979	('deserving',)
-4.686868545747979	('design',)
-4.686868545747979	('designments',)
-4.686868545747979	('designs',)
-3.6454758605897544	('desire',)
-4.686868545747979	('desirers',)
-4.084808554420017	('desires',)
-4.209747291028317	('despair',)
-4.686868545747979	('despairing',)
-4.686868545747979	('desperate',)
-4.686868545747979	('desperately',)
-4.686868545747979	('desperation',)
-4.686868545747979	('despise',)
-4.686868545747979	('despising',)
-4.3858385500839985	('despite',)
-4.686868545747979	('despiteful',)
-4.686868545747979	('destiny',)
-4.209747291028317	('destroy',)
-4.686868545747979	('destroyd',)
-4.686868545747979	('destroyer',)
-4.084808554420017	('destruction',)
-4.686868545747979	('detects',)
-4.084808554420017	('determine',)
-4.209747291028317	('determined',)
-4.686868545747979	('detested',)
-4.686868545747979	('deucalion',)
-3.7326260363086545	('devil',)
-4.3858385500839985	('devilish',)
-4.3858385500839985	('devils',)
-4.084808554420017	('devise',)
-4.686868545747979	('devised',)
-4.3858385500839985	('devoted',)
-4.3858385500839985	('devotion',)
-4.3858385500839985	('devour',)
-4.686868545747979	('devourd',)
-4.686868545747979	('dew',)
-4.3858385500839985	('dews',)
-4.686868545747979	('dians',)
-4.686868545747979	('dick',)
-4.686868545747979	('dictator',)
-2.723080718402424	('did',)
-3.908717295364336	('didst',)
-3.3066573040363734	('die',)
-4.3858385500839985	('died',)
-4.3858385500839985	('dies',)
-4.686868545747979	('diet',)
-4.3858385500839985	('dieted',)
-4.686868545747979	('difference',)
-4.686868545747979	('differency',)
-4.686868545747979	('differs',)
-4.3858385500839985	('digest',)
-4.686868545747979	('dignifies',)
-4.686868545747979	('dimming',)
-4.3858385500839985	('din',)
-4.209747291028317	('dined',)
-4.686868545747979	('dinner',)
-4.084808554420017	('direct',)
-4.686868545747979	('direction',)
-4.3858385500839985	('directitude',)
-4.3858385500839985	('directly',)
-4.686868545747979	('direful',)
-4.686868545747979	('disadvantage',)
-4.686868545747979	('disbenchd',)
-4.686868545747979	('discharge',)
-4.686868545747979	('discharged',)
-4.686868545747979	('disciplined',)
-4.686868545747979	('disclaim',)
-4.686868545747979	('disclosed',)
-4.686868545747979	('discontent',)
-4.209747291028317	('discontented',)
-4.686868545747979	('discourse',)
-4.3858385500839985	('discover',)
-4.686868545747979	('discovery',)
-4.686868545747979	('discreet',)
-4.686868545747979	('discretion',)
-4.209747291028317	('disdain',)
-4.686868545747979	('disdains',)
-4.084808554420017	('disease',)
-4.209747291028317	('disgrace',)
-4.686868545747979	('disgraced',)
-4.3858385500839985	('dishonour',)
-4.209747291028317	('dishonourd',)
-4.686868545747979	('dishonours',)
-4.686868545747979	('disinherited',)
-4.686868545747979	('dislikes',)
-4.686868545747979	('dislodged',)
-4.686868545747979	('dismal',)
-4.686868545747979	('dismayd',)
-4.084808554420017	('dismiss',)
-4.686868545747979	('dismissd',)
-4.686868545747979	('disobedience',)
-4.686868545747979	('disobeys',)
-3.7837785587560355	('dispatch',)
-4.686868545747979	('dispatchd',)
-4.686868545747979	('displace',)
-4.686868545747979	('displeased',)
-4.3858385500839985	('displeasure',)
-4.686868545747979	('disposed',)
-4.686868545747979	('disposing',)
-4.084808554420017	('disposition',)
-4.3858385500839985	('dispositions',)
-4.686868545747979	('dispropertied',)
-4.686868545747979	('dispute',)
-4.209747291028317	('dissemble',)
-4.686868545747979	('dissembler',)
-4.3858385500839985	('dissembling',)
-4.686868545747979	('dissension',)
-4.209747291028317	('dissentious',)
-4.686868545747979	('dissolved',)
-4.686868545747979	('distinction',)
-4.3858385500839985	('distinctly',)
-4.209747291028317	('distress',)
-4.686868545747979	('distressd',)
-4.686868545747979	('distribute',)
-4.686868545747979	('distributed',)
-4.686868545747979	('distribution',)
-4.686868545747979	('disturbers',)
-4.686868545747979	('disturbing',)
-4.686868545747979	('ditch',)
-4.686868545747979	('dive',)
-4.686868545747979	('divers',)
-4.686868545747979	('diversely',)
-4.686868545747979	('divide',)
-4.686868545747979	('divided',)
-4.084808554420017	('divine',)
-4.686868545747979	('divines',)
-4.686868545747979	('division',)
-2.44631929746538	('do',)
-4.686868545747979	('doers',)
-3.4315960406446733	('does',)
-3.908717295364336	('dog',)
-4.686868545747979	('doggd',)
-4.084808554420017	('dogs',)
-3.7837785587560355	('doing',)
-4.686868545747979	('doings',)
-4.209747291028317	('doit',)
-4.686868545747979	('donation',)
-3.033656031972636	('done',)
-4.686868545747979	('donebefore',)
-4.3858385500839985	('donet',)
-4.3858385500839985	('doom',)
-4.3858385500839985	('door',)
-4.3858385500839985	('doors',)
-3.510777286692298	('dorset',)
-4.686868545747979	('dorsets',)
-3.6076872997003546	('dost',)
-3.6454758605897544	('dot',)
-4.686868545747979	('dotant',)
-4.686868545747979	('dote',)
-3.3251407097303862	('doth',)
-4.3858385500839985	('double',)
-4.686868545747979	('doubled',)
-4.686868545747979	('doublets',)
-4.686868545747979	('doubly',)
-3.456419624369705	('doubt',)
-4.686868545747979	('doubtless',)
-4.686868545747979	('doubtthat',)
-4.686868545747979	('dovecote',)
-4.686868545747979	('doves',)
-3.1428005013977036	('down',)
-4.686868545747979	('downfall',)
-4.686868545747979	('downright',)
-4.3858385500839985	('dozen',)
-4.686868545747979	('drachm',)
-4.3858385500839985	('dragon',)
-4.686868545747979	('dragonlike',)
-3.9878985414119605	('draw',)
-4.209747291028317	('drawn',)
-4.3858385500839985	('dread',)
-4.3858385500839985	('dreaded',)
-4.084808554420017	('dreadful',)
-4.084808554420017	('dream',)
-4.084808554420017	('dreams',)
-4.686868545747979	('dreamst',)
-4.3858385500839985	('dreamt',)
-4.3858385500839985	('dregs',)
-4.686868545747979	('drew',)
-4.686868545747979	('drewst',)
-4.686868545747979	('dries',)
-4.686868545747979	('drift',)
-4.3858385500839985	('drink',)
-4.686868545747979	('drinkst',)
-4.686868545747979	('driven',)
-4.686868545747979	('drives',)
-4.686868545747979	('droop',)
-3.9878985414119605	('drop',)
-4.686868545747979	('droppd',)
-3.9878985414119605	('drops',)
-4.686868545747979	('drove',)
-3.9878985414119605	('drown',)
-3.9878985414119605	('drum',)
-4.084808554420017	('drums',)
-4.3858385500839985	('drunken',)
-4.3858385500839985	('dry',)
-4.686868545747979	('dubbd',)
-3.3066573040363734	('duchess',)
-4.686868545747979	('duck',)
-4.686868545747979	('due',)
-4.686868545747979	('dugs',)
-3.4315960406446733	('duke',)
-4.686868545747979	('dukedom',)
-4.3858385500839985	('dukes',)
-3.9878985414119605	('dull',)
-4.686868545747979	('dumb',)
-4.686868545747979	('dungeon',)
-4.3858385500839985	('during',)
-4.3858385500839985	('durst',)
-4.209747291028317	('dust',)
-4.3858385500839985	('duteous',)
-4.686868545747979	('duties',)
-3.7326260363086545	('duty',)
-4.3858385500839985	('dwellest',)
-4.3858385500839985	('dwells',)
-4.686868545747979	('dying',)
-3.510777286692298	('each',)
-4.3858385500839985	('eagle',)
-4.3858385500839985	('eagles',)
-4.209747291028317	('ear',)
-4.686868545747979	('earls',)
-4.686868545747979	('earn',)
-4.686868545747979	('earned',)
-4.3858385500839985	('earnest',)
-4.3858385500839985	('earnestness',)
-3.456419624369705	('ears',)
-4.686868545747979	('earswaving',)
-3.6454758605897544	('earth',)
-4.686868545747979	('earthly',)
-4.686868545747979	('ease',)
-4.686868545747979	('easily',)
-4.3858385500839985	('east',)
-3.9878985414119605	('easy',)
-3.9878985414119605	('eat',)
-4.686868545747979	('eaten',)
-4.686868545747979	('edge',)
-4.686868545747979	('edges',)
-4.686868545747979	('edict',)
-4.686868545747979	('edicts',)
-4.686868545747979	('edifices',)
-3.1428005013977036	('edward',)
-3.6076872997003546	('edwards',)
-4.084808554420017	('eer',)
-4.209747291028317	('effect',)
-4.686868545747979	('effected',)
-4.686868545747979	('egg',)
-4.686868545747979	('eightyearold',)
-3.6454758605897544	('either',)
-4.686868545747979	('eject',)
-4.686868545747979	('elbow',)
-4.3858385500839985	('elders',)
-4.686868545747979	('elected',)
-4.209747291028317	('election',)
-4.686868545747979	('elements',)
-4.686868545747979	('eleven',)
-3.063619255350079	('elizabeth',)
-4.686868545747979	('eloquence',)
-3.4315960406446733	('else',)
-4.686868545747979	('elsewhere',)
-4.686868545747979	('elvishmarkd',)
-3.510777286692298	('em',)
-4.686868545747979	('embarkd',)
-4.686868545747979	('embarquements',)
-4.686868545747979	('embassage',)
-4.686868545747979	('embassies',)
-4.3858385500839985	('embrace',)
-4.686868545747979	('embraced',)
-4.3858385500839985	('embracements',)
-4.686868545747979	('empiricutic',)
-4.3858385500839985	('employ',)
-4.686868545747979	('empoisond',)
-4.3858385500839985	('empty',)
-4.209747291028317	('emulation',)
-4.686868545747979	('encloseth',)
-4.686868545747979	('encompasseth',)
-4.084808554420017	('encounter',)
-4.686868545747979	('encountering',)
-4.686868545747979	('encounters',)
-3.385838550083998	('end',)
-4.686868545747979	('endeavours',)
-4.3858385500839985	('ended',)
-4.084808554420017	('ends',)
-4.686868545747979	('endue',)
-3.908717295364336	('endure',)
-4.686868545747979	('endured',)
-4.686868545747979	('endures',)
-3.540740510069741	('enemies',)
-3.456419624369705	('enemy',)
-4.686868545747979	('enemys',)
-4.084808554420017	('enforce',)
-4.686868545747979	('enforcement',)
-4.686868545747979	('enfranchise',)
-4.686868545747979	('engine',)
-4.686868545747979	('england',)
-4.084808554420017	('englands',)
-4.686868545747979	('englishman',)
-4.686868545747979	('enigma',)
-4.209747291028317	('enjoy',)
-4.3858385500839985	('enjoyd',)
-4.686868545747979	('enjoys',)
-4.209747291028317	('enmity',)
-4.686868545747979	('enmitys',)
-4.686868545747979	('ennoble',)
-4.686868545747979	('enormity',)
-3.6076872997003546	('enough',)
-4.686868545747979	('enraged',)
-4.686868545747979	('enrichd',)
-4.686868545747979	('enrolld',)
-4.686868545747979	('ensnareth',)
-4.3858385500839985	('ensuing',)
-4.686868545747979	('entangled',)
-3.8417705057337224	('enter',)
-4.084808554420017	('enterd',)
-4.686868545747979	('entered',)
-4.686868545747979	('enters',)
-4.084808554420017	('entertain',)
-4.209747291028317	('entertainment',)
-4.686868545747979	('entire',)
-4.686868545747979	('entombed',)
-4.686868545747979	('entrance',)
-4.084808554420017	('entreat',)
-4.3858385500839985	('entreaties',)
-4.686868545747979	('entreats',)
-4.686868545747979	('entreaty',)
-4.3858385500839985	('envied',)
-4.3858385500839985	('envious',)
-4.686868545747979	('environd',)
-3.7837785587560355	('envy',)
-4.686868545747979	('envying',)
-4.686868545747979	('epitome',)
-4.3858385500839985	('equal',)
-4.686868545747979	('equals',)
-3.36464925101406	('ere',)
-4.686868545747979	('errand',)
-4.686868545747979	('erroneous',)
-4.686868545747979	('error',)
-4.209747291028317	('especially',)
-4.686868545747979	('establishd',)
-4.686868545747979	('established',)
-4.3858385500839985	('estate',)
-4.686868545747979	('estimate',)
-3.9878985414119605	('estimation',)
-4.686868545747979	('eternal',)
-4.686868545747979	('eternity',)
-4.686868545747979	('eunuch',)
-4.686868545747979	('evade',)
-3.2397105144057603	('even',)
-4.686868545747979	('event',)
-3.130566044980692	('ever',)
-3.4827485630920543	('every',)
-4.3858385500839985	('evidence',)
-4.3858385500839985	('evident',)
-4.209747291028317	('evil',)
-4.686868545747979	('evils',)
-4.686868545747979	('examine',)
-4.686868545747979	('example',)
-4.686868545747979	('examples',)
-4.209747291028317	('exceed',)
-4.686868545747979	('exceeding',)
-4.686868545747979	('exceeds',)
-4.209747291028317	('excellent',)
-4.686868545747979	('excepting',)
-4.686868545747979	('exclaims',)
-3.9878985414119605	('excuse',)
-4.686868545747979	('excused',)
-4.686868545747979	('execute',)
-4.686868545747979	('executed',)
-3.9878985414119605	('execution',)
-4.3858385500839985	('executioner',)
-4.686868545747979	('executioners',)
-4.686868545747979	('exempt',)
-4.3858385500839985	('exercise',)
-4.686868545747979	('exhale',)
-4.686868545747979	('exhales',)
-3.9878985414119605	('exile',)
-4.084808554420017	('expect',)
-4.686868545747979	('expected',)
-4.686868545747979	('expedient',)
-4.686868545747979	('expedition',)
-4.686868545747979	('expel',)
-4.686868545747979	('experienced',)
-4.686868545747979	('exploit',)
-4.686868545747979	('exposture',)
-4.084808554420017	('express',)
-4.686868545747979	('expulsion',)
-4.3858385500839985	('extol',)
-4.686868545747979	('extreme',)
-4.3858385500839985	('extremest',)
-4.686868545747979	('extremities',)
-4.209747291028317	('extremity',)
-3.6076872997003546	('eye',)
-3.1428005013977036	('eyes',)
-4.686868545747979	('eyeshis',)
-4.3858385500839985	('fabric',)
-3.6076872997003546	('face',)
-3.9878985414119605	('faces',)
-4.686868545747979	('faction',)
-4.686868545747979	('factionary',)
-4.686868545747979	('factions',)
-4.3858385500839985	('factious',)
-4.209747291028317	('fail',)
-4.686868545747979	('fails',)
-4.3858385500839985	('fain',)
-4.686868545747979	('faint',)
-4.686868545747979	('faintly',)
-3.271895197777161	('fair',)
-4.686868545747979	('fairer',)
-4.686868545747979	('fairly',)
-4.686868545747979	('fairness',)
-3.6868685457479793	('faith',)
-4.686868545747979	('faithful',)
-4.686868545747979	('falchion',)
-3.540740510069741	('fall',)
-4.686868545747979	('fallen',)
-4.3858385500839985	('falling',)
-4.686868545747979	('falln',)
-3.6454758605897544	('false',)
-4.686868545747979	('falseboding',)
-4.686868545747979	('falsefaced',)
-4.686868545747979	('falsehood',)
-4.3858385500839985	('falsely',)
-4.686868545747979	('falter',)
-3.8417705057337224	('fame',)
-4.686868545747979	('familiar',)
-4.3858385500839985	('famish',)
-4.3858385500839985	('famously',)
-4.686868545747979	('fan',)
-4.686868545747979	('fancy',)
-4.686868545747979	('fane',)
-3.6076872997003546	('far',)
-3.9878985414119605	('fare',)
-4.3858385500839985	('fares',)
-3.385838550083998	('farewell',)
-4.686868545747979	('farther',)
-4.3858385500839985	('fashion',)
-4.686868545747979	('fashions',)
-3.7837785587560355	('fast',)
-4.686868545747979	('fasts',)
-4.686868545747979	('fatal',)
-3.344445864925773	('father',)
-4.686868545747979	('fatherinlaw',)
-4.686868545747979	('fatherless',)
-3.7326260363086545	('fathers',)
-4.686868545747979	('fatigate',)
-4.686868545747979	('fatting',)
-3.8417705057337224	('fault',)
-4.686868545747979	('faultless',)
-3.908717295364336	('faults',)
-4.084808554420017	('favour',)
-4.686868545747979	('favourd',)
-4.686868545747979	('favouring',)
-4.686868545747979	('favours',)
-4.686868545747979	('fawn',)
-4.686868545747979	('fawning',)
-4.686868545747979	('fawns',)
-3.3066573040363734	('fear',)
-4.209747291028317	('feard',)
-3.7837785587560355	('fearful',)
-4.686868545747979	('fearing',)
-4.209747291028317	('fears',)
-4.209747291028317	('feast',)
-4.686868545747979	('feasts',)
-4.686868545747979	('feats',)
-4.686868545747979	('feature',)
-4.686868545747979	('fed',)
-4.3858385500839985	('fee',)
-4.3858385500839985	('feeble',)
-4.686868545747979	('feebling',)
-4.686868545747979	('feebly',)
-4.3858385500839985	('feed',)
-4.3858385500839985	('feeding',)
-3.908717295364336	('feel',)
-4.686868545747979	('feeling',)
-4.686868545747979	('feels',)
-4.686868545747979	('feet',)
-4.3858385500839985	('fell',)
-4.686868545747979	('fellest',)
-3.4081149447951504	('fellow',)
-3.908717295364336	('fellows',)
-4.686868545747979	('fellowship',)
-4.686868545747979	('fellowtribune',)
-4.686868545747979	('fen',)
-4.686868545747979	('fens',)
-4.686868545747979	('ferryman',)
-4.686868545747979	('fester',)
-4.3858385500839985	('fetch',)
-4.686868545747979	('fetchd',)
-4.686868545747979	('feverous',)
-4.209747291028317	('few',)
-4.686868545747979	('fidiused',)
-3.8417705057337224	('fie',)
-3.6868685457479793	('field',)
-4.686868545747979	('fielded',)
-4.686868545747979	('fiend',)
-4.3858385500839985	('fiends',)
-4.209747291028317	('fierce',)
-4.3858385500839985	('fiery',)
-4.686868545747979	('fifes',)
-4.686868545747979	('fifth',)
-3.540740510069741	('fight',)
-4.686868545747979	('fighting',)
-4.686868545747979	('fights',)
-4.686868545747979	('figure',)
-4.686868545747979	('figured',)
-4.686868545747979	('file',)
-4.686868545747979	('filea',)
-4.686868545747979	('files',)
-4.3858385500839985	('fill',)
-4.3858385500839985	('filld',)
-4.686868545747979	('filling',)
-4.686868545747979	('fillip',)
-4.686868545747979	('fills',)
-3.456419624369705	('find',)
-4.209747291028317	('finds',)
-3.9878985414119605	('fine',)
-4.686868545747979	('fines',)
-4.084808554420017	('finger',)
-4.686868545747979	('finished',)
-4.686868545747979	('fins',)
-3.6454758605897544	('fire',)
-4.686868545747979	('firenew',)
-4.209747291028317	('fires',)
-4.686868545747979	('firm',)
-2.443830497061685	('first',)
-4.686868545747979	('fish',)
-4.686868545747979	('fishes',)
-4.686868545747979	('fisting',)
-3.8417705057337224	('fit',)
-4.3858385500839985	('fitly',)
-4.686868545747979	('fitness',)
-4.3858385500839985	('fitter',)
-4.686868545747979	('fittest',)
-4.084808554420017	('five',)
-4.686868545747979	('fix',)
-4.686868545747979	('fixed',)
-4.686868545747979	('flag',)
-4.3858385500839985	('flame',)
-4.686868545747979	('flamens',)
-4.3858385500839985	('flat',)
-3.7326260363086545	('flatter',)
-4.686868545747979	('flattered',)
-4.686868545747979	('flatterer',)
-4.3858385500839985	('flatterers',)
-4.3858385500839985	('flattery',)
-4.686868545747979	('flaw',)
-4.686868545747979	('flayd',)
-4.3858385500839985	('fled',)
-4.686868545747979	('fleeting',)
-4.3858385500839985	('flesh',)
-4.209747291028317	('fliers',)
-4.3858385500839985	('flies',)
-4.686868545747979	('flight',)
-4.3858385500839985	('flint',)
-4.686868545747979	('floating',)
-4.209747291028317	('flood',)
-4.686868545747979	('flour',)
-4.686868545747979	('flourish',)
-4.686868545747979	('flout',)
-4.686868545747979	('flouted',)
-4.686868545747979	('flow',)
-4.686868545747979	('flower',)
-4.3858385500839985	('flowers',)
-4.686868545747979	('flung',)
-4.686868545747979	('flutterd',)
-3.908717295364336	('fly',)
-4.686868545747979	('fob',)
-4.084808554420017	('foe',)
-4.084808554420017	('foes',)
-4.686868545747979	('fog',)
-4.686868545747979	('foild',)
-4.686868545747979	('folded',)
-4.686868545747979	('foldin',)
-4.686868545747979	('foldsin',)
-3.510777286692298	('follow',)
-4.084808554420017	('followd',)
-4.3858385500839985	('followed',)
-4.686868545747979	('follower',)
-4.686868545747979	('followers',)
-4.686868545747979	('following',)
-4.084808554420017	('follows',)
-4.084808554420017	('folly',)
-4.3858385500839985	('fond',)
-4.686868545747979	('food',)
-3.7837785587560355	('fool',)
-4.686868545747979	('foolery',)
-4.686868545747979	('foolhardiness',)
-4.209747291028317	('foolish',)
-3.8417705057337224	('fools',)
-3.7326260363086545	('foot',)
-4.686868545747979	('footing',)
-2.1036697717793564	('for',)
-4.686868545747979	('forbad',)
-4.686868545747979	('forbear',)
-4.3858385500839985	('forbid',)
-4.084808554420017	('force',)
-4.3858385500839985	('forced',)
-3.9878985414119605	('fore',)
-4.686868545747979	('foreadvised',)
-4.3858385500839985	('forehead',)
-4.686868545747979	('foreign',)
-4.3858385500839985	('foremost',)
-4.686868545747979	('forenoon',)
-4.686868545747979	('forfeit',)
-4.686868545747979	('forged',)
-4.686868545747979	('forges',)
-3.9878985414119605	('forget',)
-4.686868545747979	('forgetfulness',)
-4.084808554420017	('forgive',)
-3.908717295364336	('forgot',)
-4.3858385500839985	('form',)
-4.084808554420017	('former',)
-4.686868545747979	('formerly',)
-4.209747291028317	('fors',)
-4.3858385500839985	('forsake',)
-4.3858385500839985	('forsook',)
-4.3858385500839985	('forsooth',)
-4.686868545747979	('forswearing',)
-4.686868545747979	('forswore',)
-4.3858385500839985	('forsworn',)
-3.908717295364336	('fort',)
-3.288928537075942	('forth',)
-4.686868545747979	('forthwith',)
-4.686868545747979	('fortnight',)
-4.686868545747979	('fortunate',)
-3.6868685457479793	('fortune',)
-4.084808554420017	('fortunes',)
-4.686868545747979	('forty',)
-4.686868545747979	('forward',)
-4.686868545747979	('fossetseller',)
-3.7326260363086545	('fought',)
-3.8417705057337224	('foul',)
-4.3858385500839985	('fouler',)
-4.686868545747979	('foulest',)
-4.686868545747979	('foulfaced',)
-3.9878985414119605	('found',)
-4.686868545747979	('foundation',)
-4.084808554420017	('four',)
-4.084808554420017	('fourth',)
-4.686868545747979	('foxes',)
-4.686868545747979	('foxship',)
-4.686868545747979	('fragments',)
-4.084808554420017	('frame',)
-4.3858385500839985	('framed',)
-4.686868545747979	('franchises',)
-4.686868545747979	('frank',)
-4.686868545747979	('frankd',)
-4.686868545747979	('frantic',)
-3.908717295364336	('free',)
-4.686868545747979	('freedom',)
-4.686868545747979	('freedoms',)
-4.686868545747979	('freelier',)
-4.686868545747979	('freely',)
-4.686868545747979	('freezeth',)
-4.686868545747979	('french',)
-4.686868545747979	('fresh',)
-4.686868545747979	('freshest',)
-3.540740510069741	('friend',)
-4.686868545747979	('friendliness',)
-4.084808554420017	('friendly',)
-3.063619255350079	('friends',)
-4.686868545747979	('friendship',)
-4.686868545747979	('friendsthis',)
-4.209747291028317	('fright',)
-4.686868545747979	('frighted',)
-2.6224105565210607	('from',)
-4.3858385500839985	('front',)
-4.686868545747979	('fronts',)
-4.686868545747979	('frost',)
-4.209747291028317	('frown',)
-4.686868545747979	('frownd',)
-4.686868545747979	('frowning',)
-4.686868545747979	('frozen',)
-4.3858385500839985	('fruit',)
-4.686868545747979	('fulfil',)
-3.36464925101406	('full',)
-4.209747291028317	('fully',)
-4.686868545747979	('function',)
-4.686868545747979	('functions',)
-4.686868545747979	('fundamental',)
-4.686868545747979	('furies',)
-3.456419624369705	('further',)
-4.686868545747979	('fury',)
-4.686868545747979	('fusty',)
-4.084808554420017	('g',)
-4.209747291028317	('gain',)
-4.686868545747979	('gains',)
-3.908717295364336	('gainst',)
-4.686868545747979	('galen',)
-4.686868545747979	('gallantspringing',)
-4.686868545747979	('galld',)
-4.686868545747979	('gan',)
-4.686868545747979	('gangrened',)
-4.686868545747979	('gaoler',)
-4.686868545747979	('gap',)
-4.686868545747979	('gape',)
-4.686868545747979	('garb',)
-4.084808554420017	('garland',)
-4.686868545747979	('garliceaters',)
-4.084808554420017	('garments',)
-4.686868545747979	('garners',)
-4.686868545747979	('gash',)
-4.3858385500839985	('gate',)
-3.4827485630920543	('gates',)
-4.686868545747979	('gather',)
-3.8417705057337224	('gave',)
-4.686868545747979	('gavest',)
-4.3858385500839985	('gaze',)
-4.686868545747979	('gear',)
-4.3858385500839985	('geese',)
-4.686868545747979	('gems',)
-3.1553896287057244	('general',)
-4.686868545747979	('generals',)
-4.686868545747979	('generosity',)
-3.510777286692298	('gentle',)
-4.686868545747979	('gentlefolks',)
-3.7326260363086545	('gentleman',)
-4.084808554420017	('gentlemen',)
-4.686868545747979	('gentler',)
-4.686868545747979	('gentlesleeping',)
-4.686868545747979	('gentlewoman',)
-4.686868545747979	('gentlewomen',)
-4.686868545747979	('gently',)
-4.3858385500839985	('gentry',)
-4.209747291028317	('george',)
-3.5729251934411423	('get',)
-4.686868545747979	('getter',)
-4.686868545747979	('ghastly',)
-4.3858385500839985	('ghost',)
-4.686868545747979	('giber',)
-4.686868545747979	('gibingly',)
-4.3858385500839985	('giddy',)
-4.686868545747979	('gifts',)
-4.686868545747979	('gilded',)
-4.686868545747979	('gilt',)
-4.686868545747979	('gird',)
-4.209747291028317	('girl',)
-2.908717295364336	('give',)
-3.5729251934411423	('given',)
-4.209747291028317	('gives',)
-4.209747291028317	('giving',)
-3.908717295364336	('glad',)
-4.686868545747979	('gladly',)
-4.209747291028317	('glass',)
-4.686868545747979	('glasses',)
-4.686868545747979	('glean',)
-4.686868545747979	('glories',)
-4.3858385500839985	('glorious',)
-3.9878985414119605	('glory',)
-2.600508715073231	('gloucester',)
-4.686868545747979	('gloucesters',)
-4.686868545747979	('gloves',)
-4.686868545747979	('glowing',)
-4.3858385500839985	('gnaw',)
-4.686868545747979	('gnawd',)
-2.7374785391030665	('go',)
-4.686868545747979	('goaded',)
-4.686868545747979	('goat',)
-2.9465058562537356	('god',)
-4.686868545747979	('godded',)
-4.084808554420017	('godden',)
-4.686868545747979	('goddess',)
-4.686868545747979	('godfathers',)
-2.938680518741779	('gods',)
-3.9878985414119605	('goes',)
-3.9878985414119605	('going',)
-3.8417705057337224	('gold',)
-4.209747291028317	('golden',)
-3.288928537075942	('gone',)
-2.5762788354487305	('good',)
-3.9878985414119605	('goodly',)
-4.686868545747979	('gosling',)
-4.686868545747979	('gossips',)
-4.686868545747979	('gost',)
-3.8417705057337224	('got',)
-4.686868545747979	('govern',)
-4.3858385500839985	('governd',)
-4.686868545747979	('government',)
-4.209747291028317	('gown',)
-3.2097472910283167	('grace',)
-4.686868545747979	('graced',)
-4.686868545747979	('graceful',)
-4.209747291028317	('graces',)
-3.6868685457479793	('gracious',)
-4.686868545747979	('grafted',)
-3.908717295364336	('grain',)
-4.686868545747979	('grained',)
-4.686868545747979	('grains',)
-3.7837785587560355	('grandam',)
-4.686868545747979	('grandchild',)
-3.540740510069741	('grant',)
-4.084808554420017	('granted',)
-4.686868545747979	('grants',)
-4.686868545747979	('grapes',)
-4.686868545747979	('grateful',)
-4.686868545747979	('gratify',)
-4.209747291028317	('gratis',)
-4.686868545747979	('gratitude',)
-4.686868545747979	('gratulate',)
-3.5729251934411423	('grave',)
-4.686868545747979	('graver',)
-4.686868545747979	('graves',)
-4.686868545747979	('graveshall',)
-4.686868545747979	('greasy',)
-3.09580393872148	('great',)
-3.7837785587560355	('greater',)
-4.686868545747979	('greatest',)
-4.3858385500839985	('greatness',)
-4.686868545747979	('greatst',)
-4.686868545747979	('grecian',)
-4.3858385500839985	('greece',)
-4.3858385500839985	('green',)
-4.209747291028317	('greet',)
-4.3858385500839985	('grew',)
-3.7837785587560355	('grey',)
-4.686868545747979	('greyhound',)
-4.3858385500839985	('grief',)
-4.686868545747979	('griefshot',)
-4.686868545747979	('grieve',)
-4.209747291028317	('grieves',)
-3.9878985414119605	('grievous',)
-4.209747291028317	('grim',)
-4.686868545747979	('grimvisaged',)
-4.686868545747979	('grind',)
-4.686868545747979	('groan',)
-4.686868545747979	('groans',)
-4.686868545747979	('groats',)
-4.686868545747979	('gross',)
-4.686868545747979	('grossly',)
-3.908717295364336	('ground',)
-4.686868545747979	('grounded',)
-4.686868545747979	('grove',)
-3.7837785587560355	('grow',)
-3.9878985414119605	('grown',)
-4.209747291028317	('grows',)
-4.209747291028317	('growth',)
-4.3858385500839985	('grub',)
-4.686868545747979	('grudge',)
-4.686868545747979	('grudging',)
-3.9878985414119605	('guard',)
-4.686868545747979	('guardant',)
-4.686868545747979	('guarded',)
-3.9878985414119605	('guess',)
-4.3858385500839985	('guest',)
-4.686868545747979	('guided',)
-4.686868545747979	('guider',)
-4.3858385500839985	('guile',)
-4.686868545747979	('guilt',)
-4.209747291028317	('guiltless',)
-4.3858385500839985	('guilty',)
-4.3858385500839985	('gulf',)
-4.686868545747979	('gulls',)
-4.686868545747979	('gusts',)
-3.7326260363086545	('ha',)
-2.6868685457479793	('had',)
-3.908717295364336	('hadst',)
-4.686868545747979	('hag',)
-3.9878985414119605	('hail',)
-4.686868545747979	('hailstone',)
-4.084808554420017	('hair',)
-4.686868545747979	('halbert',)
-4.686868545747979	('hale',)
-3.540740510069741	('half',)
-4.686868545747979	('halfpint',)
-4.3858385500839985	('halt',)
-3.271895197777161	('hand',)
-4.686868545747979	('handkerchers',)
-4.686868545747979	('handling',)
-3.510777286692298	('hands',)
-4.686868545747979	('handsome',)
-3.7326260363086545	('hang',)
-4.686868545747979	('hanged',)
-4.686868545747979	('hanging',)
-4.3858385500839985	('hangmen',)
-4.686868545747979	('hangs',)
-4.209747291028317	('hap',)
-4.3858385500839985	('haply',)
-4.686868545747979	('happier',)
-4.3858385500839985	('happiness',)
-3.7326260363086545	('happy',)
-4.209747291028317	('hard',)
-4.209747291028317	('hardly',)
-4.686868545747979	('hardness',)
-4.686868545747979	('hardy',)
-4.686868545747979	('hare',)
-4.686868545747979	('hares',)
-3.6868685457479793	('hark',)
-4.686868545747979	('harlots',)
-3.6454758605897544	('harm',)
-4.686868545747979	('harms',)
-4.686868545747979	('harp',)
-4.686868545747979	('harrow',)
-4.686868545747979	('harsh',)
-4.686868545747979	('harts',)
-4.209747291028317	('harvest',)
-4.686868545747979	('harvestman',)
-3.1428005013977036	('has',)
-3.271895197777161	('hast',)
-4.084808554420017	('haste',)
-3.3066573040363734	('hastings',)
-4.3858385500839985	('hasty',)
-4.209747291028317	('hat',)
-4.686868545747979	('hatchd',)
-4.3858385500839985	('hatches',)
-4.686868545747979	('hatching',)
-3.2097472910283167	('hate',)
-4.084808554420017	('hated',)
-4.686868545747979	('hateful',)
-4.3858385500839985	('hates',)
-2.789241454457538	('hath',)
-3.7837785587560355	('hatred',)
-4.686868545747979	('haught',)
-4.686868545747979	('haughty',)
-4.3858385500839985	('haunt',)
-2.1210207270744617	('have',)
-4.686868545747979	('haver',)
-4.686868545747979	('havet',)
-3.6868685457479793	('having',)
-4.686868545747979	('havoc',)
-4.209747291028317	('hazard',)
-4.686868545747979	('hazards',)
-2.032692003870019	('he',)
-3.7326260363086545	('head',)
-3.9878985414119605	('heads',)
-4.686868545747979	('heal',)
-4.084808554420017	('health',)
-4.686868545747979	('heap',)
-4.3858385500839985	('heaps',)
-4.686868545747979	('heapt',)
-2.854359633041743	('hear',)
-3.385838550083998	('heard',)
-3.8417705057337224	('hearing',)
-4.686868545747979	('hearkens',)
-4.686868545747979	('hearse',)
-4.686868545747979	('hearst',)
-3.005627308372392	('heart',)
-4.209747291028317	('hearth',)
-4.686868545747979	('hearthardening',)
-4.209747291028317	('heartily',)
-3.4315960406446733	('hearts',)
-4.686868545747979	('heartsorrowing',)
-4.3858385500839985	('heat',)
-3.36464925101406	('heaven',)
-4.686868545747979	('heavenly',)
-3.8417705057337224	('heavens',)
-4.686868545747979	('heaviest',)
-4.3858385500839985	('heavily',)
-3.9878985414119605	('heavy',)
-4.3858385500839985	('hector',)
-4.686868545747979	('hectors',)
-4.686868545747979	('hecuba',)
-4.686868545747979	('hedgehog',)
-4.084808554420017	('heed',)
-4.084808554420017	('heels',)
-4.686868545747979	('height',)
-4.686868545747979	('heightend',)
-4.686868545747979	('heinous',)
-4.084808554420017	('heir',)
-4.686868545747979	('heirs',)
-3.6454758605897544	('held',)
-3.4315960406446733	('hell',)
-4.686868545747979	('hellgovernd',)
-4.3858385500839985	('helms',)
-3.36464925101406	('help',)
-4.686868545747979	('helpless',)
-4.209747291028317	('helps',)
-4.686868545747979	('helpst',)
-4.686868545747979	('hen',)
-3.456419624369705	('hence',)
-4.084808554420017	('henry',)
-4.084808554420017	('henrys',)
-2.854359633041743	('her',)
-4.209747291028317	('herald',)
-4.686868545747979	('heralds',)
-4.686868545747979	('herbs',)
-4.3858385500839985	('hercules',)
-4.209747291028317	('herd',)
-4.686868545747979	('herdsmen',)
-2.789241454457538	('here',)
-3.9878985414119605	('hereafter',)
-4.686868545747979	('hereby',)
-4.686868545747979	('hereditary',)
-4.686868545747979	('herein',)
-3.7326260363086545	('heres',)
-4.686868545747979	('herethis',)
-4.686868545747979	('hereto',)
-4.3858385500839985	('herself',)
-3.255504781588992	('hes',)
-4.686868545747979	('hetis',)
-4.686868545747979	('hew',)
-4.686868545747979	('hews',)
-4.686868545747979	('hidden',)
-3.9878985414119605	('hide',)
-4.686868545747979	('hideous',)
-4.084808554420017	('hie',)
-3.8417705057337224	('high',)
-4.686868545747979	('higher',)
-4.209747291028317	('highest',)
-4.686868545747979	('highly',)
-4.3858385500839985	('highness',)
-4.686868545747979	('highreaching',)
-4.686868545747979	('highst',)
-4.686868545747979	('highswoln',)
-4.686868545747979	('hills',)
-4.686868545747979	('hilts',)
-2.156668847544897	('him',)
-4.686868545747979	('himmade',)
-3.36464925101406	('himself',)
-4.686868545747979	('himselfwhich',)
-4.686868545747979	('hind',)
-4.686868545747979	('hinder',)
-4.686868545747979	('hint',)
-4.209747291028317	('hire',)
-4.686868545747979	('hired',)
-2.1233874603535687	('his',)
-3.6076872997003546	('hither',)
-4.686868545747979	('hitherward',)
-3.908717295364336	('ho',)
-4.686868545747979	('hoarded',)
-4.686868545747979	('hob',)
-4.686868545747979	('hog',)
-3.4827485630920543	('hold',)
-4.209747291028317	('holding',)
-4.209747291028317	('holds',)
-4.686868545747979	('hole',)
-4.3858385500839985	('holes',)
-4.686868545747979	('holloa',)
-4.686868545747979	('hollow',)
-3.9878985414119605	('holp',)
-3.6076872997003546	('holy',)
-3.107084949131169	('home',)
-4.686868545747979	('homicide',)
-4.084808554420017	('honest',)
-4.686868545747979	('honester',)
-4.686868545747979	('honesty',)
-4.686868545747979	('honey',)
-3.224470547849023	('honour',)
-4.084808554420017	('honourable',)
-4.084808554420017	('honourd',)
-3.540740510069741	('honours',)
-4.209747291028317	('hoo',)
-4.686868545747979	('hoot',)
-4.686868545747979	('hooting',)
-3.36464925101406	('hope',)
-4.686868545747979	('hopeful',)
-4.686868545747979	('hopeless',)
-4.3858385500839985	('hopes',)
-4.686868545747979	('hoping',)
-4.686868545747979	('horn',)
-4.3858385500839985	('horns',)
-4.686868545747979	('horrors',)
-3.9878985414119605	('horse',)
-4.686868545747979	('horsed',)
-4.686868545747979	('horsedrench',)
-4.3858385500839985	('horses',)
-4.686868545747979	('hospitable',)
-4.209747291028317	('host',)
-4.686868545747979	('hostages',)
-4.686868545747979	('hostile',)
-4.686868545747979	('hostilius',)
-4.3858385500839985	('hot',)
-4.686868545747979	('hotly',)
-4.686868545747979	('hound',)
-3.5729251934411423	('hour',)
-4.686868545747979	('hourly',)
-3.8417705057337224	('hours',)
-3.344445864925773	('house',)
-4.686868545747979	('housekeepers',)
-2.7423858735978106	('how',)
-4.686868545747979	('howbeit',)
-4.686868545747979	('howled',)
-4.686868545747979	('howsoever',)
-4.3858385500839985	('huggd',)
-4.3858385500839985	('hum',)
-4.209747291028317	('human',)
-4.686868545747979	('humane',)
-4.686868545747979	('humanely',)
-3.8417705057337224	('humble',)
-4.686868545747979	('humbler',)
-4.209747291028317	('humbly',)
-4.209747291028317	('humility',)
-4.686868545747979	('humorous',)
-4.084808554420017	('humour',)
-3.9878985414119605	('hundred',)
-4.3858385500839985	('hung',)
-4.3858385500839985	('hunger',)
-4.3858385500839985	('hungry',)
-4.3858385500839985	('hunt',)
-4.209747291028317	('hurl',)
-4.686868545747979	('hurried',)
-4.686868545747979	('hurry',)
-4.084808554420017	('hurt',)
-4.686868545747979	('hurts',)
-3.288928537075942	('husband',)
-4.686868545747979	('husbandry',)
-4.3858385500839985	('husbands',)
-4.686868545747979	('husewife',)
-4.686868545747979	('hushd',)
-4.686868545747979	('hydra',)
-4.686868545747979	('hyperbolical',)
-1.7278271534268856	('i',)
-4.3858385500839985	('ice',)
-4.686868545747979	('icicle',)
-4.686868545747979	('id',)
-4.209747291028317	('idle',)
-4.686868545747979	('idly',)
-2.4667604577079243	('if',)
-4.084808554420017	('ignorance',)
-4.686868545747979	('ignoranceit',)
-4.209747291028317	('ignorant',)
-3.4827485630920543	('iii',)
-4.084808554420017	('ild',)
-2.811807282356279	('ill',)
-4.686868545747979	('illdispersing',)
-4.686868545747979	('illwill',)
-4.686868545747979	('image',)
-4.686868545747979	('images',)
-4.686868545747979	('imagination',)
-4.209747291028317	('imagine',)
-4.686868545747979	('imitate',)
-4.686868545747979	('immediately',)
-4.686868545747979	('immured',)
-4.3858385500839985	('impatience',)
-4.686868545747979	('impeachments',)
-4.3858385500839985	('impediment',)
-4.686868545747979	('imperfect',)
-4.686868545747979	('importune',)
-4.686868545747979	('imposition',)
-4.686868545747979	('impossibility',)
-4.686868545747979	('impressd',)
-4.3858385500839985	('impression',)
-4.686868545747979	('imprison',)
-4.686868545747979	('imprisond',)
-4.084808554420017	('imprisonment',)
-4.686868545747979	('impure',)
-2.0038215075091297	('in',)
-4.3858385500839985	('incapable',)
-4.686868545747979	('incense',)
-4.209747291028317	('incensed',)
-4.686868545747979	('inches',)
-4.686868545747979	('inclinable',)
-4.686868545747979	('inclination',)
-4.686868545747979	('incline',)
-4.686868545747979	('inclined',)
-4.686868545747979	('includes',)
-4.686868545747979	('inclusive',)
-4.686868545747979	('incorporate',)
-3.9878985414119605	('increase',)
-3.4081149447951504	('indeed',)
-4.686868545747979	('index',)
-4.686868545747979	('indifferently',)
-4.686868545747979	('indignation',)
-4.686868545747979	('indirect',)
-4.686868545747979	('induced',)
-4.686868545747979	('inductions',)
-4.686868545747979	('inestimable',)
-4.686868545747979	('inevitable',)
-4.686868545747979	('infant',)
-4.686868545747979	('infantlike',)
-4.209747291028317	('infect',)
-4.3858385500839985	('infected',)
-4.3858385500839985	('infection',)
-4.686868545747979	('inferior',)
-4.686868545747979	('infirmity',)
-3.9878985414119605	('inform',)
-4.686868545747979	('information',)
-4.686868545747979	('informd',)
-4.686868545747979	('infringe',)
-4.686868545747979	('ingrate',)
-4.3858385500839985	('ingrateful',)
-4.3858385500839985	('ingratitude',)
-4.686868545747979	('inhabit',)
-4.686868545747979	('inherent',)
-4.686868545747979	('inheritance',)
-4.686868545747979	('inherited',)
-4.686868545747979	('inhuman',)
-4.686868545747979	('injured',)
-4.686868545747979	('injurious',)
-3.9878985414119605	('injury',)
-4.686868545747979	('inkling',)
-4.209747291028317	('innocent',)
-4.686868545747979	('innocents',)
-4.686868545747979	('innovator',)
-4.3858385500839985	('inquire',)
-4.686868545747979	('ins',)
-4.686868545747979	('insensible',)
-4.686868545747979	('inshelld',)
-4.686868545747979	('insinuate',)
-4.3858385500839985	('insinuating',)
-4.686868545747979	('insisting',)
-4.209747291028317	('insolence',)
-4.3858385500839985	('insolent',)
-4.3858385500839985	('instant',)
-4.686868545747979	('instantly',)
-4.686868545747979	('instead',)
-4.3858385500839985	('instinct',)
-4.686868545747979	('instruct',)
-4.3858385500839985	('instruction',)
-4.3858385500839985	('instruments',)
-4.686868545747979	('insult',)
-4.686868545747979	('insulting',)
-4.3858385500839985	('insurrections',)
-4.084808554420017	('int',)
-4.686868545747979	('integrity',)
-4.3858385500839985	('intelligence',)
-4.686868545747979	('intend',)
-4.3858385500839985	('intended',)
-4.3858385500839985	('intends',)
-3.9878985414119605	('intent',)
-4.3858385500839985	('intercession',)
-4.686868545747979	('interchange',)
-4.686868545747979	('interest',)
-4.686868545747979	('interims',)
-4.3858385500839985	('interior',)
-4.686868545747979	('interjoin',)
-4.3858385500839985	('interpretation',)
-4.686868545747979	('interrd',)
-4.686868545747979	('interred',)
-4.686868545747979	('interrupted',)
-3.36464925101406	('into',)
-4.686868545747979	('invention',)
-4.686868545747979	('inventory',)
-4.686868545747979	('invested',)
-4.686868545747979	('inveterate',)
-4.686868545747979	('invincible',)
-4.686868545747979	('invocate',)
-4.686868545747979	('inward',)
-4.686868545747979	('iron',)
-4.686868545747979	('irons',)
-4.686868545747979	('ironwitted',)
-2.1553896287057244	('is',)
-3.9878985414119605	('issue',)
-4.3858385500839985	('issued',)
-4.686868545747979	('issues',)
-3.9878985414119605	('ist',)
-2.1378652837221916	('it',)
-4.3858385500839985	('italy',)
-4.686868545747979	('itch',)
-4.686868545747979	('itcoriolanus',)
-4.686868545747979	('ithaca',)
-4.686868545747979	('ithere',)
-4.084808554420017	('its',)
-3.8417705057337224	('itself',)
-3.6454758605897544	('iv',)
-4.209747291028317	('jack',)
-4.686868545747979	('jacks',)
-4.686868545747979	('james',)
-4.209747291028317	('jealous',)
-4.3858385500839985	('jest',)
-4.686868545747979	('jesu',)
-4.686868545747979	('jet',)
-4.686868545747979	('jewel',)
-4.686868545747979	('jewels',)
-4.3858385500839985	('join',)
-4.084808554420017	('joind',)
-4.686868545747979	('jointservant',)
-4.3858385500839985	('jot',)
-4.3858385500839985	('journey',)
-4.686868545747979	('journeys',)
-4.084808554420017	('jove',)
-4.3858385500839985	('joves',)
-3.6076872997003546	('joy',)
-4.209747291028317	('joyful',)
-4.686868545747979	('joyfully',)
-4.686868545747979	('joyless',)
-4.209747291028317	('joys',)
-4.084808554420017	('judge',)
-3.9878985414119605	('judgment',)
-4.686868545747979	('judgmentday',)
-4.686868545747979	('judgments',)
-4.686868545747979	('judicious',)
-4.686868545747979	('jump',)
-4.686868545747979	('junius',)
-4.686868545747979	('juno',)
-4.686868545747979	('junolike',)
-4.084808554420017	('jupiter',)
-4.209747291028317	('just',)
-3.9878985414119605	('justice',)
-4.686868545747979	('justices',)
-4.686868545747979	('kam',)
-4.686868545747979	('keen',)
-3.4081149447951504	('keep',)
-4.3858385500839985	('keeper',)
-4.3858385500839985	('keeping',)
-4.686868545747979	('keeps',)
-3.908717295364336	('kept',)
-4.686868545747979	('keycold',)
-4.686868545747979	('keys',)
-4.686868545747979	('kickd',)
-3.4315960406446733	('kill',)
-4.209747291028317	('killd',)
-4.3858385500839985	('killed',)
-4.209747291028317	('killing',)
-4.686868545747979	('kin',)
-3.540740510069741	('kind',)
-4.686868545747979	('kinder',)
-4.686868545747979	('kindest',)
-4.3858385500839985	('kindle',)
-3.9878985414119605	('kindly',)
-4.3858385500839985	('kindness',)
-3.908717295364336	('kindred',)
-2.7574496200336864	('king',)
-3.9878985414119605	('kingdom',)
-4.686868545747979	('kingdoms',)
-4.3858385500839985	('kingly',)
-4.686868545747979	('kinglycrowned',)
-3.908717295364336	('kings',)
-4.084808554420017	('kiss',)
-4.686868545747979	('kissd',)
-4.686868545747979	('kisses',)
-4.686868545747979	('kissing',)
-4.686868545747979	('kitchen',)
-4.209747291028317	('kites',)
-4.3858385500839985	('knave',)
-4.209747291028317	('knaves',)
-3.7837785587560355	('knee',)
-4.686868545747979	('kneel',)
-4.3858385500839985	('kneeld',)
-4.686868545747979	('kneels',)
-3.908717295364336	('knees',)
-4.686868545747979	('knell',)
-3.9878985414119605	('knew',)
-4.3858385500839985	('knife',)
-4.686868545747979	('knit',)
-4.686868545747979	('knock',)
-4.686868545747979	('knot',)
-2.854359633041743	('know',)
-4.686868545747979	('knowas',)
-4.686868545747979	('knowest',)
-4.686868545747979	('knowing',)
-4.084808554420017	('knowledge',)
-3.6454758605897544	('known',)
-3.7326260363086545	('knows',)
-3.9878985414119605	('knowst',)
-4.209747291028317	('knowt',)
-4.686868545747979	('knowthat',)
-4.3858385500839985	('la',)
-3.9878985414119605	('labour',)
-4.686868545747979	('laboured',)
-4.686868545747979	('labours',)
-4.686868545747979	('lace',)
-3.9878985414119605	('lack',)
-4.3858385500839985	('lackd',)
-4.686868545747979	('ladders',)
-3.5729251934411423	('ladies',)
-4.686868545747979	('ladiesand',)
-4.3858385500839985	('lads',)
-2.8673246102061105	('lady',)
-4.3858385500839985	('ladys',)
-4.3858385500839985	('ladyship',)
-4.686868545747979	('lag',)
-3.9878985414119605	('laid',)
-4.209747291028317	('lamb',)
-4.686868545747979	('lame',)
-4.686868545747979	('lamely',)
-3.9878985414119605	('lament',)
-4.3858385500839985	('lamentation',)
-4.3858385500839985	('lamentations',)
-4.686868545747979	('lamenting',)
-3.9878985414119605	('lancaster',)
-4.686868545747979	('lance',)
-3.9878985414119605	('land',)
-4.686868545747979	('language',)
-4.686868545747979	('lap',)
-4.686868545747979	('lapsing',)
-4.3858385500839985	('large',)
-3.224470547849023	('lartius',)
-4.686868545747979	('larum',)
-4.686868545747979	('lascivious',)
-3.456419624369705	('last',)
-3.7837785587560355	('late',)
-4.209747291028317	('lately',)
-4.686868545747979	('latest',)
-4.209747291028317	('laugh',)
-4.686868545747979	('laughd',)
-4.686868545747979	('laughter',)
-3.7326260363086545	('law',)
-3.908717295364336	('lawful',)
-4.686868545747979	('lawless',)
-4.686868545747979	('laws',)
-3.385838550083998	('lay',)
-4.209747291028317	('lead',)
-4.3858385500839985	('leaden',)
-4.686868545747979	('leader',)
-4.686868545747979	('leading',)
-3.908717295364336	('leads',)
-4.686868545747979	('leadst',)
-4.209747291028317	('league',)
-4.686868545747979	('lean',)
-4.686868545747979	('leanness',)
-3.908717295364336	('learn',)
-4.686868545747979	('learnd',)
-4.686868545747979	('learned',)
-4.686868545747979	('leash',)
-4.686868545747979	('leasing',)
-4.3858385500839985	('least',)
-3.1955068519137066	('leave',)
-3.9878985414119605	('leaves',)
-4.686868545747979	('lectures',)
-3.9878985414119605	('led',)
-3.7837785587560355	('left',)
-4.686868545747979	('leg',)
-4.686868545747979	('legion',)
-4.209747291028317	('legs',)
-4.3858385500839985	('leisure',)
-4.686868545747979	('leisurely',)
-4.209747291028317	('lend',)
-4.3858385500839985	('length',)
-4.3858385500839985	('lengthend',)
-4.686868545747979	('lenity',)
-4.3858385500839985	('lent',)
-3.344445864925773	('less',)
-4.686868545747979	('lessend',)
-4.209747291028317	('lesser',)
-4.3858385500839985	('lessond',)
-3.6454758605897544	('lest',)
-2.7137406921482805	('let',)
-4.686868545747979	('lethargy',)
-3.3066573040363734	('lets',)
-3.908717295364336	('letter',)
-4.3858385500839985	('letters',)
-4.686868545747979	('levies',)
-4.686868545747979	('lewd',)
-4.3858385500839985	('liar',)
-4.686868545747979	('libels',)
-4.686868545747979	('liberal',)
-4.209747291028317	('liberties',)
-3.9878985414119605	('liberty',)
-4.686868545747979	('lick',)
-3.540740510069741	('lie',)
-4.209747291028317	('liege',)
-3.540740510069741	('lies',)
-4.209747291028317	('liest',)
-3.908717295364336	('lieutenant',)
-4.686868545747979	('lieve',)
-3.3066573040363734	('life',)
-4.3858385500839985	('lift',)
-4.209747291028317	('light',)
-4.686868545747979	('lightly',)
-4.686868545747979	('lightlythough',)
-4.686868545747979	('lightning',)
-2.7677904533719055	('like',)
-4.3858385500839985	('likelihood',)
-4.3858385500839985	('likely',)
-4.686868545747979	('likewise',)
-4.686868545747979	('liking',)
-4.686868545747979	('limb',)
-4.3858385500839985	('limbs',)
-4.686868545747979	('limitation',)
-4.686868545747979	('linger',)
-4.686868545747979	('link',)
-4.686868545747979	('lion',)
-4.686868545747979	('lions',)
-3.9878985414119605	('lip',)
-3.9878985414119605	('lips',)
-4.209747291028317	('list',)
-4.686868545747979	('litterdnot',)
-3.271895197777161	('little',)
-3.224470547849023	('live',)
-4.3858385500839985	('lived',)
-4.686868545747979	('livery',)
-3.7326260363086545	('lives',)
-4.686868545747979	('livest',)
-4.084808554420017	('living',)
-4.084808554420017	('lo',)
-3.9878985414119605	('load',)
-4.686868545747979	('loaden',)
-4.686868545747979	('loath',)
-4.686868545747979	('loathed',)
-4.686868545747979	('lockram',)
-4.686868545747979	('locks',)
-4.686868545747979	('lodged',)
-4.3858385500839985	('loins',)
-4.686868545747979	('london',)
-4.686868545747979	('lonely',)
-3.36464925101406	('long',)
-4.3858385500839985	('longer',)
-4.686868545747979	('longs',)
-3.271895197777161	('look',)
-3.7837785587560355	('lookd',)
-4.209747291028317	('looked',)
-4.686868545747979	('looker',)
-4.3858385500839985	('looking',)
-4.3858385500839985	('lookingglass',)
-3.6868685457479793	('looks',)
-2.6956424700554846	('lord',)
-3.344445864925773	('lords',)
-4.686868545747979	('lordship',)
-3.4827485630920543	('lose',)
-3.7326260363086545	('loss',)
-3.9878985414119605	('lost',)
-4.686868545747979	('lots',)
-4.686868545747979	('loud',)
-4.686868545747979	('lourd',)
-4.686868545747979	('louts',)
-2.8944768562497254	('love',)
-3.5729251934411423	('loved',)
-4.3858385500839985	('lovelier',)
-4.686868545747979	('lovely',)
-4.3858385500839985	('lover',)
-3.4827485630920543	('loves',)
-4.686868545747979	('loveth',)
-4.3858385500839985	('loving',)
-4.686868545747979	('low',)
-4.3858385500839985	('lowest',)
-4.209747291028317	('loyal',)
-4.209747291028317	('ludlow',)
-4.686868545747979	('lulls',)
-4.686868545747979	('lump',)
-4.686868545747979	('lunatic',)
-4.3858385500839985	('lungs',)
-4.686868545747979	('lurchd',)
-4.686868545747979	('lurkd',)
-4.686868545747979	('lute',)
-4.686868545747979	('lycurgusesif',)
-4.686868545747979	('lying',)
-4.3858385500839985	('mad',)
-3.1817185674280735	('madam',)
-2.8875279962943976	('made',)
-4.686868545747979	('madest',)
-4.686868545747979	('madst',)
-4.686868545747979	('magician',)
-4.686868545747979	('magistrate',)
-4.3858385500839985	('magistrates',)
-4.686868545747979	('maid',)
-4.686868545747979	('maids',)
-4.686868545747979	('maild',)
-4.686868545747979	('maims',)
-4.209747291028317	('main',)
-4.686868545747979	('maintain',)
-3.6454758605897544	('majesty',)
-4.686868545747979	('major',)
-2.7837785587560355	('make',)
-4.686868545747979	('maker',)
-3.4827485630920543	('makes',)
-4.686868545747979	('makest',)
-3.908717295364336	('making',)
-4.686868545747979	('malapert',)
-4.686868545747979	('male',)
-3.6868685457479793	('malice',)
-4.3858385500839985	('malicious',)
-4.686868545747979	('maliciously',)
-4.686868545747979	('malign',)
-4.686868545747979	('malignant',)
-4.686868545747979	('malignantly',)
-4.686868545747979	('malkin',)
-4.3858385500839985	('malmseybutt',)
-4.686868545747979	('mammocked',)
-2.854359633041743	('man',)
-4.3858385500839985	('manacles',)
-4.686868545747979	('manchild',)
-4.686868545747979	('manenterd',)
-4.686868545747979	('mangles',)
-4.686868545747979	('manhood',)
-4.3858385500839985	('manifest',)
-4.686868545747979	('manifests',)
-4.686868545747979	('mankind',)
-4.686868545747979	('manly',)
-4.3858385500839985	('manner',)
-3.7326260363086545	('mans',)
-4.686868545747979	('mantled',)
-3.2397105144057603	('many',)
-4.686868545747979	('manyheaded',)
-4.686868545747979	('map',)
-4.686868545747979	('mar',)
-4.084808554420017	('march',)
-4.686868545747979	('marches',)
-4.686868545747979	('marcians',)
-2.600508715073231	('marcius',)
-4.686868545747979	('marcus',)
-3.255504781588992	('margaret',)
-4.3858385500839985	('margarets',)
-3.6454758605897544	('mark',)
-4.3858385500839985	('markd',)
-4.3858385500839985	('market',)
-3.7326260363086545	('marketplace',)
-4.084808554420017	('marks',)
-4.209747291028317	('marquess',)
-4.686868545747979	('marquis',)
-4.3858385500839985	('marrd',)
-4.686868545747979	('marriages',)
-4.3858385500839985	('married',)
-3.6076872997003546	('marry',)
-4.686868545747979	('marrying',)
-4.084808554420017	('mars',)
-4.686868545747979	('marvel',)
-4.686868545747979	('marvelld',)
-4.3858385500839985	('marvellous',)
-4.686868545747979	('maskd',)
-4.686868545747979	('massacre',)
-3.7837785587560355	('master',)
-3.6454758605897544	('masters',)
-4.686868545747979	('mastership',)
-4.209747291028317	('match',)
-4.686868545747979	('mates',)
-4.686868545747979	('matrons',)
-3.4081149447951504	('matter',)
-4.686868545747979	('mature',)
-2.835610197028904	('may',)
-4.3858385500839985	('mayor',)
-4.084808554420017	('mayst',)
-2.1683546058700918	('me',)
-4.3858385500839985	('meal',)
-3.8417705057337224	('mean',)
-4.686868545747979	('meanborn',)
-4.686868545747979	('meaner',)
-4.686868545747979	('meanest',)
-4.3858385500839985	('meaning',)
-3.7326260363086545	('means',)
-4.686868545747979	('meanst',)
-4.686868545747979	('meant',)
-4.209747291028317	('meantime',)
-4.686868545747979	('measles',)
-4.209747291028317	('measure',)
-4.686868545747979	('measureless',)
-4.686868545747979	('measures',)
-4.209747291028317	('meat',)
-4.686868545747979	('mechanics',)
-4.084808554420017	('meddle',)
-4.084808554420017	('meed',)
-4.686868545747979	('meekness',)
-3.510777286692298	('meet',)
-4.686868545747979	('meeting',)
-4.686868545747979	('meetings',)
-4.686868545747979	('meets',)
-4.3858385500839985	('melancholy',)
-4.686868545747979	('mellow',)
-4.3858385500839985	('melt',)
-4.686868545747979	('melted',)
-3.9878985414119605	('members',)
-4.084808554420017	('memory',)
-3.130566044980692	('men',)
-4.686868545747979	('menace',)
-4.3858385500839985	('mend',)
-2.4388952793861725	('menenius',)
-4.084808554420017	('mens',)
-4.686868545747979	('mepray',)
-4.686868545747979	('mercenary',)
-4.686868545747979	('merciless',)
-4.686868545747979	('mercury',)
-3.5729251934411423	('mercy',)
-4.3858385500839985	('mere',)
-4.686868545747979	('merely',)
-4.084808554420017	('merit',)
-4.686868545747979	('merrier',)
-4.686868545747979	('merrily',)
-4.209747291028317	('merry',)
-3.3066573040363734	('messenger',)
-3.7326260363086545	('met',)
-4.686868545747979	('metal',)
-4.686868545747979	('methink',)
-4.084808554420017	('methinks',)
-4.686868545747979	('method',)
-3.9878985414119605	('methought',)
-4.686868545747979	('methoughti',)
-4.3858385500839985	('methoughts',)
-4.209747291028317	('mewd',)
-4.686868545747979	('microcosm',)
-4.686868545747979	('middle',)
-4.686868545747979	('midnight',)
-4.3858385500839985	('midst',)
-3.385838550083998	('might',)
-4.686868545747979	('mightily',)
-4.209747291028317	('mighty',)
-4.686868545747979	('mild',)
-4.686868545747979	('milder',)
-3.9878985414119605	('mildly',)
-3.9878985414119605	('mile',)
-4.686868545747979	('miles',)
-4.686868545747979	('milk',)
-4.686868545747979	('millions',)
-4.686868545747979	('millsbring',)
-4.3858385500839985	('millstones',)
-3.6076872997003546	('mind',)
-4.3858385500839985	('minded',)
-4.209747291028317	('minds',)
-3.0241107140664054	('mine',)
-4.686868545747979	('mingle',)
-4.686868545747979	('mingling',)
-4.209747291028317	('minister',)
-4.3858385500839985	('ministers',)
-4.686868545747979	('minnows',)
-4.686868545747979	('minority',)
-4.686868545747979	('minute',)
-4.686868545747979	('mirrors',)
-4.3858385500839985	('mirth',)
-4.686868545747979	('miscarries',)
-4.686868545747979	('miscarry',)
-4.686868545747979	('mischief',)
-4.686868545747979	('mischiefs',)
-4.686868545747979	('misdeeds',)
-4.084808554420017	('miserable',)
-3.9878985414119605	('misery',)
-4.686868545747979	('misguide',)
-4.686868545747979	('miss',)
-4.686868545747979	('missd',)
-4.084808554420017	('mistake',)
-4.686868545747979	('mistaken',)
-3.9878985414119605	('mistress',)
-4.686868545747979	('mistrust',)
-4.3858385500839985	('moan',)
-4.686868545747979	('moans',)
-4.084808554420017	('mock',)
-4.084808554420017	('mockd',)
-4.686868545747979	('mockers',)
-4.686868545747979	('mockery',)
-4.084808554420017	('modest',)
-4.3858385500839985	('moiety',)
-4.686868545747979	('molehill',)
-4.3858385500839985	('monarchy',)
-4.686868545747979	('monastery',)
-4.686868545747979	('money',)
-4.686868545747979	('monster',)
-4.686868545747979	('monsterd',)
-4.686868545747979	('monsters',)
-4.3858385500839985	('monstrous',)
-4.686868545747979	('month',)
-4.3858385500839985	('months',)
-4.686868545747979	('monuments',)
-4.686868545747979	('mood',)
-4.686868545747979	('moods',)
-3.8417705057337224	('moon',)
-2.6186826840018176	('more',)
-4.084808554420017	('morning',)
-4.209747291028317	('morrow',)
-4.686868545747979	('morsel',)
-3.8417705057337224	('mortal',)
-2.8875279962943976	('most',)
-2.9465058562537356	('mother',)
-3.908717295364336	('mothers',)
-4.686868545747979	('moths',)
-4.084808554420017	('motion',)
-4.686868545747979	('motive',)
-4.3858385500839985	('mould',)
-4.686868545747979	('mountainous',)
-4.686868545747979	('mountebank',)
-4.686868545747979	('mounting',)
-4.3858385500839985	('mourn',)
-4.686868545747979	('mourner',)
-4.686868545747979	('mournfully',)
-4.686868545747979	('mouse',)
-4.209747291028317	('mouth',)
-3.9878985414119605	('mouths',)
-3.908717295364336	('move',)
-3.9878985414119605	('moved',)
-4.686868545747979	('movers',)
-4.686868545747979	('moves',)
-4.686868545747979	('moving',)
-4.3858385500839985	('mow',)
-3.09580393872148	('much',)
-4.686868545747979	('muck',)
-4.686868545747979	('mulberry',)
-4.686868545747979	('mules',)
-4.686868545747979	('mulled',)
-4.686868545747979	('multiplying',)
-3.9878985414119605	('multitude',)
-4.686868545747979	('multitudinous',)
-4.686868545747979	('mummers',)
-4.686868545747979	('muniments',)
-3.8417705057337224	('murder',)
-2.8739551891051236	('murderer',)
-4.686868545747979	('murderers',)
-4.3858385500839985	('murdering',)
-4.209747291028317	('murderous',)
-4.686868545747979	('murrain',)
-4.3858385500839985	('muse',)
-2.7783835268693298	('must',)
-4.686868545747979	('muster',)
-4.209747291028317	('musty',)
-4.686868545747979	('mutable',)
-4.686868545747979	('mutiners',)
-4.3858385500839985	('mutinies',)
-4.084808554420017	('mutinous',)
-4.686868545747979	('mutiny',)
-4.686868545747979	('mutual',)
-4.686868545747979	('mutually',)
-1.9700308224484548	('my',)
-3.288928537075942	('myself',)
-4.686868545747979	('mysteries',)
-4.3858385500839985	('nail',)
-4.686868545747979	('nails',)
-3.9878985414119605	('naked',)
-3.0241107140664054	('name',)
-4.3858385500839985	('named',)
-4.686868545747979	('namely',)
-4.209747291028317	('names',)
-4.686868545747979	('napes',)
-4.686868545747979	('napless',)
-4.686868545747979	('nation',)
-4.686868545747979	('nations',)
-4.686868545747979	('native',)
-4.686868545747979	('nativity',)
-4.3858385500839985	('natural',)
-3.344445864925773	('nature',)
-4.209747291028317	('naught',)
-4.686868545747979	('navel',)
-3.2097472910283167	('nay',)
-4.686868545747979	('naytis',)
-4.084808554420017	('near',)
-4.3858385500839985	('nearer',)
-4.686868545747979	('nearest',)
-4.686868545747979	('necessary',)
-4.686868545747979	('necessities',)
-4.686868545747979	('necessity',)
-3.9878985414119605	('neck',)
-4.3858385500839985	('necks',)
-3.7837785587560355	('need',)
-4.686868545747979	('needer',)
-4.686868545747979	('needless',)
-4.3858385500839985	('needs',)
-3.7326260363086545	('neer',)
-4.3858385500839985	('neighbour',)
-3.908717295364336	('neighbours',)
-3.6076872997003546	('neither',)
-4.686868545747979	('neptune',)
-4.686868545747979	('nerves',)
-4.686868545747979	('nervy',)
-4.686868545747979	('nest',)
-4.3858385500839985	('nettle',)
-2.9966724657194654	('never',)
-4.686868545747979	('neverneeded',)
-3.9878985414119605	('new',)
-4.686868545747979	('newchristend',)
-4.686868545747979	('newdeliverd',)
-4.686868545747979	('newheald',)
-4.686868545747979	('newly',)
-3.1186668216809843	('news',)
-4.209747291028317	('next',)
-4.3858385500839985	('nicanor',)
-4.686868545747979	('nicelygawded',)
-4.686868545747979	('niece',)
-3.540740510069741	('night',)
-4.686868545747979	('nightly',)
-4.686868545747979	('nightwalking',)
-4.686868545747979	('nimbly',)
-4.3858385500839985	('nine',)
-2.4150269392114803	('no',)
-3.8417705057337224	('nobility',)
-2.789241454457538	('noble',)
-4.3858385500839985	('nobleness',)
-4.3858385500839985	('nobler',)
-4.686868545747979	('noblerwhither',)
-3.6868685457479793	('nobles',)
-3.8417705057337224	('nobly',)
-4.3858385500839985	('nod',)
-4.686868545747979	('nodding',)
-4.686868545747979	('nods',)
-3.6868685457479793	('noise',)
-4.686868545747979	('noisome',)
-4.686868545747979	('nonage',)
-3.510777286692298	('none',)
-4.686868545747979	('noon',)
-4.686868545747979	('noontide',)
-2.9878985414119605	('nor',)
-4.686868545747979	('norfolk',)
-4.686868545747979	('north',)
-4.686868545747979	('northampton',)
-4.686868545747979	('northumberland',)
-4.3858385500839985	('nose',)
-4.686868545747979	('noses',)
-2.0762083826580993	('not',)
-4.686868545747979	('notched',)
-3.908717295364336	('note',)
-3.456419624369705	('nothing',)
-4.686868545747979	('nothings',)
-4.686868545747979	('notice',)
-4.686868545747979	('notion',)
-4.686868545747979	('notis',)
-4.686868545747979	('noton',)
-4.686868545747979	('notsdeath',)
-4.686868545747979	('notto',)
-4.686868545747979	('notwithstanding',)
-4.209747291028317	('nought',)
-4.686868545747979	('nourish',)
-4.686868545747979	('nourishd',)
-4.686868545747979	('novice',)
-2.6261707053943675	('now',)
-4.686868545747979	('nowwill',)
-4.686868545747979	('numas',)
-4.686868545747979	('numb',)
-4.084808554420017	('number',)
-4.209747291028317	('numbers',)
-4.686868545747979	('nuptial',)
-3.908717295364336	('nurse',)
-4.686868545747979	('nurses',)
-4.686868545747979	('nymph',)
-2.534580201364923	('o',)
-4.084808554420017	('oak',)
-4.686868545747979	('oaken',)
-4.686868545747979	('oaks',)
-4.209747291028317	('oath',)
-4.686868545747979	('obdurate',)
-4.209747291028317	('obedience',)
-4.3858385500839985	('obedient',)
-3.9878985414119605	('obey',)
-4.3858385500839985	('obeyd',)
-4.686868545747979	('obeys',)
-4.3858385500839985	('object',)
-4.686868545747979	('obsequiously',)
-4.686868545747979	('observe',)
-4.686868545747979	('obstacles',)
-4.686868545747979	('obstinate',)
-4.3858385500839985	('occasion',)
-4.686868545747979	('occupation',)
-4.686868545747979	('occupations',)
-4.686868545747979	('ocean',)
-4.209747291028317	('odd',)
-4.3858385500839985	('odds',)
-3.9878985414119605	('oer',)
-4.3858385500839985	('oerbear',)
-4.686868545747979	('oerborne',)
-4.686868545747979	('oercome',)
-4.686868545747979	('oerleap',)
-4.686868545747979	('oerpeer',)
-4.686868545747979	('oerpressd',)
-4.686868545747979	('oershade',)
-4.686868545747979	('oerwhelm',)
-4.686868545747979	('oerwhelmd',)
-4.686868545747979	('oerworn',)
-1.815879731987404	('of',)
-4.686868545747979	('ofboils',)
-3.4315960406446733	('off',)
-4.084808554420017	('offence',)
-4.686868545747979	('offences',)
-4.686868545747979	('offend',)
-4.209747291028317	('offended',)
-4.209747291028317	('offerd',)
-3.9878985414119605	('office',)
-3.5729251934411423	('officer',)
-4.209747291028317	('officers',)
-4.3858385500839985	('offices',)
-4.686868545747979	('official',)
-4.686868545747979	('officious',)
-4.3858385500839985	('oft',)
-3.7326260363086545	('often',)
