
\data\
ngram 1=5276
ngram 2=25517

\1-grams:
-0.83831	</s>
-99	<s>	-0.5353702
-1.95528	a	-0.1540345
-4.686869	abated	-0.1030622
-4.686869	abed	-0.03498259
-4.686869	abhor	-0.03498259
-4.385839	abhorrd	-0.03429252
-4.686869	abhorring	-0.1010838
-4.686869	abides	-0.03498259
-4.686869	abilities	-0.1011825
-4.686869	abjects	-0.09352659
-4.385839	able	-0.2970663
-4.686869	abode	-0.03498259
-4.385839	abortive	-0.1001317
-3.385839	about	-0.06127995
-4.084808	above	-0.3384443
-4.686869	abroach	-0.03498259
-4.084808	abroad	-0.2808379
-4.084808	absence	-0.09542143
-4.084808	absolute	-0.03199485
-4.385839	abundance	-0.03280409
-4.686869	abundantly	-0.1016218
-4.209747	abused	-0.03044572
-4.686869	accents	-0.09963687
-4.209747	accept	-0.08778264
-4.686869	acceptance	-0.09638391
-4.686869	access	-0.09392811
-4.686869	accessary	-0.03498259
-4.686869	accident	-0.1029907
-4.686869	accidentally	-0.09392811
-4.686869	acclamations	-0.1030622
-4.686869	accompanied	-0.03498259
-4.686869	accompany	-0.09561229
-4.686869	accomplish	-0.03498259
-4.686869	according	-0.09392811
-3.987899	account	-0.09126054
-4.686869	accounted	-0.1027137
-4.209747	accursed	-0.03490944
-4.686869	accusation	-0.03498259
-4.385839	accusations	-0.03192122
-4.084808	accuse	-0.1210566
-4.209747	accused	-0.08873449
-4.385839	accusers	-0.02379697
-4.686869	accuseth	-0.1000328
-4.686869	accustomd	-0.1030354
-4.686869	aches	-0.03498259
-4.686869	achieve	-0.1004553
-4.686869	achieved	-0.09352659
-4.686869	acquaint	-0.09978988
-4.686869	acquaintance	-0.09352659
-4.686869	acquit	-0.1028478
-4.686869	acquittance	-0.1001137
-3.987899	act	-0.08173728
-4.686869	acting	-0.09352659
-3.572925	action	-0.1200197
-4.209747	actions	-0.03355941
-4.686869	actor	-0.1020428
-4.686869	acts	-0.1029907
-4.686869	aday	-0.09989785
-4.686869	adders	-0.1030622
-4.385839	addition	-0.03490946
-4.084808	adieu	-0.0247286
-4.686869	admire	-0.1024902
-4.686869	admit	-0.09561229
-4.385839	admits	-0.03302454
-4.385839	admitted	-0.03430299
-4.686869	admitting	-0.03498259
-4.686869	ado	-0.03498259
-4.686869	adoing	-0.03498259
-4.686869	adopt	-0.09944778
-4.686869	adoreth	-0.1018637
-4.686869	adorn	-0.09839278
-4.686869	adrian	-0.03498259
-4.209747	advance	-0.1573756
-4.385839	advanced	-0.09350833
-4.686869	advancement	-0.09352659
-4.209747	advantage	-0.2195053
-4.686869	adventure	-0.09392811
-4.209747	adversaries	-0.1555139
-4.686869	adversely	-0.0948666
-4.686869	advice	-0.03498259
-4.686869	advise	-0.1001137
-4.686869	advised	-0.03498259
-4.686869	advocate	-0.09392811
-3.686868	aedile	-0.9733042
-4.084808	aediles	-0.0348781
-4.385839	aery	-0.3061915
-4.686869	aerys	-0.1030622
-4.385839	affairs	-0.2381208
-4.686869	affect	-0.09011696
-4.686869	affected	-0.09011696
-4.686869	affecting	-0.1022308
-4.385839	affection	-0.0347736
-4.385839	affections	-0.09159592
-4.686869	affects	-0.03498259
-4.686869	afflicts	-0.1019891
-4.385839	afford	-0.03486766
-4.686869	affrighted	-0.09561229
-4.385839	affrights	-0.09438394
-4.686869	afire	-0.03498259
-4.686869	afoot	-0.03498259
-4.209747	afraid	-0.1486614
-4.686869	afresh	-0.03498259
-4.686869	afric	-0.1030622
-3.431596	after	-0.07407866
-4.686869	aftermeeting	-0.03498259
-4.385839	afternoon	-0.0343553
-3.15539	again	-0.3786625
-4.686869	againbut	-0.1025349
-2.979298	against	-0.3894418
-3.987899	age	-0.09259643
-4.385839	aged	-0.1022397
-4.686869	agents	-0.101586
-4.686869	ages	-0.1025796
-4.686869	agony	-0.03498259
-4.686869	agreed	-0.03498259
-4.686869	agreeing	-0.03498259
-4.686869	agrippa	-0.1022308
-4.686869	agrowing	-0.09352659
-4.686869	agued	-0.1028567
-4.385839	ah	-0.1009313
-4.084808	aid	-0.006252632
-4.686869	aiding	-0.1028388
-4.686869	aidless	-0.1029193
-4.686869	aim	-0.1018189
-4.686869	aiming	-0.1030532
-4.686869	aims	-0.03498259
-3.732626	air	-0.2147591
-4.209747	alack	-0.02845646
-4.686869	alarum	-0.1021234
-4.686869	alarums	-0.1030532
-3.783779	alas	-0.1009792
-4.686869	albans	-0.1030175
-4.686869	albeit	-0.1026154
-4.686869	alexander	-0.1010838
-4.686869	alias	-0.1030086
-4.084808	alike	-0.2727136
-4.209747	alive	-0.4134659
-2.362586	all	-0.2296786
-4.686869	allaying	-0.03498259
-4.686869	allegiance	-0.03498259
-4.686869	allhail	-0.09392811
-4.385839	allies	-0.2381208
-4.686869	allow	-0.1017473
-4.686869	allowance	-0.09392811
-4.209747	alls	-0.09427457
-4.686869	ally	-0.09839278
-3.645476	almost	-0.08591913
-4.209747	alms	-0.09482107
-3.482749	alone	-0.1050069
-3.783779	along	-0.3608087
-4.385839	aloud	-0.03265707
-3.732626	already	-0.1962577
-4.385839	also	-0.1018995
-4.686869	alter	-0.09011696
-4.686869	alteration	-0.03498259
-4.209747	although	-0.2160256
-4.686869	altitude	-0.09638391
-4.686869	altogether	-0.1030622
-4.084808	always	-0.03482585
-2.789242	am	-0.04982421
-4.686869	amazonian	-0.1030622
-4.209747	ambitious	-0.09951981
-4.686869	ambling	-0.1030622
-3.84177	amen	-0.2245658
-4.686869	amended	-0.03498259
-4.686869	amendment	-0.1028746
-4.686869	amends	-0.03498259
-4.686869	amity	-0.09973589
-3.987899	among	-0.150704
-4.209747	amongst	-0.09598464
-4.686869	amorous	-0.1030532
-4.686869	amplified	-0.03498259
-2.880689	an	-0.09396104
-4.686869	ancestor	-0.03498259
-4.686869	anchors	-0.1030532
-3.908717	ancient	-0.1605522
-4.686869	ancus	-0.1019801
-1.662794	and	0.0137656
-4.385839	angel	-0.09951082
-4.686869	angels	-0.1011825
-4.084808	anger	-0.2838888
-4.686869	angers	-0.09839278
-3.84177	angry	-0.1339738
-4.686869	anhungry	-0.1030532
-4.686869	annals	-0.1027048
-2.954475	anne	-1.664007
-4.686869	anointed	-0.1022308
-4.084808	anon	-0.1220565
-3.45642	another	-0.1210633
-3.45642	answer	-0.145589
-4.209747	answerd	-0.4134659
-4.686869	answering	-0.1019891
-4.686869	ant	-0.102955
-4.686869	anthony	-0.1030622
-4.084808	antiates	-0.4888961
-4.686869	antique	-0.1026511
-3.987899	antium	-0.2209021
-4.686869	anvil	-0.09638391
-3.15539	any	-0.1462601
-4.686869	apace	-0.03498259
-4.385839	apart	-0.034899
-4.686869	apes	-0.1018906
-4.686869	apish	-0.1030443
-4.686869	apoplexy	-0.1030622
-4.209747	apparent	-0.1593547
-3.686868	appear	-0.03235504
-4.686869	appearance	-0.09352659
-4.686869	appeard	-0.09392811
-4.686869	appease	-0.1018637
-4.385839	appetite	-0.0928596
-4.686869	applause	-0.09352659
-4.686869	applied	-0.09392811
-4.686869	apply	-0.09561229
-4.686869	appointed	-0.03498259
-4.686869	apprehended	-0.03498259
-4.686869	apprehension	-0.09638391
-4.385839	approaches	-0.09211832
-4.209747	approbation	-0.4134659
-4.686869	approve	-0.1001137
-4.686869	approved	-0.1013619
-4.686869	apronmen	-0.09561229
-4.686869	apt	-0.1004553
-4.686869	aptness	-0.09392811
-4.686869	arabia	-0.09352659
-4.686869	arch	-0.1009761
-4.084808	archbishop	-0.5502975
-2.362586	are	-0.1217545
-4.686869	arei	-0.1024991
-4.686869	arguing	-0.03498259
-4.686869	arguments	-0.03498259
-4.686869	arise	-0.1030622
-4.686869	arithmetic	-0.03498259
-3.686868	arm	-0.04854346
-4.686869	armd	-0.1030175
-4.686869	armed	-0.1030264
-4.686869	armies	-0.03498259
-4.686869	armour	-0.1019174
-3.645476	arms	-0.1761901
-3.783779	army	-0.02824432
-4.686869	armys	-0.09874474
-4.686869	arriving	-0.03498259
-4.686869	arrogance	-0.03498259
-3.239711	art	-0.221509
-4.686869	article	-0.03498259
-4.686869	articulate	-0.03498259
-2.221486	as	-0.2177044
-4.686869	ascend	-0.09011696
-4.686869	ascent	-0.1000238
-4.686869	ash	-0.1024991
-4.686869	ashes	-0.09638391
-4.209747	aside	-0.08500765
-3.84177	ask	-0.1235708
-4.686869	askd	-0.1004553
-4.686869	asked	-0.1000328
-4.686869	asker	-0.09352659
-4.385839	asking	-0.1012274
-4.209747	asleep	-0.1441838
-4.209747	aspect	-0.02317476
-4.385839	ass	-0.09553959
-4.385839	assault	-0.1009043
-4.385839	assemble	-0.0349199
-4.385839	assembly	-0.2381208
-4.385839	assist	-0.02624491
-4.385839	assistance	-0.0314159
-4.686869	associated	-0.09973589
-4.686869	asss	-0.1030532
-4.686869	assuage	-0.1013619
-3.987899	assured	-0.2156724
-4.686869	asunder	-0.1018727
-2.63379	at	-0.2126603
-4.686869	atone	-0.03498259
-4.686869	atonement	-0.03498259
-4.686869	attach	-0.1018637
-4.686869	attaind	-0.1018727
-4.686869	attempt	-0.09902429
-4.686869	attempted	-0.09352659
-3.607687	attend	-0.1968037
-4.686869	attendant	-0.1019174
-4.686869	attended	-0.1020607
-4.686869	attends	-0.09561229
-4.686869	auburn	-0.1025796
-4.686869	audible	-0.09352659
-4.385839	audience	-0.1014246
-4.686869	audit	-0.1026333
-2.794774	aufidius	-0.6045451
-4.686869	aufidiuses	-0.102186
-4.686869	augers	-0.1030532
-3.987899	aught	-0.0247072
-4.686869	augurer	-0.1030622
-4.209747	aunt	-0.0803272
-4.686869	austerity	-0.09352659
-4.686869	author	-0.09638391
-4.385839	authorities	-0.09773324
-4.209747	authority	-0.1593547
-4.686869	avaunt	-0.1013081
-4.686869	avenged	-0.1019174
-4.385839	avoid	-0.03387377
-4.686869	avouch	-0.09874474
-4.385839	awake	-0.03439715
-4.686869	awaked	-0.09561229
-4.686869	awaken	-0.09978988
-4.686869	award	-0.03498259
-3.195507	away	-0.3923156
-4.686869	awe	-0.1018189
-4.686869	aweless	-0.1030354
-4.084808	awhile	-0.03481539
-4.686869	awry	-0.1019174
-3.15539	ay	-0.06426018
-4.686869	babe	-0.03498259
-4.385839	babes	-0.03096273
-4.385839	babies	-0.1019264
-4.686869	baby	-0.1029193
-4.686869	bachelor	-0.09823025
-3.364649	back	-0.1495305
-4.686869	backs	-0.1030354
-4.686869	backthats	-0.03498259
-3.783779	bad	-0.07360855
-4.385839	bade	-0.303252
-4.686869	baes	-0.1023292
-4.385839	baited	-0.03380044
-4.686869	baits	-0.09352659
-4.209747	bald	-0.0340413
-4.686869	bale	-0.03498259
-4.686869	balladmakers	-0.03498259
-4.686869	balm	-0.09638391
-4.686869	balms	-0.1030622
-4.209747	bands	-0.02125967
-3.987899	banish	-0.2752296
-3.732626	banishd	-0.00776799
-3.987899	banished	-0.09944796
-4.686869	banishers	-0.03498259
-3.908717	banishment	-0.1744951
-4.686869	banners	-0.1030532
-4.686869	barbariansas	-0.1016218
-4.686869	barded	-0.1030622
-4.385839	bare	-0.1029996
-4.686869	bark	-0.1020607
-4.686869	barking	-0.03498259
-4.686869	barm	-0.102517
-4.686869	barrd	-0.03498259
-4.385839	barren	-0.08709752
-4.686869	barrst	-0.1019891
-4.686869	bars	-0.03498259
-4.084808	base	-0.09326173
-4.686869	baseness	-0.03498259
-4.686869	basest	-0.1030532
-4.686869	basilisks	-0.09392811
-4.686869	bastard	-0.1029639
-4.084808	bastards	-0.1786809
-4.686869	bate	-0.03498259
-4.686869	bath	-0.03498259
-4.385839	bats	-0.2966648
-4.686869	batten	-0.1019174
-4.686869	battery	-0.09902429
-3.908717	battle	-0.09062509
-4.209747	battles	-0.1026869
-2.172321	be	-0.09843923
-4.686869	beach	-0.03498259
-4.686869	beam	-0.09638391
-4.686869	beams	-0.1013619
-3.15539	bear	-0.2994413
-4.209747	beard	-0.02288481
-4.385839	beards	-0.09343527
-4.209747	bearing	-0.03106815
-3.908717	bears	-0.08385161
-4.209747	beast	-0.156924
-4.385839	beastly	-0.03497215
-4.385839	beasts	-0.02426839
-3.54074	beat	-0.09049468
-4.686869	beaten	-0.1000328
-4.385839	beating	-0.09022737
-3.908717	beauty	-0.09099025
-4.686869	beautys	-0.1030622
-4.686869	became	-0.09823025
-3.783779	because	-0.1825738
-3.732626	become	-0.0844673
-4.385839	becomes	-0.0945297
-4.686869	becomet	-0.03498259
-3.84177	bed	-0.2271617
-4.686869	bedashd	-0.09973589
-4.686869	bedchamber	-0.03498259
-4.686869	bedfellow	-0.03498259
-4.686869	bedward	-0.03498259
-3.063619	been	-0.02043787
-4.686869	befal	-0.1018637
-4.686869	befalln	-0.1019891
-2.93868	before	-0.3359843
-4.686869	beforetime	-0.1029996
-3.783779	beg	-0.1146874
-4.209747	began	-0.07063901
-4.385839	beggar	-0.09962787
-4.686869	beggarly	-0.1030622
-4.209747	beggars	-0.03441805
-4.385839	beggd	-0.03280409
-4.686869	begged	-0.0948666
-4.385839	begging	-0.03483631
-3.987899	begin	-0.2373233
-4.686869	beginning	-0.03498259
-4.385839	begins	-0.09052165
-4.686869	begnaw	-0.1013619
-4.686869	begun	-0.09392811
-4.385839	behalf	-0.03192122
-4.686869	behavior	-0.1008505
-4.084808	beheld	-0.1060044
-3.908717	behind	-0.07753794
-3.783779	behold	-0.01260172
-4.385839	beholding	-0.08554734
-4.686869	beholdst	-0.03498259
-3.107085	being	-0.02525581
-4.686869	belch	-0.09989785
-3.783779	believe	-0.1108428
-4.686869	believet	-0.09941176
-4.385839	belike	-0.0987718
-3.732626	belly	-0.06704959
-4.385839	bellys	-0.3060575
-4.686869	belonging	-0.09352659
-4.686869	belongs	-0.09902429
-4.209747	beloved	-0.02978013
-3.987899	below	-0.2395618
-4.686869	bemock	-0.09011696
-4.385839	bench	-0.02991757
-4.686869	bencher	-0.09874474
-4.385839	bend	-0.1018727
-4.686869	bended	-0.03498259
-4.686869	beneath	-0.1030622
-4.209747	benefit	-0.02565822
-4.686869	benefits	-0.09392811
-4.686869	bent	-0.1025081
-4.686869	bereaves	-0.09011696
-4.686869	bereft	-0.1018637
-4.686869	berkeley	-0.1022755
-3.364649	beseech	-1.059763
-4.686869	beside	-0.1019353
-4.209747	besides	-0.09747998
-3.45642	best	-0.1701101
-4.385839	bestow	-0.02931467
-4.686869	bestrid	-0.03498259
-4.686869	bestride	-0.09839278
-4.686869	bethink	-0.09561229
-4.209747	betide	-0.07824226
-4.686869	betray	-0.1001137
-4.686869	betrayd	-0.09944778
-3.255505	better	-0.05816541
-3.686868	between	-0.03882691
-3.987899	betwixt	-0.2415296
-4.686869	bewail	-0.09011696
-4.385839	beware	-0.02715003
-4.686869	beweep	-0.09392811
-4.686869	bewept	-0.09823025
-4.686869	bewitchment	-0.09638391
-4.686869	bewray	-0.1010838
-4.084808	beyond	-0.1779883
-3.686868	bid	-0.4145895
-4.686869	bidding	-0.09902429
-4.084808	bids	-0.09537598
-4.385839	big	-0.1000238
-4.686869	bigger	-0.1005272
-4.686869	billeted	-0.1029907
-4.686869	billows	-0.09638391
-4.686869	birthplace	-0.1028031
-4.385839	bisson	-0.03493036
-4.686869	bite	-0.09978988
-4.385839	bites	-0.02379697
-4.686869	biting	-0.1030532
-4.686869	bits	-0.03498259
-4.084808	bitter	-0.1030086
-4.686869	bitterest	-0.1030443
-4.686869	bitterness	-0.09638391
-3.987899	black	-0.1024097
-4.686869	blackfaced	-0.1030622
-4.686869	blade	-0.03498259
-3.783779	blame	-0.1232767
-4.686869	blameful	-0.1004553
-4.686869	blanks	-0.03498259
-4.686869	blast	-0.03498259
-4.686869	blasts	-0.09392811
-4.385839	blaze	-0.02715003
-4.686869	bleared	-0.1030354
-4.385839	bled	-0.1020338
-4.686869	bleed	-0.1030622
-4.385839	bleeding	-0.09007095
-4.686869	bleedst	-0.03498259
-4.686869	blemish	-0.09989785
-4.686869	blended	-0.09011696
-3.987899	bless	-0.0827954
-4.385839	blessd	-0.092274
-4.385839	blessed	-0.1029639
-4.686869	blessing	-0.03498259
-4.686869	blessings	-0.09963687
-4.209747	blest	-0.1486614
-4.084808	blind	-0.02015845
-4.686869	block	-0.102365
-4.686869	blockhead	-0.1005272
-3.063619	blood	-0.2015252
-4.686869	bloodless	-0.1030622
-3.645476	bloody	-0.1565534
-4.686869	blots	-0.09352659
-4.385839	blow	-0.1007607
-4.385839	blown	-0.1024634
-3.908717	blows	-0.08338422
-4.686869	blunt	-0.1030622
-3.987899	blush	-0.09118304
-4.686869	blushd	-0.1020607
-4.686869	blushing	-0.1030622
-4.686869	boasting	-0.03498259
-4.686869	boats	-0.1030354
-4.385839	bodies	-0.03360135
-4.686869	bodily	-0.1030264
-3.510777	body	-0.2040638
-4.385839	bodys	-0.1029103
-4.686869	boisterous	-0.1030622
-4.084808	bold	-0.09345353
-4.686869	bolder	-0.1027673
-4.686869	boldness	-0.03498259
-4.686869	bolt	-0.03498259
-4.686869	bolted	-0.1030622
-4.686869	bond	-0.09352659
-4.385839	bones	-0.02940992
-4.686869	bonnet	-0.09874474
-4.686869	bonneted	-0.1029461
-4.686869	bonny	-0.1029639
-4.385839	book	-0.09563046
-4.385839	boon	-0.02950515
-4.385839	bore	-0.01979075
-4.084808	born	-0.02738399
-3.987899	borne	-0.1711473
-4.084808	bosom	-0.1131667
-4.385839	bosoms	-0.1028388
-4.686869	botchers	-0.03498259
-3.084809	both	-0.1977338
-4.686869	bottled	-0.1030622
-4.209747	bottom	-0.4748672
-4.686869	bought	-0.09823025
-3.686868	bound	-0.2672845
-4.686869	bounds	-0.1030264
-4.686869	bounteous	-0.1028388
-4.686869	bountiful	-0.09392811
-4.686869	bout	-0.1024634
-4.686869	bouted	-0.09874474
-4.686869	bow	-0.1023292
-4.385839	bowd	-0.0972266
-4.209747	bowels	-0.2201688
-4.686869	bower	-0.102365
-4.686869	bowl	-0.1023023
-4.385839	bows	-0.03490946
-3.325141	boy	-0.4476898
-4.209747	boys	-0.09959184
-4.209747	brace	-0.02563687
-4.686869	brag	-0.102821
-4.686869	braggart	-0.03498259
-4.686869	braggd	-0.1030622
-4.084808	brain	-0.1188064
-3.408115	brakenbury	-0.9916542
-4.385839	bran	-0.1009313
-4.686869	branches	-0.1020428
-4.385839	brand	-0.02426839
-4.686869	brat	-0.03498259
-4.686869	brats	-0.09973589
-3.732626	brave	-0.1387235
-4.686869	bravely	-0.1030175
-4.686869	brawl	-0.03498259
-4.686869	brawn	-0.03498259
-4.686869	breach	-0.03498259
-4.686869	bread	-0.09941176
-3.572925	break	-0.1740343
-4.385839	breaking	-0.09918652
-4.686869	breaks	-0.1030622
-3.84177	breast	-0.2320597
-4.385839	breasts	-0.09155006
-3.732626	breath	-0.04785889
-4.209747	breathe	-0.09342613
-4.686869	breathed	-0.09944778
-4.686869	breathes	-0.1027584
-4.686869	breathing	-0.1027226
-4.686869	breathingwhile	-0.03498259
-4.385839	breaths	-0.03328682
-4.209747	bred	-0.08547293
-4.686869	breed	-0.1030622
-4.686869	brethren	-0.1030532
-4.686869	bribe	-0.09392811
-3.908717	brief	-0.1823829
-4.385839	briefly	-0.09991585
-4.686869	briers	-0.03498259
-4.385839	bright	-0.1030264
-3.54074	bring	-0.0699418
-4.686869	bringing	-0.1028478
-4.686869	brings	-0.09823025
-4.686869	bristled	-0.1030264
-4.686869	brittle	-0.1030443
-4.686869	broil	-0.03498259
-4.686869	broiled	-0.09352659
-4.686869	broils	-0.03498259
-4.084808	broke	-0.02968496
-4.385839	broken	-0.1020249
-4.686869	brood	-0.03498259
-4.385839	brook	-0.09068709
-4.686869	brookd	-0.1030354
-3.288929	brother	-0.09588119
-4.385839	brotherhood	-0.03421926
-3.686868	brothers	-0.09246733
-3.645476	brought	-0.06122141
-4.084808	brow	-0.1125439
-4.686869	browbound	-0.09973589
-4.686869	brown	-0.1025796
-4.084808	brows	-0.02910292
-4.686869	bruised	-0.1029729
-4.686869	bruising	-0.09392811
-4.686869	brunt	-0.09638391
-4.686869	brutish	-0.1030086
-2.718386	brutus	-2.00157
-3.033656	buckingham	-0.6971446
-4.686869	buckle	-0.1029818
-4.686869	budge	-0.03498259
-4.686869	budger	-0.1028567
-4.385839	buildeth	-0.301883
-4.686869	buildings	-0.09638391
-4.686869	built	-0.09561229
-4.686869	bulk	-0.03498259
-4.686869	bulks	-0.1030532
-4.686869	bunchbackd	-0.1030532
-4.686869	burdens	-0.09352659
-4.686869	burgundy	-0.03498259
-4.686869	burial	-0.03498259
-4.385839	buried	-0.2381208
-4.209747	burn	-0.1007427
-4.686869	burnd	-0.09392811
-4.686869	burned	-0.09874474
-4.385839	burning	-0.1022755
-4.686869	burnt	-0.09963687
-4.686869	burrows	-0.1023292
-4.686869	burst	-0.09392811
-4.686869	burthen	-0.1029729
-4.209747	bury	-0.02884869
-4.686869	busied	-0.1028924
-3.607687	business	-0.338446
-4.686869	bussing	-0.09011696
-4.686869	bustle	-0.09874474
-4.686869	busy	-0.1029729
-2.23355	but	-0.1301403
-4.686869	butcher	-0.09638391
-4.686869	butcherd	-0.03498259
-4.686869	butchered	-0.03498259
-4.385839	butcheries	-0.2381208
-4.686869	butchers	-0.1030443
-4.686869	butterflies	-0.03498259
-4.209747	butterfly	-0.02241188
-4.686869	buttock	-0.09638391
-4.686869	butts	-0.1001137
-3.987899	buy	-0.01140106
-4.686869	buzzards	-0.1030532
-2.405835	by	-0.2974705
-4.686869	byr	-0.1024812
-4.686869	byt	-0.1029996
-4.385839	c	-0.2381208
-4.686869	cabin	-0.1030532
-4.686869	cacodemon	-0.1026243
-3.45642	caius	-1.021024
-4.385839	calamity	-0.03462724
-3.288929	call	-0.2076894
-3.686868	calld	-0.04589796
-4.686869	called	-0.1009761
-4.686869	calling	-0.1027137
-4.385839	calls	-0.03152122
-4.686869	callt	-0.09941176
-4.084808	calm	-0.119124
-4.686869	calmly	-0.0948666
-4.686869	calmness	-0.102186
-4.686869	calved	-0.0948666
-4.686869	cambric	-0.03498259
-3.45642	came	-0.07370216
-4.686869	camels	-0.09874474
-4.686869	camest	-0.1013081
-4.385839	camp	-0.09484839
-2.894477	can	-0.06852992
-4.686869	cankerd	-0.102821
-4.686869	cannibally	-0.102955
-2.880689	cannot	-0.1676145
-4.686869	cannotthe	-0.1027226
-4.385839	canon	-0.03360135
-4.385839	canopy	-0.2381208
-4.084808	canst	-0.1867084
-4.686869	cant	-0.1022039
-4.686869	cap	-0.1030354
-4.686869	capacity	-0.03498259
-4.686869	caparison	-0.03498259
-4.686869	capers	-0.1030622
-4.385839	capital	-0.1011825
-3.510777	capitol	-0.3620508
-4.686869	capitulate	-0.03498259
-3.987899	caps	-0.08835917
-4.385839	captain	-0.1029461
-4.686869	captive	-0.09392811
-4.686869	captives	-0.09392811
-4.686869	carbon	-0.1030622
-4.686869	carbuncle	-0.1030622
-4.686869	carcasses	-0.09638391
-3.732626	care	-0.2201019
-4.686869	cared	-0.09963687
-4.385839	careful	-0.1025707
-4.686869	carelessness	-0.1028567
-3.987899	cares	-0.1009384
-4.385839	carried	-0.1012453
-4.385839	carries	-0.09980788
-3.908717	carry	-0.1407873
-4.686869	carters	-0.102186
-4.686869	case	-0.09011696
-4.686869	casque	-0.09392811
-4.084808	cast	-0.02623425
-4.686869	castaways	-0.03498259
-4.686869	cat	-0.1004553
-4.686869	catalogue	-0.03498259
-4.209747	catch	-0.08855905
-4.686869	catched	-0.09989785
-4.686869	catching	-0.1028746
-3.908717	catesby	-0.3273965
-4.686869	catos	-0.1028656
-4.686869	cats	-0.09831152
-4.385839	caught	-0.03126841
-3.255505	cause	-0.1651712
-4.385839	caused	-0.03074124
-4.686869	causer	-0.09638391
-4.686869	cautelous	-0.1030622
-4.686869	caution	-0.1019174
-4.209747	cease	-0.2174172
-4.385839	cedars	-0.1029907
-4.686869	cement	-0.09352659
-4.209747	censure	-0.1553558
-4.385839	censured	-0.03415647
-4.686869	censures	-0.09874474
-4.686869	centuries	-0.09392811
-4.686869	centurions	-0.09352659
-4.686869	ceremony	-0.03498259
-3.686868	certain	-0.05395957
-4.686869	certainly	-0.03498259
-4.686869	certainties	-0.1028031
-4.686869	chafed	-0.09902429
-4.385839	chaff	-0.08938941
-4.686869	chain	-0.1026333
-4.686869	chair	-0.03498259
-4.686869	chairs	-0.09638391
-4.385839	chamber	-0.03430299
-4.209747	chamberlain	-0.155535
-4.686869	chamberpot	-0.03498259
-3.84177	chance	-0.3051586
-4.385839	chances	-0.0347736
-3.908717	change	-0.02817004
-4.385839	changed	-0.02426839
-4.686869	changeling	-0.09352659
-4.686869	channel	-0.09978988
-4.385839	character	-0.1014874
-3.607687	charge	-0.05668282
-3.987899	charged	-0.08380491
-4.084808	charges	-0.1128554
-4.385839	charitable	-0.1028835
-3.783779	charity	-0.1341947
-4.686869	charm	-0.1013081
-4.686869	charms	-0.03498259
-4.686869	charter	-0.09392811
-4.686869	charters	-0.09831152
-4.686869	chase	-0.09831152
-4.686869	chaste	-0.1004553
-4.686869	chastely	-0.1027673
-4.686869	chats	-0.1000328
-4.209747	cheap	-0.03186859
-4.686869	cheapa	-0.102365
-4.686869	cheated	-0.09638391
-4.686869	cheek	-0.03498259
-3.908717	cheeks	-0.160489
-4.209747	cheer	-0.09915947
-4.686869	cheered	-0.1013619
-4.686869	cheerfully	-0.03498259
-4.686869	cheque	-0.09839278
-4.686869	cheques	-0.1000328
-4.385839	cherish	-0.08590056
-4.686869	cherishd	-0.09352659
-4.686869	cherry	-0.1030264
-4.209747	chertsey	-0.09901526
-4.686869	chests	-0.09874474
-4.385839	chide	-0.09540325
-4.385839	chief	-0.09958285
-4.385839	chiefest	-0.1029729
-3.572925	child	-0.2483159
-4.385839	childish	-0.1030175
-4.686869	childishfoolish	-0.09963687
-4.686869	childishness	-0.1012543
-3.607687	children	-0.1448298
-4.209747	childrens	-0.1022934
-4.686869	chin	-0.09902429
-3.987899	choice	-0.02235812
-4.686869	choke	-0.09989785
-4.084808	choler	-0.2837843
-4.084808	choose	-0.02309962
-4.686869	chop	-0.1000328
-4.209747	chose	-0.09276814
-4.385839	chosen	-0.09843792
-4.686869	christian	-0.1030622
-4.686869	christianlike	-0.1030622
-4.686869	christs	-0.1028567
-4.686869	chronicle	-0.1027226
-4.686869	churchyard	-0.03498259
-4.686869	cicatrices	-0.09392811
-4.686869	circumspect	-0.03498259
-4.385839	circumstance	-0.09132989
-4.686869	circumvention	-0.1025349
-4.686869	cited	-0.1026333
-4.385839	cities	-0.09668312
-2.704597	citizen	-1.918683
-3.271895	citizens	-0.8171073
-3.095804	city	-0.2635482
-4.385839	claim	-0.03302454
-4.686869	clambering	-0.09011696
-4.686869	clamour	-0.09638391
-4.686869	clappd	-0.09392811
-2.860794	clarence	-0.4280986
-4.385839	clean	-0.03497215
-4.686869	cleave	-0.09874474
-4.686869	clifford	-0.1030622
-4.385839	clip	-0.03483631
-4.686869	cloaks	-0.03498259
-4.084808	close	-0.0344076
-4.686869	closely	-0.1001407
-4.686869	closet	-0.03498259
-4.686869	cloth	-0.09638391
-4.686869	clothe	-0.09839278
-4.686869	clothes	-0.1025081
-4.686869	cloud	-0.1024812
-3.987899	clouds	-0.006821513
-4.385839	cloudy	-0.102955
-4.686869	clout	-0.03498259
-4.686869	cloven	-0.1029996
-4.385839	clubs	-0.01979075
-4.686869	cluckd	-0.1018637
-4.385839	clusters	-0.2381208
-4.686869	clutchd	-0.1004553
-4.385839	coal	-0.02715003
-4.686869	coals	-0.1030622
-4.686869	cobbled	-0.1030622
-4.686869	cockatrice	-0.1028388
-4.686869	cockle	-0.09638391
-4.686869	coffin	-0.1029729
-4.686869	coffind	-0.1027316
-4.385839	cog	-0.03343363
-4.686869	coign	-0.101801
-4.686869	coin	-0.1029193
-4.686869	coining	-0.03498259
-3.84177	cold	-0.1932356
-4.686869	colder	-0.1030264
-4.686869	colic	-0.09561229
-4.686869	collected	-0.1016935
-4.385839	colour	-0.03415647
-4.686869	coloured	-0.09352659
-4.686869	combine	-0.09941176
-2.661563	come	-0.2890857
-4.686869	comeliness	-0.1030622
-4.686869	comely	-0.1026511
-3.482749	comes	-0.1879721
-4.385839	comest	-0.09652901
-3.645476	comfort	-0.0895723
-4.686869	comfortable	-0.1030264
-4.686869	comforter	-0.1019174
-4.686869	comforts	-0.03498259
-3.908717	coming	-0.3879611
-2.75745	cominius	-1.012784
-3.987899	command	-0.2126235
-4.084808	commanded	-0.110411
-4.385839	commanding	-0.1025707
-4.686869	commandment	-0.1018727
-4.686869	commands	-0.1001137
-4.209747	commend	-0.0300972
-4.686869	commendable	-0.03498259
-4.084808	commission	-0.08999731
-4.209747	commit	-0.08330979
-4.209747	committed	-0.02777718
-3.385839	common	-0.05132522
-4.686869	commonalty	-0.03498259
-4.686869	commoners	-0.09963687
-4.209747	commons	-0.09942075
-4.686869	commonwealth	-0.1028656
-4.686869	compact	-0.1000238
-4.686869	companion	-0.1024007
-4.686869	companions	-0.03498259
-4.686869	companionship	-0.09874474
-3.783779	company	-0.1181436
-4.385839	compass	-0.02715003
-4.686869	compassion	-0.1005272
-4.686869	competency	-0.03498259
-4.385839	complain	-0.03468997
-4.385839	complaining	-0.02426839
-4.686869	complainings	-0.1018189
-4.686869	complaint	-0.1030532
-4.385839	complaints	-0.2381208
-4.686869	complexions	-0.1011825
-4.686869	composition	-0.03498259
-4.686869	compound	-0.09973589
-4.385839	compounded	-0.03363279
-4.686869	concealment	-0.03498259
-4.385839	conclude	-0.09573948
-4.385839	concluded	-0.09763376
-4.686869	conclusion	-0.03498259
-4.686869	condemn	-0.1019891
-4.209747	condemned	-0.1005811
-4.686869	condemning	-0.1025796
-3.84177	condition	-0.2257628
-4.209747	conditions	-0.03138429
-4.385839	conduct	-0.09282302
-4.686869	conducted	-0.09392811
-4.686869	conduits	-0.1029639
-4.686869	confederate	-0.1029729
-4.686869	confer	-0.09973589
-4.385839	conference	-0.0310787
-4.209747	confess	-0.03240491
-4.686869	confidence	-0.03498259
-4.686869	confine	-0.1029639
-4.686869	confined	-0.03498259
-4.385839	confirm	-0.09507588
-4.686869	confirmd	-0.1008505
-4.686869	confirmed	-0.1030532
-4.385839	confound	-0.09887101
-4.686869	confused	-0.03498259
-4.385839	confusion	-0.2381208
-4.686869	confusions	-0.1030354
-4.686869	congeald	-0.1030264
-4.686869	congregations	-0.09392811
-4.686869	conies	-0.1029103
-4.686869	conjectural	-0.1030622
-4.686869	conjure	-0.1018637
-4.686869	conjures	-0.1026333
-4.686869	connd	-0.1016935
-4.385839	conquer	-0.09272242
-3.84177	conscience	-0.1392028
-3.987899	consent	-0.2685798
-4.686869	consented	-0.09392811
-4.686869	consequence	-0.03498259
-3.908717	consider	-0.081549
-4.686869	considerate	-0.1027584
-4.686869	considering	-0.03498259
-4.686869	consistory	-0.03498259
-4.686869	conspectuities	-0.1030622
-3.783779	conspirator	-0.886154
-4.385839	conspirators	-0.2381208
-4.209747	constant	-0.1028924
-4.686869	constrains	-0.1016935
-4.686869	construction	-0.0948666
-3.239711	consul	-0.2367347
-3.987899	consuls	-0.09329827
-4.686869	consulship	-0.03498259
-4.686869	consulships	-0.03498259
-4.686869	consume	-0.09989785
-4.385839	consumed	-0.09642927
-4.686869	contagion	-0.09638391
-4.686869	contains	-0.09989785
-4.686869	contemn	-0.1010838
-4.686869	contemning	-0.1026064
-3.987899	contempt	-0.09878037
-4.686869	contend	-0.1026154
-3.686868	content	-0.5939623
-4.686869	contented	-0.1030443
-4.686869	contest	-0.03498259
-4.686869	continue	-0.1007248
-4.385839	continued	-0.08417822
-4.686869	contradiction	-0.1027316
-4.686869	contrariety	-0.03498259
-4.686869	contrary	-0.03498259
-4.686869	contrived	-0.09392811
-4.686869	controlld	-0.09011696
-4.686869	controlt	-0.03498259
-4.385839	controversy	-0.09636577
-4.385839	convenient	-0.1025528
-4.686869	convented	-0.03498259
-4.686869	conversation	-0.1018906
-4.686869	converse	-0.09973589
-4.686869	converses	-0.1020249
-4.686869	convey	-0.1001137
-4.686869	conveyances	-0.09638391
-4.686869	conveying	-0.1030622
-4.686869	convict	-0.1013619
-4.686869	cool	-0.03498259
-4.686869	cordial	-0.1029907
-2.42919	coriolanus	-1.02773
-3.45642	corioli	-0.1000196
-4.686869	cormorant	-0.1029907
-3.686868	corn	-0.0917027
-4.686869	cornerstone	-0.03498259
-4.686869	corrected	-0.1026601
-4.686869	correcting	-0.1013619
-4.385839	corrupt	-0.09349919
-4.686869	corrupting	-0.1030086
-3.783779	corse	-0.1790065
-4.686869	corslet	-0.09973589
-4.686869	cost	-0.03498259
-4.686869	costard	-0.09973589
-4.385839	cotus	-0.02950515
-3.095804	could	-0.06540783
-4.686869	couldst	-0.1013081
-4.686869	council	-0.1029818
-3.783779	counsel	-0.06016056
-4.686869	counselld	-0.03498259
-4.686869	counsellor	-0.1026422
-4.209747	counsels	-0.02378624
-4.686869	count	-0.09839278
-4.686869	counted	-0.1023023
-4.385839	countenance	-0.09220074
-4.686869	countenances	-0.03498259
-4.686869	counterfeit	-0.09011696
-4.686869	counterfeitly	-0.09831152
-4.686869	countermand	-0.03498259
-4.686869	counterpoise	-0.09823025
-4.686869	counterpoised	-0.1020607
-4.686869	counterseald	-0.03498259
-4.686869	countess	-0.1030443
-3.239711	country	-0.3031204
-4.686869	countryman	-0.03498259
-4.385839	countrymen	-0.08565892
-3.686868	countrys	-0.1002486
-4.385839	courage	-0.09211832
-3.84177	course	-0.2129845
-4.385839	court	-0.08952764
-4.686869	courteous	-0.09392811
-4.209747	courtesy	-0.1583925
-4.686869	courts	-0.09352659
-3.783779	cousin	-0.1103462
-4.686869	cousins	-0.09561229
-4.686869	coverture	-0.09963687
-4.686869	covetous	-0.03498259
-4.686869	covets	-0.1028746
-4.209747	coward	-0.02621292
-3.987899	cowardly	-0.08518452
-4.686869	cowards	-0.09561229
-4.686869	coxcombs	-0.03498259
-4.686869	coyd	-0.03498259
-4.686869	crabtrees	-0.102365
-4.686869	crack	-0.1027852
-4.209747	crackd	-0.09830248
-4.686869	cracking	-0.1030354
-4.686869	cradle	-0.09963687
-4.686869	craft	-0.1024365
-4.686869	crafted	-0.1028388
-4.686869	crafts	-0.09561229
-4.686869	crammed	-0.09973589
-4.686869	cranks	-0.09352659
-4.084808	crave	-0.07996
-4.385839	craves	-0.03126841
-4.686869	created	-0.03498259
-4.686869	creature	-0.1013081
-4.385839	creeping	-0.1028388
-4.209747	crept	-0.02969553
-4.686869	crest	-0.1026333
-4.385839	cried	-0.09390987
-3.987899	cries	-0.01779544
-4.686869	criminal	-0.09352659
-4.686869	cripple	-0.1030532
-4.686869	crooked	-0.1029639
-4.686869	croppd	-0.09011696
-4.385839	crosby	-0.3060843
-4.209747	cross	-0.07283729
-4.686869	crossrow	-0.1030622
-4.209747	crown	-0.02971669
-4.084808	crownd	-0.1175122
-4.686869	crowned	-0.1030532
-4.209747	crows	-0.02188461
-4.209747	cruel	-0.02361468
-4.686869	crueller	-0.09874474
-4.686869	cruelty	-0.09352659
-4.385839	crush	-0.09941176
-4.686869	crust	-0.1020607
-4.686869	crutch	-0.09352659
-4.686869	crutches	-0.1020338
-3.45642	cry	-0.1091503
-4.686869	crying	-0.1030532
-4.686869	cuckolds	-0.03498259
-4.686869	cudgel	-0.09352659
-4.686869	cunning	-0.09561229
-4.385839	cup	-0.2995221
-4.686869	cupboarding	-0.09011696
-4.686869	cur	-0.09011696
-4.686869	curb	-0.09011696
-4.686869	curbs	-0.03498259
-4.686869	curdied	-0.1013619
-4.209747	cure	-0.09619339
-3.987899	current	-0.02559418
-4.686869	currents	-0.09392811
-4.385839	curs	-0.03468997
-3.482749	curse	-0.2324663
-3.908717	cursed	-0.1435192
-3.686868	curses	-0.1473434
-4.385839	cursing	-0.1029193
-4.686869	curst	-0.03498259
-4.686869	curtaild	-0.09638391
-4.686869	curtsy	-0.1029907
-4.209747	cushion	-0.09842888
-4.385839	cushions	-0.1013439
-3.84177	custom	-0.01144518
-4.686869	customary	-0.1030443
-3.732626	cut	-0.175671
-4.686869	cymbals	-0.09352659
-4.686869	cypress	-0.1030622
-4.686869	dabbled	-0.09874474
-4.686869	daggers	-0.1025796
-3.987899	daily	-0.09333481
-4.686869	dallies	-0.09973589
-4.686869	dally	-0.09941176
-4.686869	dam	-0.03498259
-4.686869	damage	-0.1001137
-4.686869	damask	-0.09874474
-4.686869	dames	-0.03498259
-4.686869	damnable	-0.03498259
-4.385839	damned	-0.3027751
-4.385839	dance	-0.0348781
-4.686869	dances	-0.09839278
-3.987899	danger	-0.08972566
-3.686868	dangerous	-0.1339878
-4.686869	dangerously	-0.09561229
-4.385839	dangers	-0.09085247
-3.84177	dare	-0.08580762
-4.385839	darest	-0.09763376
-4.385839	dark	-0.1029639
-4.686869	darken	-0.1000328
-4.686869	darkend	-0.09874474
-4.686869	darkly	-0.09352659
-4.385839	darkness	-0.03497215
-4.686869	darts	-0.03498259
-4.686869	dash	-0.1029907
-4.686869	dastard	-0.1029818
-3.783779	daughter	-0.1252892
-4.209747	daughters	-0.09220073
-4.686869	daws	-0.1026154
-3.306657	day	-0.0783937
-3.645476	days	-0.1908335
-3.306657	dead	-0.2302179
-4.686869	deadkilling	-0.1027405
-3.84177	deadly	-0.09778747
-4.686869	deaf	-0.1030622
-4.385839	deal	-0.0956032
-4.686869	dealt	-0.03498259
-3.306657	dear	-0.07549173
-4.385839	dearer	-0.03358039
-4.385839	dearest	-0.1022039
-4.385839	dearly	-0.03192122
-4.084808	dearth	-0.1124042
-2.901539	death	-0.4050667
-4.084808	deaths	-0.1226764
-4.385839	debase	-0.03427159
-4.686869	debile	-0.1030443
-4.385839	debt	-0.03126841
-4.686869	decay	-0.1026154
-4.686869	decayed	-0.1030622
-4.385839	deceit	-0.03422973
-4.686869	deceive	-0.09352659
-4.385839	deceived	-0.03074124
-4.686869	deceivest	-0.1029639
-4.686869	deckd	-0.09874474
-4.385839	declines	-0.09345354
-4.686869	decreed	-0.03498259
-4.686869	decrees	-0.03498259
-3.510777	deed	-0.2342367
-4.686869	deedachieving	-0.102812
-3.607687	deeds	-0.1043978
-3.572925	deep	-0.05201583
-4.686869	deeper	-0.1018727
-4.686869	deepest	-0.1029818
-4.686869	deeprevolving	-0.1030622
-4.686869	defaced	-0.03498259
-4.686869	defect	-0.09638391
-4.686869	defective	-0.09963687
-4.385839	defence	-0.02715003
-4.084808	defend	-0.03203692
-4.686869	defender	-0.09638391
-4.686869	defenders	-0.1028835
-4.686869	deformed	-0.1030622
-4.385839	deformity	-0.2381208
-4.686869	defused	-0.1030532
-4.686869	defying	-0.03498259
-4.209747	degree	-0.1593652
-4.686869	degrees	-0.1004553
-4.385839	deity	-0.03358039
-4.385839	delay	-0.01979075
-4.686869	deliberate	-0.03498259
-4.385839	delight	-0.2970663
-4.686869	delightful	-0.1030622
-3.732626	deliver	-0.22171
-4.209747	deliverd	-0.1591562
-4.686869	delivered	-0.09011696
-4.385839	delivers	-0.1007786
-4.385839	delivery	-0.2381208
-4.686869	deluge	-0.1025081
-4.385839	demand	-0.2381208
-4.686869	demands	-0.1027226
-4.686869	demandst	-0.03498259
-4.686869	demerits	-0.1030532
-4.686869	denials	-0.1015143
-4.209747	denied	-0.08264564
-4.686869	denier	-0.03498259
-4.686869	denounced	-0.1026154
-3.686868	deny	-0.1683287
-4.686869	denying	-0.09831152
-4.686869	depart	-0.09352659
-4.686869	depending	-0.1017473
-4.686869	depends	-0.03498259
-4.686869	depopulate	-0.09011696
-4.686869	deposed	-0.09561229
-3.783779	derby	-0.5505964
-4.686869	descant	-0.1019174
-4.686869	descended	-0.03498259
-4.209747	desert	-0.1555139
-4.686869	deserts	-0.03498259
-3.686868	deserve	-0.1466941
-3.686868	deserved	-0.1625936
-4.084808	deserves	-0.08579834
-4.686869	deserving	-0.1022844
-4.686869	design	-0.09902429
-4.686869	designments	-0.03498259
-4.686869	designs	-0.03498259
-3.645476	desire	-0.130345
-4.686869	desirers	-0.1027673
-4.084808	desires	-0.08812481
-4.209747	despair	-0.09103614
-4.686869	despairing	-0.1030443
-4.686869	desperate	-0.1029639
-4.686869	desperately	-0.1030622
-4.686869	desperation	-0.03498259
-4.686869	despise	-0.1016935
-4.686869	despising	-0.03498259
-4.385839	despite	-0.03497215
-4.686869	despiteful	-0.1030443
-4.686869	destiny	-0.1030622
-4.209747	destroy	-0.02966381
-4.686869	destroyd	-0.09978988
-4.686869	destroyer	-0.09638391
-4.084808	destruction	-0.03424019
-4.686869	detects	-0.1000328
-4.084808	determine	-0.03105761
-4.209747	determined	-0.08330045
-4.686869	detested	-0.03498259
-4.686869	deucalion	-0.1027673
-3.732626	devil	-0.1391644
-4.385839	devilish	-0.034899
-4.385839	devils	-0.03443899
-4.084808	devise	-0.09593926
-4.686869	devised	-0.1030622
-4.385839	devoted	-0.1030354
-4.385839	devotion	-0.0992496
-4.385839	devour	-0.303171
-4.686869	devourd	-0.09011696
-4.686869	dew	-0.09638391
-4.385839	dews	-0.08322567
-4.686869	dians	-0.1030532
-4.686869	dick	-0.09831152
-4.686869	dictator	-0.03498259
-2.723081	did	-0.1145673
-3.908717	didst	-0.1010749
-3.306657	die	-0.1266213
-4.385839	died	-0.02991757
-4.385839	dies	-0.09482108
-4.686869	diet	-0.1028835
-4.385839	dieted	-0.02426839
-4.686869	difference	-0.1005272
-4.686869	differency	-0.1029818
-4.686869	differs	-0.1005272
-4.385839	digest	-0.03482585
-4.686869	dignifies	-0.09011696
-4.686869	dimming	-0.09638391
-4.385839	din	-0.09637485
-4.209747	dined	-0.03435528
-4.686869	dinner	-0.03498259
-4.084808	direct	-0.08888216
-4.686869	direction	-0.03498259
-4.385839	directitude	-0.0347736
-4.385839	directly	-0.02426839
-4.686869	direful	-0.1030443
-4.686869	disadvantage	-0.1029907
-4.686869	disbenchd	-0.09561229
-4.686869	discharge	-0.09392811
-4.686869	discharged	-0.03498259
-4.686869	disciplined	-0.1023739
-4.686869	disclaim	-0.1017473
-4.686869	disclosed	-0.03498259
-4.686869	discontent	-0.03498259
-4.209747	discontented	-0.1028209
-4.686869	discourse	-0.1005272
-4.385839	discover	-0.09515775
-4.686869	discovery	-0.03498259
-4.686869	discreet	-0.03498259
-4.686869	discretion	-0.03498259
-4.209747	disdain	-0.09799535
-4.686869	disdains	-0.09011696
-4.084808	disease	-0.02357179
-4.209747	disgrace	-0.0952214
-4.686869	disgraced	-0.09352659
-4.385839	dishonour	-0.2381208
-4.209747	dishonourd	-0.08905745
-4.686869	dishonours	-0.09561229
-4.686869	disinherited	-0.1024276
-4.686869	dislikes	-0.09392811
-4.686869	dislodged	-0.09352659
-4.686869	dismal	-0.1030532
-4.686869	dismayd	-0.03498259
-4.084808	dismiss	-0.1736597
-4.686869	dismissd	-0.1001137
-4.686869	disobedience	-0.1030622
-4.686869	disobeys	-0.03498259
-3.783779	dispatch	-0.2289666
-4.686869	dispatchd	-0.03498259
-4.686869	displace	-0.09989785
-4.686869	displeased	-0.03498259
-4.385839	displeasure	-0.02715003
-4.686869	disposed	-0.03498259
-4.686869	disposing	-0.09638391
-4.084808	disposition	-0.2269352
-4.385839	dispositions	-0.08858678
-4.686869	dispropertied	-0.1017473
-4.686869	dispute	-0.09941176
-4.209747	dissemble	-0.09597556
-4.686869	dissembler	-0.1027673
-4.385839	dissembling	-0.1027852
-4.686869	dissension	-0.09638391
-4.209747	dissentious	-0.1030264
-4.686869	dissolved	-0.1029907
-4.686869	distinction	-0.1025349
-4.385839	distinctly	-0.1030532
-4.209747	distress	-0.03064626
-4.686869	distressd	-0.03498259
-4.686869	distribute	-0.09989785
-4.686869	distributed	-0.03498259
-4.686869	distribution	-0.1020607
-4.686869	disturbers	-0.03498259
-4.686869	disturbing	-0.09011696
-4.686869	ditch	-0.03498259
-4.686869	dive	-0.1030354
-4.686869	divers	-0.1030354
-4.686869	diversely	-0.1030622
-4.686869	divide	-0.09874474
-4.686869	divided	-0.1030622
-4.084808	divine	-0.09336221
-4.686869	divines	-0.1029282
-4.686869	division	-0.03498259
-2.446319	do	-0.2358319
-4.686869	doers	-0.1001407
-3.431596	does	-0.07249244
-3.908717	dog	-0.01524462
-4.686869	doggd	-0.09973589
-4.084808	dogs	-0.09640205
-3.783779	doing	-0.1925883
-4.686869	doings	-0.09352659
-4.209747	doit	-0.1028567
-4.686869	donation	-0.1019353
-3.033656	done	-0.2141635
-4.686869	donebefore	-0.1012094
-4.385839	donet	-0.2381208
-4.385839	doom	-0.09532144
-4.385839	door	-0.02379697
-4.385839	doors	-0.2381208
-3.510777	dorset	-0.4990274
-4.686869	dorsets	-0.1030532
-3.607687	dost	-0.2578071
-3.645476	dot	-0.1786258
-4.686869	dotant	-0.1004553
-4.686869	dote	-0.1019174
-3.325141	doth	-0.1384672
-4.385839	double	-0.1030264
-4.686869	doubled	-0.1029818
-4.686869	doublets	-0.09831152
-4.686869	doubly	-0.03498259
-3.45642	doubt	-0.04241239
-4.686869	doubtless	-0.03498259
-4.686869	doubtthat	-0.102517
-4.686869	dovecote	-0.0948666
-4.686869	doves	-0.1027584
-3.142801	down	-0.1760227
-4.686869	downfall	-0.09638391
-4.686869	downright	-0.03498259
-4.385839	dozen	-0.1029996
-4.686869	drachm	-0.1030532
-4.385839	dragon	-0.09421989
-4.686869	dragonlike	-0.09352659
-3.987899	draw	-0.09124729
-4.209747	drawn	-0.09942075
-4.385839	dread	-0.0348154
-4.385839	dreaded	-0.03493036
-4.084808	dreadful	-0.1028656
-4.084808	dream	-0.1137886
-4.084808	dreams	-0.4888961
-4.686869	dreamst	-0.0948666
-4.385839	dreamt	-0.09521232
-4.385839	dregs	-0.2995221
-4.686869	drew	-0.09941176
-4.686869	drewst	-0.102812
-4.686869	dries	-0.1025349
-4.686869	drift	-0.1024812
-4.385839	drink	-0.03480496
-4.686869	drinkst	-0.102955
-4.686869	driven	-0.03498259
-4.686869	drives	-0.1024723
-4.686869	droop	-0.09941176
-3.987899	drop	-0.09219158
-4.686869	droppd	-0.09989785
-3.987899	drops	-0.326825
-4.686869	drove	-0.03498259
-3.987899	drown	-0.008612506
-3.987899	drum	-0.0276497
-4.084808	drums	-0.2727136
-4.385839	drunken	-0.1030175
-4.385839	dry	-0.1016845
-4.686869	dubbd	-0.1016935
-3.306657	duchess	-1.391253
-4.686869	duck	-0.09973589
-4.686869	due	-0.09392811
-4.686869	dugs	-0.09902429
-3.431596	duke	-0.3893253
-4.686869	dukedom	-0.09392811
-4.385839	dukes	-0.03497215
-3.987899	dull	-0.03455403
-4.686869	dumb	-0.1027495
-4.686869	dungeon	-0.03498259
-4.385839	during	-0.08673599
-4.385839	durst	-0.30255
-4.209747	dust	-0.03287758
-4.385839	duteous	-0.1023918
-4.686869	duties	-0.03498259
-3.732626	duty	-0.1648936
-4.385839	dwellest	-0.09795922
-4.385839	dwells	-0.03069904
-4.686869	dying	-0.1030264
-3.510777	each	-0.1950525
-4.385839	eagle	-0.09809475
-4.385839	eagles	-0.03490946
-4.209747	ear	-0.08849441
-4.686869	earls	-0.1028746
-4.686869	earn	-0.09823025
-4.686869	earned	-0.1016935
-4.385839	earnest	-0.1030264
-4.385839	earnestness	-0.09199923
-3.45642	ears	-0.2827283
-4.686869	earswaving	-0.1013619
-3.645476	earth	-0.127084
-4.686869	earthly	-0.1013977
-4.686869	ease	-0.09978988
-4.686869	easily	-0.1030622
-4.385839	east	-0.1021681
-3.987899	easy	-0.1052433
-3.987899	eat	-0.0276072
-4.686869	eaten	-0.1000328
-4.686869	edge	-0.03498259
-4.686869	edges	-0.1019174
-4.686869	edict	-0.09352659
-4.686869	edicts	-0.09963687
-4.686869	edifices	-0.1030264
-3.142801	edward	-0.314705
-3.607687	edwards	-0.06148944
-4.084808	eer	-0.1007697
-4.209747	effect	-0.4134659
-4.686869	effected	-0.09978988
-4.686869	egg	-0.1016487
-4.686869	eightyearold	-0.1030264
-3.645476	either	-0.08109103
-4.686869	eject	-0.1000328
-4.686869	elbow	-0.1030622
-4.385839	elders	-0.02426839
-4.686869	elected	-0.1030264
-4.209747	election	-0.03359086
-4.686869	elements	-0.03498259
-4.686869	eleven	-0.1028567
-3.063619	elizabeth	-1.56538
-4.686869	eloquence	-0.09352659
-3.431596	else	-0.2153842
-4.686869	elsewhere	-0.03498259
-4.686869	elvishmarkd	-0.1030532
-3.510777	em	-0.3415331
-4.686869	embarkd	-0.09392811
-4.686869	embarquements	-0.1011825
-4.686869	embassage	-0.03498259
-4.686869	embassies	-0.09352659
-4.385839	embrace	-0.303171
-4.686869	embraced	-0.09973589
-4.385839	embracements	-0.08709752
-4.686869	empiricutic	-0.09352659
-4.385839	employ	-0.0952396
-4.686869	empoisond	-0.03498259
-4.385839	empty	-0.1030264
-4.209747	emulation	-0.1581725
-4.686869	encloseth	-0.09839278
-4.686869	encompasseth	-0.1030354
-4.084808	encounter	-0.01770847
-4.686869	encountering	-0.03498259
-4.686869	encounters	-0.1030354
-3.385839	end	-0.2585077
-4.686869	endeavours	-0.09392811
-4.385839	ended	-0.09745285
-4.084808	ends	-0.1197058
-4.686869	endue	-0.09561229
-3.908717	endure	-0.07304634
-4.686869	endured	-0.03498259
-4.686869	endures	-0.09941176
-3.54074	enemies	-0.210365
-3.45642	enemy	-0.2750314
-4.686869	enemys	-0.102955
-4.084808	enforce	-0.08048717
-4.686869	enforcement	-0.1016487
-4.686869	enfranchise	-0.09561229
-4.686869	engine	-0.09352659
-4.686869	england	-0.03498259
-4.084808	englands	-0.1919669
-4.686869	englishman	-0.1030443
-4.686869	enigma	-0.03498259
-4.209747	enjoy	-0.0983386
-4.385839	enjoyd	-0.01979075
-4.686869	enjoys	-0.09011696
-4.209747	enmity	-0.03225775
-4.686869	enmitys	-0.1025081
-4.686869	ennoble	-0.1027137
-4.686869	enormity	-0.1000238
-3.607687	enough	-0.1985786
-4.686869	enraged	-0.1000328
-4.686869	enrichd	-0.03498259
-4.686869	enrolld	-0.03498259
-4.686869	ensnareth	-0.1018637
-4.385839	ensuing	-0.1030086
-4.686869	entangled	-0.03498259
-3.84177	enter	-0.0246002
-4.084808	enterd	-0.0176976
-4.686869	entered	-0.09874474
-4.686869	enters	-0.1024186
-4.084808	entertain	-0.09771514
-4.209747	entertainment	-0.4134659
-4.686869	entire	-0.1004553
-4.686869	entombed	-0.09874474
-4.686869	entrance	-0.09392811
-4.084808	entreat	-0.1876766
-4.385839	entreaties	-0.09819412
-4.686869	entreats	-0.03498259
-4.686869	entreaty	-0.03498259
-4.385839	envied	-0.09933069
-4.385839	envious	-0.1030354
-4.686869	environd	-0.1001137
-3.783779	envy	-0.0681296
-4.686869	envying	-0.09978988
-4.686869	epitome	-0.09638391
-4.385839	equal	-0.0349408
-4.686869	equals	-0.1029639
-3.364649	ere	-0.17587
-4.686869	errand	-0.09963687
-4.686869	erroneous	-0.1030622
-4.686869	error	-0.1001407
-4.209747	especially	-0.09496669
-4.686869	establishd	-0.03498259
-4.686869	established	-0.1026154
-4.385839	estate	-0.09328914
-4.686869	estimate	-0.1024634
-3.987899	estimation	-0.002812363
-4.686869	eternal	-0.1030532
-4.686869	eternity	-0.03498259
-4.686869	eunuch	-0.102186
-4.686869	evade	-0.1019891
-3.239711	even	-0.1563004
-4.686869	event	-0.03498259
-3.130566	ever	-0.1164752
-3.482749	every	-0.07530265
-4.385839	evidence	-0.09785076
-4.385839	evident	-0.1004373
-4.209747	evil	-0.03023454
-4.686869	evils	-0.1005272
-4.686869	examine	-0.03498259
-4.686869	example	-0.1025081
-4.686869	examples	-0.09638391
-4.209747	exceed	-0.01073874
-4.686869	exceeding	-0.1027137
-4.686869	exceeds	-0.1025796
-4.209747	excellent	-0.03455403
-4.686869	excepting	-0.1022308
-4.686869	exclaims	-0.03498259
-3.987899	excuse	-0.1036104
-4.686869	excused	-0.03498259
-4.686869	execute	-0.1013619
-4.686869	executed	-0.1028835
-3.987899	execution	-0.3438252
-4.385839	executioner	-0.2381208
-4.686869	executioners	-0.03498259
-4.686869	exempt	-0.09874474
-4.385839	exercise	-0.03415647
-4.686869	exhale	-0.03498259
-4.686869	exhales	-0.1007248
-3.987899	exile	-0.03305601
-4.084808	expect	-0.02796834
-4.686869	expected	-0.09902429
-4.686869	expedient	-0.1029907
-4.686869	expedition	-0.1030622
-4.686869	expel	-0.1000328
-4.686869	experienced	-0.1028031
-4.686869	exploit	-0.09638391
-4.686869	exposture	-0.09392811
-4.084808	express	-0.03079398
-4.686869	expulsion	-0.09638391
-4.385839	extol	-0.1004733
-4.686869	extreme	-0.1030532
-4.385839	extremest	-0.1022576
-4.686869	extremities	-0.1024812
-4.209747	extremity	-0.1580258
-3.607687	eye	-0.05967136
-3.142801	eyes	-0.1339144
-4.686869	eyeshis	-0.1030622
-4.385839	fabric	-0.09976288
-3.607687	face	-0.1944757
-3.987899	faces	-0.03229981
-4.686869	faction	-0.03498259
-4.686869	factionary	-0.1019174
-4.686869	factions	-0.03498259
-4.385839	factious	-0.09878983
-4.209747	fail	-0.1543106
-4.686869	fails	-0.03498259
-4.385839	fain	-0.1011466
-4.686869	faint	-0.1030622
-4.686869	faintly	-0.09902429
-3.271895	fair	-0.06770936
-4.686869	fairer	-0.1018727
-4.686869	fairly	-0.03498259
-4.686869	fairness	-0.09638391
-3.686868	faith	-0.07609023
-4.686869	faithful	-0.1024634
-4.686869	falchion	-0.1030532
-3.54074	fall	-0.1452014
-4.686869	fallen	-0.1024723
-4.385839	falling	-0.0349617
-4.686869	falln	-0.1023023
-3.645476	false	-0.01177593
-4.686869	falseboding	-0.1030086
-4.686869	falsefaced	-0.1030532
-4.686869	falsehood	-0.09352659
-4.385839	falsely	-0.02426839
-4.686869	falter	-0.1030532
-3.84177	fame	-0.05458154
-4.686869	familiar	-0.03498259
-4.385839	famish	-0.02379697
-4.385839	famously	-0.09901527
-4.686869	fan	-0.09561229
-4.686869	fancy	-0.1029014
-4.686869	fane	-0.1026243
-3.607687	far	-0.06504744
-3.987899	fare	-0.4130653
-4.385839	fares	-0.08638345
-3.385839	farewell	-0.2885803
-4.686869	farther	-0.1018727
-4.385839	fashion	-0.2381208
-4.686869	fashions	-0.09392811
-3.783779	fast	-0.234017
-4.686869	fasts	-0.1027673
-4.686869	fatal	-0.1030532
-3.344446	father	-0.2571251
-4.686869	fatherinlaw	-0.1030264
-4.686869	fatherless	-0.1030443
-3.732626	fathers	-0.1808755
-4.686869	fatigate	-0.03498259
-4.686869	fatting	-0.09963687
-3.84177	fault	-0.07432733
-4.686869	faultless	-0.1026958
-3.908717	faults	-0.1675594
-4.084808	favour	-0.1854383
-4.686869	favourd	-0.1000328
-4.686869	favouring	-0.09011696
-4.686869	favours	-0.1030622
-4.686869	fawn	-0.1023023
-4.686869	fawning	-0.1030622
-4.686869	fawns	-0.09902429
-3.306657	fear	-0.1497122
-4.209747	feard	-0.02314255
-3.783779	fearful	-0.02939934
-4.686869	fearing	-0.1030264
-4.209747	fears	-0.09110041
-4.209747	feast	-0.02378624
-4.686869	feasts	-0.09011696
-4.686869	feats	-0.03498259
-4.686869	feature	-0.1013619
-4.686869	fed	-0.03498259
-4.385839	fee	-0.02379697
-4.385839	feeble	-0.1030354
-4.686869	feebling	-0.1026243
-4.686869	feebly	-0.09989785
-4.385839	feed	-0.0972266
-4.385839	feeding	-0.09989785
-3.908717	feel	-0.02234738
-4.686869	feeling	-0.09874474
-4.686869	feels	-0.03498259
-4.686869	feet	-0.09352659
-4.385839	fell	-0.1023292
-4.686869	fellest	-0.1030354
-3.408115	fellow	-0.158613
-3.908717	fellows	-0.07643294
-4.686869	fellowship	-0.03498259
-4.686869	fellowtribune	-0.03498259
-4.686869	fen	-0.03498259
-4.686869	fens	-0.102821
-4.686869	ferryman	-0.1018189
-4.686869	fester	-0.1030175
-4.385839	fetch	-0.08698631
-4.686869	fetchd	-0.03498259
-4.686869	feverous	-0.09352659
-4.209747	few	-0.1014963
-4.686869	fidiused	-0.09963687
-3.84177	fie	-0.3078643
-3.686868	field	-0.2498354
-4.686869	fielded	-0.1026958
-4.686869	fiend	-0.03498259
-4.385839	fiends	-0.03200538
-4.209747	fierce	-0.09068707
-4.385839	fiery	-0.1029461
-4.686869	fifes	-0.03498259
-4.686869	fifth	-0.1022129
-3.54074	fight	-0.4426599
-4.686869	fighting	-0.03498259
-4.686869	fights	-0.1030622
-4.686869	figure	-0.09638391
-4.686869	figured	-0.09874474
-4.686869	file	-0.1015143
-4.686869	filea	-0.1030264
-4.686869	files	-0.09978988
-4.385839	fill	-0.03114194
-4.385839	filld	-0.09028256
-4.686869	filling	-0.09011696
-4.686869	fillip	-0.09011696
-4.686869	fills	-0.1022308
-3.45642	find	-0.1863936
-4.209747	finds	-0.09186176
-3.987899	fine	-0.1005272
-4.686869	fines	-0.1005272
-4.084808	finger	-0.0175345
-4.686869	finished	-0.09973589
-4.686869	fins	-0.09638391
-3.645476	fire	-0.1242535
-4.686869	firenew	-0.1030354
-4.209747	fires	-0.0880416
-4.686869	firm	-0.09352659
-2.44383	first	-0.6766473
-4.686869	fish	-0.1024186
-4.686869	fishes	-0.1030622
-4.686869	fisting	-0.1029371
-3.84177	fit	0.01068205
-4.385839	fitly	-0.02715003
-4.686869	fitness	-0.09963687
-4.385839	fitter	-0.3027751
-4.686869	fittest	-0.1026511
-4.084808	five	-0.1924499
-4.686869	fix	-0.1013619
-4.686869	fixed	-0.1029193
-4.686869	flag	-0.1026154
-4.385839	flame	-0.09843792
-4.686869	flamens	-0.03498259
-4.385839	flat	-0.2381208
-3.732626	flatter	-0.08243048
-4.686869	flattered	-0.09011696
-4.686869	flatterer	-0.03498259
-4.385839	flatterers	-0.102195
-4.385839	flattery	-0.03480496
-4.686869	flaw	-0.03498259
-4.686869	flayd	-0.101801
-4.385839	fled	-0.03376901
-4.686869	fleeting	-0.1030622
-4.385839	flesh	-0.03363279
-4.209747	fliers	-0.03368518
-4.385839	flies	-0.03428206
-4.686869	flight	-0.09352659
-4.385839	flint	-0.0341146
-4.686869	floating	-0.1030354
-4.209747	flood	-0.1593547
-4.686869	flour	-0.09638391
-4.686869	flourish	-0.09638391
-4.686869	flout	-0.03498259
-4.686869	flouted	-0.1019891
-4.686869	flow	-0.09973589
-4.686869	flower	-0.09638391
-4.385839	flowers	-0.1006799
-4.686869	flung	-0.1030622
-4.686869	flutterd	-0.09944778
-3.908717	fly	-0.07997629
-4.686869	fob	-0.1029103
-4.084808	foe	-0.2274066
-4.084808	foes	-0.1139708
-4.686869	fog	-0.1024902
-4.686869	foild	-0.1025796
-4.686869	folded	-0.1026333
-4.686869	foldin	-0.09011696
-4.686869	foldsin	-0.03498259
-3.510777	follow	-0.1801353
-4.084808	followd	-0.03243644
-4.385839	followed	-0.02624491
-4.686869	follower	-0.09941176
-4.686869	followers	-0.1029818
-4.686869	following	-0.09011696
-4.084808	follows	-0.02422555
-4.084808	folly	-0.2742866
-4.385839	fond	-0.08709752
-4.686869	food	-0.1020607
-3.783779	fool	-0.1104434
-4.686869	foolery	-0.1019174
-4.686869	foolhardiness	-0.09941176
-4.209747	foolish	-0.08899288
-3.84177	fools	-0.07503182
-3.732626	foot	-0.4536749
-4.686869	footing	-0.09638391
-2.10367	for	-0.3328582
-4.686869	forbad	-0.1011825
-4.686869	forbear	-0.09944778
-4.385839	forbid	-0.2381208
-4.084808	force	-0.02293853
-4.385839	forced	-0.2970663
-3.987899	fore	-0.07838409
-4.686869	foreadvised	-0.1021771
-4.385839	forehead	-0.03363279
-4.686869	foreign	-0.1030622
-4.385839	foremost	-0.03389471
-4.686869	forenoon	-0.09874474
-4.686869	forfeit	-0.1029996
-4.686869	forged	-0.1028835
-4.686869	forges	-0.09831152
-3.987899	forget	-0.09182125
-4.686869	forgetfulness	-0.1016487
-4.084808	forgive	-0.02426838
-3.908717	forgot	-0.06260197
-4.385839	form	-0.2381208
-4.084808	former	-0.1028299
-4.686869	formerly	-0.03498259
-4.209747	fors	-0.1024007
-4.385839	forsake	-0.03114194
-4.385839	forsook	-0.09680999
-4.385839	forsooth	-0.1023202
-4.686869	forswearing	-0.09352659
-4.686869	forswore	-0.1030622
-4.385839	forsworn	-0.08554734
-3.908717	fort	-0.08248661
-3.288929	forth	-0.1155446
-4.686869	forthwith	-0.1020338
-4.686869	fortnight	-0.1010838
-4.686869	fortunate	-0.1027226
-3.686868	fortune	-0.1983558
-4.084808	fortunes	-0.1135314
-4.686869	forty	-0.09638391
-4.686869	forward	-0.03498259
-4.686869	fossetseller	-0.03498259
-3.732626	fought	-0.215834
-3.84177	foul	-0.1027137
-4.385839	fouler	-0.1018547
-4.686869	foulest	-0.1029371
-4.686869	foulfaced	-0.1030622
-3.987899	found	-0.1014551
-4.686869	foundation	-0.03498259
-4.084808	four	-0.1013798
-4.084808	fourth	-0.3499466
-4.686869	foxes	-0.1030532
-4.686869	foxship	-0.03498259
-4.686869	fragments	-0.03498259
-4.084808	frame	-0.02969554
-4.385839	framed	-0.08910359
-4.686869	franchises	-0.1030622
-4.686869	frank	-0.1030622
-4.686869	frankd	-0.1026333
-4.686869	frantic	-0.1029282
-3.908717	free	-0.1811115
-4.686869	freedom	-0.03498259
-4.686869	freedoms	-0.1030443
-4.686869	freelier	-0.1030443
-4.686869	freely	-0.1024723
-4.686869	freezeth	-0.03498259
-4.686869	french	-0.1030622
-4.686869	fresh	-0.1030622
-4.686869	freshest	-0.1027495
-3.54074	friend	-0.07837399
-4.686869	friendliness	-0.03498259
-4.084808	friendly	-0.03322388
-3.063619	friends	-0.1762998
-4.686869	friendship	-0.03498259
-4.686869	friendsthis	-0.1029996
-4.209747	fright	-0.2130906
-4.686869	frighted	-0.03498259
-2.622411	from	-0.2759005
-4.385839	front	-0.03114194
-4.686869	fronts	-0.1030622
-4.686869	frost	-0.1020338
-4.209747	frown	-0.09748902
-4.686869	frownd	-0.1019174
-4.686869	frowning	-0.1030354
-4.686869	frozen	-0.1029729
-4.385839	fruit	-0.02715003
-4.686869	fulfil	-0.09823025
-3.364649	full	-0.3730559
-4.209747	fully	-0.1028388
-4.686869	function	-0.1022755
-4.686869	functions	-0.1030354
-4.686869	fundamental	-0.1028746
-4.686869	furies	-0.1025528
-3.45642	further	-0.3978143
-4.686869	fury	-0.1016487
-4.686869	fusty	-0.1030264
-4.084808	g	-0.4888961
-4.209747	gain	-0.0895737
-4.686869	gains	-0.03498259
-3.908717	gainst	-0.01642378
-4.686869	galen	-0.1000238
-4.686869	gallantspringing	-0.1029907
-4.686869	galld	-0.09978988
-4.686869	gan	-0.1030443
-4.686869	gangrened	-0.1000238
-4.686869	gaoler	-0.09392811
-4.686869	gap	-0.09638391
-4.686869	gape	-0.1030354
-4.686869	garb	-0.03498259
-4.084808	garland	-0.02563688
-4.686869	garliceaters	-0.03498259
-4.084808	garments	-0.1113279
-4.686869	garners	-0.1030622
-4.686869	gash	-0.1019174
-4.385839	gate	-0.02715003
-3.482749	gates	0.01095614
-4.686869	gather	-0.03498259
-3.84177	gave	-0.1395891
-4.686869	gavest	-0.09011696
-4.385839	gaze	-0.09901527
-4.686869	gear	-0.03498259
-4.385839	geese	-0.02624491
-4.686869	gems	-0.03498259
-3.15539	general	-0.2856933
-4.686869	generals	-0.1030086
-4.686869	generosity	-0.03498259
-3.510777	gentle	-0.09085247
-4.686869	gentlefolks	-0.03498259
-3.732626	gentleman	-0.9886187
-4.084808	gentlemen	-0.1240076
-4.686869	gentler	-0.1029818
-4.686869	gentlesleeping	-0.1025796
-4.686869	gentlewoman	-0.03498259
-4.686869	gentlewomen	-0.03498259
-4.686869	gently	-0.1001407
-4.385839	gentry	-0.09389162
-4.209747	george	-0.03153174
-3.572925	get	-0.655483
-4.686869	getter	-0.09638391
-4.686869	ghastly	-0.1030354
-4.385839	ghost	-0.03200538
-4.686869	giber	-0.09963687
-4.686869	gibingly	-0.1030622
-4.385839	giddy	-0.1030354
-4.686869	gifts	-0.102365
-4.686869	gilded	-0.03498259
-4.686869	gilt	-0.09978988
-4.686869	gird	-0.09011696
-4.209747	girl	-0.4134659
-2.908717	give	-0.3344737
-3.572925	given	-0.1306894
-4.209747	gives	-0.09539415
-4.209747	giving	-0.2243629
-3.908717	glad	-0.3190155
-4.686869	gladly	-0.1030622
-4.209747	glass	-0.4134659
-4.686869	glasses	-0.09638391
-4.686869	glean	-0.1024723
-4.686869	glories	-0.03498259
-4.385839	glorious	-0.1025528
-3.987899	glory	-0.3516948
-2.600509	gloucester	-1.117315
-4.686869	gloucesters	-0.1030443
-4.686869	gloves	-0.03498259
-4.686869	glowing	-0.0948666
-4.385839	gnaw	-0.09689154
-4.686869	gnawd	-0.1023023
-2.737478	go	-0.2062012
-4.686869	goaded	-0.1030622
-4.686869	goat	-0.03498259
-2.946506	god	-0.08073746
-4.686869	godded	-0.1001137
-4.084808	godden	-0.3409434
-4.686869	goddess	-0.1029818
-4.686869	godfathers	-0.03498259
-2.93868	gods	-0.227864
-3.987899	goes	-0.09556589
-3.987899	going	-0.3239434
-3.84177	gold	-0.1539366
-4.209747	golden	-0.1030443
-3.288929	gone	-0.4954213
-2.576279	good	-0.06396216
-3.987899	goodly	-0.1018458
-4.686869	gosling	-0.09392811
-4.686869	gossips	-0.09874474
-4.686869	gost	-0.1030532
-3.84177	got	-0.1365635
-4.686869	govern	-0.1019353
-4.385839	governd	-0.3045001
-4.686869	government	-0.03498259
-4.209747	gown	-0.02680949
-3.209747	grace	-0.1880639
-4.686869	graced	-0.102517
-4.686869	graceful	-0.1030622
-4.209747	graces	-0.220414
-3.686868	gracious	-0.1028861
-4.686869	grafted	-0.09392811
-3.908717	grain	-0.08504631
-4.686869	grained	-0.1030622
-4.686869	grains	-0.03498259
-3.783779	grandam	-0.01094861
-4.686869	grandchild	-0.09392811
-3.54074	grant	-0.08866709
-4.084808	granted	-0.1865181
-4.686869	grants	-0.09831152
-4.686869	grapes	-0.1019174
-4.686869	grateful	-0.03498259
-4.686869	gratify	-0.09978988
-4.209747	gratis	-0.09260348
-4.686869	gratitude	-0.03498259
-4.686869	gratulate	-0.09011696
-3.572925	grave	-0.1085385
-4.686869	graver	-0.1030532
-4.686869	graves	-0.0948666
-4.686869	graveshall	-0.1030532
-4.686869	greasy	-0.1030264
-3.095804	great	-0.06185276
-3.783779	greater	-0.1242901
-4.686869	greatest	-0.1026958
-4.385839	greatness	-0.03476314
-4.686869	greatst	-0.1030532
-4.686869	grecian	-0.1028746
-4.385839	greece	-0.03298256
-4.385839	green	-0.09028256
-4.209747	greet	-0.08447661
-4.385839	grew	-0.1009672
-3.783779	grey	-0.221468
-4.686869	greyhound	-0.09874474
-4.385839	grief	-0.2381208
-4.686869	griefshot	-0.03498259
-4.686869	grieve	-0.09392811
-4.209747	grieves	-0.478597
-3.987899	grievous	-0.09373651
-4.209747	grim	-0.1029639
-4.686869	grimvisaged	-0.1028656
-4.686869	grind	-0.09989785
-4.686869	groan	-0.09352659
-4.686869	groans	-0.09638391
-4.686869	groats	-0.09392811
-4.686869	gross	-0.1030532
-4.686869	grossly	-0.1030532
-3.908717	ground	-0.07562952
-4.686869	grounded	-0.1029818
-4.686869	grove	-0.0948666
-3.783779	grow	-0.05933331
-3.987899	grown	-0.1018449
-4.209747	grows	-0.101308
-4.209747	growth	-0.03421925
-4.385839	grub	-0.09112797
-4.686869	grudge	-0.1021234
-4.686869	grudging	-0.1028031
-3.987899	guard	-0.1039354
-4.686869	guardant	-0.1024991
-4.686869	guarded	-0.1029014
-3.987899	guess	-0.02823369
-4.385839	guest	-0.03024511
-4.686869	guided	-0.03498259
-4.686869	guider	-0.1021234
-4.385839	guile	-0.2381208
-4.686869	guilt	-0.1023023
-4.209747	guiltless	-0.09607542
-4.385839	guilty	-0.102955
-4.385839	gulf	-0.03126841
-4.686869	gulls	-0.03498259
-4.686869	gusts	-0.1008505
-3.732626	ha	-0.1674999
-2.686868	had	-0.1266615
-3.908717	hadst	-0.1557986
-4.686869	hag	-0.03498259
-3.987899	hail	-0.02226131
-4.686869	hailstone	-0.09874474
-4.084808	hair	-0.1236411
-4.686869	halbert	-0.1030622
-4.686869	hale	-0.1000328
-3.54074	half	-0.03064684
-4.686869	halfpint	-0.09638391
-4.385839	halt	-0.09177928
-3.271895	hand	-0.2435887
-4.686869	handkerchers	-0.03498259
-4.686869	handling	-0.102186
-3.510777	hands	-0.451684
-4.686869	handsome	-0.1030622
-3.732626	hang	-0.1236293
-4.686869	hanged	-0.03498259
-4.686869	hanging	-0.102186
-4.385839	hangmen	-0.1018547
-4.686869	hangs	-0.1019174
-4.209747	hap	-0.09262178
-4.385839	haply	-0.1013529
-4.686869	happier	-0.09352659
-4.385839	happiness	-0.09656528
-3.732626	happy	-0.125265
-4.209747	hard	-0.2213933
-4.209747	hardly	-0.0986545
-4.686869	hardness	-0.1027673
-4.686869	hardy	-0.1030532
-4.686869	hare	-0.03498259
-4.686869	hares	-0.03498259
-3.686868	hark	-0.1243866
-4.686869	harlots	-0.1029818
-3.645476	harm	-0.1707584
-4.686869	harms	-0.1013619
-4.686869	harp	-0.1019174
-4.686869	harrow	-0.1030532
-4.686869	harsh	-0.09874474
-4.686869	harts	-0.03498259
-4.209747	harvest	-0.2189865
-4.686869	harvestman	-0.1028924
-3.142801	has	-0.09971925
-3.271895	hast	-0.06537959
-4.084808	haste	-0.1218147
-3.306657	hastings	-0.3434721
-4.385839	hasty	-0.02379697
-4.209747	hat	-0.09328913
-4.686869	hatchd	-0.09392811
-4.385839	hatches	-0.034899
-4.686869	hatching	-0.03498259
-3.209747	hate	-0.1540871
-4.084808	hated	-0.02232585
-4.686869	hateful	-0.1030532
-4.385839	hates	-0.0926035
-2.789242	hath	-0.07108466
-3.783779	hatred	-0.0705509
-4.686869	haught	-0.09352659
-4.686869	haughty	-0.1029639
-4.385839	haunt	-0.09839278
-2.121021	have	-0.1785014
-4.686869	haver	-0.101586
-4.686869	havet	-0.09973589
-3.686868	having	-0.08390759
-4.686869	havoc	-0.1024902
-4.209747	hazard	-0.02666042
-4.686869	hazards	-0.1028299
-2.032692	he	-0.2930846
-3.732626	head	-0.1471689
-3.987899	heads	-0.09818611
-4.686869	heal	-0.1027673
-4.084808	health	-0.1187428
-4.686869	heap	-0.101586
-4.385839	heaps	-0.08668962
-4.686869	heapt	-0.03498259
-2.85436	hear	-0.2232667
-3.385839	heard	-0.09202935
-3.84177	hearing	-0.06285343
-4.686869	hearkens	-0.1029103
-4.686869	hearse	-0.03498259
-4.686869	hearst	-0.1013081
-3.005627	heart	-0.312567
-4.209747	hearth	-0.1550921
-4.686869	hearthardening	-0.1030622
-4.209747	heartily	-0.1580468
-3.431596	hearts	-0.1075865
-4.686869	heartsorrowing	-0.1030354
-4.385839	heat	-0.0956032
-3.364649	heaven	-0.2782747
-4.686869	heavenly	-0.1029639
-3.84177	heavens	-0.06129307
-4.686869	heaviest	-0.1030443
-4.385839	heavily	-0.09348093
-3.987899	heavy	-0.09317951
-4.385839	hector	-0.034899
-4.686869	hectors	-0.1030532
-4.686869	hecuba	-0.03498259
-4.686869	hedgehog	-0.1021413
-4.084808	heed	-0.08524966
-4.084808	heels	-0.2838261
-4.686869	height	-0.03498259
-4.686869	heightend	-0.03498259
-4.686869	heinous	-0.1029639
-4.084808	heir	-0.1060371
-4.686869	heirs	-0.09011696
-3.645476	held	0.0008141696
-3.431596	hell	-0.1770169
-4.686869	hellgovernd	-0.1029818
-4.385839	helms	-0.101792
-3.364649	help	-0.0656171
-4.686869	helpless	-0.1030622
-4.209747	helps	-0.1571656
-4.686869	helpst	-0.1001137
-4.686869	hen	-0.1030532
-3.45642	hence	-0.4507011
-4.084808	henry	-0.002812363
-4.084808	henrys	-0.1920922
-2.85436	her	-0.05722045
-4.209747	herald	-0.4134659
-4.686869	heralds	-0.03498259
-4.686869	herbs	-0.09977188
-4.385839	hercules	-0.2381208
-4.209747	herd	-0.03199484
-4.686869	herdsmen	-0.09638391
-2.789242	here	-0.192471
-3.987899	hereafter	-0.3525106
-4.686869	hereby	-0.03498259
-4.686869	hereditary	-0.1030532
-4.686869	herein	-0.03498259
-3.732626	heres	-0.1465468
-4.686869	herethis	-0.1024186
-4.686869	hereto	-0.1030622
-4.385839	herself	-0.0310787
-3.255505	hes	-0.1686982
-4.686869	hetis	-0.09902429
-4.686869	hew	-0.1013619
-4.686869	hews	-0.1027584
-4.686869	hidden	-0.1030622
-3.987899	hide	-0.02162614
-4.686869	hideous	-0.1030264
-4.084808	hie	-0.3433006
-3.84177	high	-0.07292564
-4.686869	higher	-0.1018727
-4.209747	highest	-0.156924
-4.686869	highly	-0.1030622
-4.385839	highness	-0.0938004
-4.686869	highreaching	-0.102669
-4.686869	highst	-0.1030443
-4.686869	highswoln	-0.1029103
-4.686869	hills	-0.1019174
-4.686869	hilts	-0.09638391
-2.156669	him	-0.1952704
-4.686869	himmade	-0.1000328
-3.364649	himself	-0.3225119
-4.686869	himselfwhich	-0.1030622
-4.686869	hind	-0.03498259
-4.686869	hinder	-0.1001137
-4.686869	hint	-0.03498259
-4.209747	hire	-0.1579105
-4.686869	hired	-0.09963687
-2.123388	his	-0.157069
-3.607687	hither	-0.1772846
-4.686869	hitherward	-0.0948666
-3.908717	ho	-0.2788227
-4.686869	hoarded	-0.1030264
-4.686869	hob	-0.09352659
-4.686869	hog	-0.03498259
-3.482749	hold	-0.2382913
-4.209747	holding	-0.1000508
-4.209747	holds	-0.09962785
-4.686869	hole	-0.03498259
-4.385839	holes	-0.2381208
-4.686869	holloa	-0.1001137
-4.686869	hollow	-0.1030443
-3.987899	holp	-0.482873
-3.607687	holy	-0.09183428
-3.107085	home	-0.4242328
-4.686869	homicide	-0.03498259
-4.084808	honest	-0.02360396
-4.686869	honester	-0.1029461
-4.686869	honesty	-0.1026243
-4.686869	honey	-0.1029193
-3.224471	honour	-0.07369977
-4.084808	honourable	-0.09309727
-4.084808	honourd	-0.0994748
-3.54074	honours	-0.1221729
-4.209747	hoo	-0.1593443
-4.686869	hoot	-0.1000328
-4.686869	hooting	-0.1020607
-3.364649	hope	-0.1425167
-4.686869	hopeful	-0.1025796
-4.686869	hopeless	-0.1030622
-4.385839	hopes	-0.1009313
-4.686869	hoping	-0.03498259
-4.686869	horn	-0.09352659
-4.385839	horns	-0.1014963
-4.686869	horrors	-0.1029371
-3.987899	horse	-0.1477203
-4.686869	horsed	-0.03498259
-4.686869	horsedrench	-0.1000238
-4.385839	horses	-0.0349408
-4.686869	hospitable	-0.1030532
-4.209747	host	-0.02949455
-4.686869	hostages	-0.09963687
-4.686869	hostile	-0.1030354
-4.686869	hostilius	-0.102365
-4.385839	hot	-0.09385514
-4.686869	hotly	-0.09352659
-4.686869	hound	-0.03498259
-3.572925	hour	-0.1681421
-4.686869	hourly	-0.1030622
-3.84177	hours	-0.1513575
-3.344446	house	-0.1778472
-4.686869	housekeepers	-0.03498259
-2.742386	how	-0.03048427
-4.686869	howbeit	-0.0948666
-4.686869	howled	-0.09874474
-4.686869	howsoever	-0.09561229
-4.385839	huggd	-0.303252
-4.385839	hum	-0.09900626
-4.209747	human	-0.03480494
-4.686869	humane	-0.1027226
-4.686869	humanely	-0.03498259
-3.84177	humble	-0.03168967
-4.686869	humbler	-0.1029103
-4.209747	humbly	-0.1018279
-4.209747	humility	-0.1592607
-4.686869	humorous	-0.1030264
-4.084808	humour	-0.03463769
-3.987899	hundred	-0.0929693
-4.385839	hung	-0.1025707
-4.385839	hunger	-0.09960086
-4.385839	hungry	-0.1030175
-4.385839	hunt	-0.2381208
-4.209747	hurl	-0.1008325
-4.686869	hurried	-0.09011696
-4.686869	hurry	-0.102365
-4.084808	hurt	-0.08599346
-4.686869	hurts	-0.0948666
-3.288929	husband	-0.2805595
-4.686869	husbandry	-0.09963687
-4.385839	husbands	-0.1024812
-4.686869	husewife	-0.09973589
-4.686869	hushd	-0.1030532
-4.686869	hydra	-0.102365
-4.686869	hyperbolical	-0.03498259
-1.727827	i	-0.458806
-4.385839	ice	-0.03298256
-4.686869	icicle	-0.03498259
-4.686869	id	-0.09941176
-4.209747	idle	-0.09349005
-4.686869	idly	-0.1030086
-2.46676	if	-0.5375725
-4.084808	ignorance	-0.03163704
-4.686869	ignoranceit	-0.1023471
-4.209747	ignorant	-0.02423625
-3.482749	iii	-1.16236
-4.084808	ild	-0.09267668
-2.811807	ill	-0.1750139
-4.686869	illdispersing	-0.1030175
-4.686869	illwill	-0.09352659
-4.686869	image	-0.09638391
-4.686869	images	-0.03498259
-4.686869	imagination	-0.03498259
-4.209747	imagine	-0.149763
-4.686869	imitate	-0.09011696
-4.686869	immediately	-0.03498259
-4.686869	immured	-0.1029282
-4.385839	impatience	-0.2381208
-4.686869	impeachments	-0.09392811
-4.385839	impediment	-0.09954683
-4.686869	imperfect	-0.09874474
-4.686869	importune	-0.03498259
-4.686869	imposition	-0.03498259
-4.686869	impossibility	-0.09392811
-4.686869	impressd	-0.1023023
-4.385839	impression	-0.1023113
-4.686869	imprison	-0.1000328
-4.686869	imprisond	-0.1013619
-4.084808	imprisonment	-0.2822349
-4.686869	impure	-0.1030622
-2.003822	in	-0.3487419
-4.385839	incapable	-0.08668962
-4.686869	incense	-0.09978988
-4.209747	incensed	-0.08847594
-4.686869	inches	-0.03498259
-4.686869	inclinable	-0.09392811
-4.686869	inclination	-0.1020338
-4.686869	incline	-0.09392811
-4.686869	inclined	-0.03498259
-4.686869	includes	-0.1011825
-4.686869	inclusive	-0.1030622
-4.686869	incorporate	-0.1026958
-3.987899	increase	-0.08202394
-3.408115	indeed	-0.1238425
-4.686869	index	-0.09392811
-4.686869	indifferently	-0.1030354
-4.686869	indignation	-0.03498259
-4.686869	indirect	-0.1026243
-4.686869	induced	-0.03498259
-4.686869	inductions	-0.1029818
-4.686869	inestimable	-0.1030354
-4.686869	inevitable	-0.1030354
-4.686869	infant	-0.09831152
-4.686869	infantlike	-0.09963687
-4.209747	infect	-0.2226323
-4.385839	infected	-0.09932168
-4.385839	infection	-0.09603912
-4.686869	inferior	-0.1030443
-4.686869	infirmity	-0.03498259
-3.987899	inform	-0.2045426
-4.686869	information	-0.03498259
-4.686869	informd	-0.1016935
-4.686869	infringe	-0.09839278
-4.686869	ingrate	-0.1030622
-4.385839	ingrateful	-0.03493036
-4.385839	ingratitude	-0.0314159
-4.686869	inhabit	-0.1026243
-4.686869	inherent	-0.1030622
-4.686869	inheritance	-0.09638391
-4.686869	inherited	-0.09839278
-4.686869	inhuman	-0.09352659
-4.686869	injured	-0.1018637
-4.686869	injurious	-0.1030354
-3.987899	injury	-0.3239434
-4.686869	inkling	-0.1007248
-4.209747	innocent	-0.0214106
-4.686869	innocents	-0.03498259
-4.686869	innovator	-0.03498259
-4.385839	inquire	-0.09646554
-4.686869	ins	-0.1026422
-4.686869	insensible	-0.09823025
-4.686869	inshelld	-0.1019174
-4.686869	insinuate	-0.09973589
-4.385839	insinuating	-0.1030443
-4.686869	insisting	-0.1019174
-4.209747	insolence	-0.0343239
-4.385839	insolent	-0.03493036
-4.385839	instant	-0.102955
-4.686869	instantly	-0.09352659
-4.686869	instead	-0.09638391
-4.385839	instinct	-0.1004912
-4.686869	instruct	-0.1030532
-4.385839	instruction	-0.03497215
-4.385839	instruments	-0.0335175
-4.686869	insult	-0.1029461
-4.686869	insulting	-0.1030532
-4.385839	insurrections	-0.09010775
-4.084808	int	-0.09750712
-4.686869	integrity	-0.1018189
-4.385839	intelligence	-0.1021681
-4.686869	intend	-0.09392811
-4.385839	intended	-0.1018368
-4.385839	intends	-0.2970663
-3.987899	intent	-0.2165501
-4.385839	intercession	-0.09511226
-4.686869	interchange	-0.09638391
-4.686869	interest	-0.09977188
-4.686869	interims	-0.09352659
-4.385839	interior	-0.1029907
-4.686869	interjoin	-0.1017473
-4.385839	interpretation	-0.2995221
-4.686869	interrd	-0.03498259
-4.686869	interred	-0.1026243
-4.686869	interrupted	-0.1030443
-3.364649	into	-0.2168081
-4.686869	invention	-0.0948666
-4.686869	inventory	-0.09392811
-4.686869	invested	-0.09561229
-4.686869	inveterate	-0.1028031
-4.686869	invincible	-0.03498259
-4.686869	invocate	-0.1013619
-4.686869	inward	-0.1030622
-4.686869	iron	-0.1030264
-4.686869	irons	-0.09638391
-4.686869	ironwitted	-0.1030086
-2.15539	is	-0.1700622
-3.987899	issue	-0.09492119
-4.385839	issued	-0.03376901
-4.686869	issues	-0.1009761
-3.987899	ist	-0.02830797
-2.137865	it	-0.2819878
-4.385839	italy	-0.09284131
-4.686869	itch	-0.09638391
-4.686869	itcoriolanus	-0.1023471
-4.686869	ithaca	-0.1028835
-4.686869	ithere	-0.1001407
-4.084808	its	-0.101012
-3.84177	itself	-0.06087456
-3.645476	iv	-1.011093
-4.209747	jack	-0.03496169
-4.686869	jacks	-0.03498259
-4.686869	james	-0.1030086
-4.209747	jealous	-0.03407271
-4.385839	jest	-0.0310787
-4.686869	jesu	-0.1029371
-4.686869	jet	-0.03498259
-4.686869	jewel	-0.1013081
-4.686869	jewels	-0.03498259
-4.385839	join	-0.0310787
-4.084808	joind	-0.1850202
-4.686869	jointservant	-0.09973589
-4.385839	jot	-0.09535781
-4.385839	journey	-0.2381208
-4.686869	journeys	-0.09392811
-4.084808	jove	-0.1027852
-4.385839	joves	-0.1026779
-3.607687	joy	-0.1120824
-4.209747	joyful	-0.0908249
-4.686869	joyfully	-0.1008505
-4.686869	joyless	-0.03498259
-4.209747	joys	-0.08895597
-4.084808	judge	-0.02534857
-3.987899	judgment	-0.09096911
-4.686869	judgmentday	-0.03498259
-4.686869	judgments	-0.09839278
-4.686869	judicious	-0.1030086
-4.686869	jump	-0.09823025
-4.686869	junius	-0.1022397
-4.686869	juno	-0.1028567
-4.686869	junolike	-0.1021234
-4.084808	jupiter	-0.02172308
-4.209747	just	-0.02013682
-3.987899	justice	-0.02712876
-4.686869	justices	-0.03498259
-4.686869	kam	-0.03498259
-4.686869	keen	-0.1030354
-3.408115	keep	-0.1769556
-4.385839	keeper	-0.1023381
-4.385839	keeping	-0.09941176
-4.686869	keeps	-0.09989785
-3.908717	kept	-0.01263472
-4.686869	keycold	-0.1030622
-4.686869	keys	-0.1026243
-4.686869	kickd	-0.1020607
-3.431596	kill	-0.2133066
-4.209747	killd	-0.1586646
-4.385839	killed	-0.301531
-4.209747	killing	-0.0981399
-4.686869	kin	-0.03498259
-3.54074	kind	-0.3542166
-4.686869	kinder	-0.1030532
-4.686869	kindest	-0.1029193
-4.385839	kindle	-0.09807669
-3.987899	kindly	-0.1043439
-4.385839	kindness	-0.03497215
-3.908717	kindred	-0.08342197
-2.75745	king	-0.6654489
-3.987899	kingdom	-0.1615853
-4.686869	kingdoms	-0.1029907
-4.385839	kingly	-0.3061736
-4.686869	kinglycrowned	-0.1029907
-3.908717	kings	-0.1782928
-4.084808	kiss	-0.1185203
-4.686869	kissd	-0.09839278
-4.686869	kisses	-0.1026243
-4.686869	kissing	-0.1024812
-4.686869	kitchen	-0.1030622
-4.209747	kites	-0.4720099
-4.385839	knave	-0.101326
-4.209747	knaves	-0.02619159
-3.783779	knee	-0.1903305
-4.686869	kneel	-0.1025707
-4.385839	kneeld	-0.1015591
-4.686869	kneels	-0.09352659
-3.908717	knees	-0.2532625
-4.686869	knell	-0.09352659
-3.987899	knew	-0.08474687
-4.385839	knife	-0.09057681
-4.686869	knit	-0.09352659
-4.686869	knock	-0.1026154
-4.686869	knot	-0.09902429
-2.85436	know	-0.2293475
-4.686869	knowas	-0.09874474
-4.686869	knowest	-0.1001137
-4.686869	knowing	-0.1028478
-4.084808	knowledge	-0.116097
-3.645476	known	-0.2737526
-3.732626	knows	-0.2503961
-3.987899	knowst	-0.1008328
-4.209747	knowt	-0.1567769
-4.686869	knowthat	-0.1019801
-4.385839	la	-0.1017383
-3.987899	labour	-0.09530941
-4.686869	laboured	-0.03498259
-4.686869	labours	-0.1030443
-4.686869	lace	-0.09874474
-3.987899	lack	-0.09248453
-4.385839	lackd	-0.1024455
-4.686869	ladders	-0.1030175
-3.572925	ladies	-0.09436861
-4.686869	ladiesand	-0.09011696
-4.385839	lads	-0.0347736
-2.867325	lady	-0.6843536
-4.385839	ladys	-0.1028299
-4.385839	ladyship	-0.03365375
-4.686869	lag	-0.09392811
-3.987899	laid	-0.09621155
-4.209747	lamb	-0.02604232
-4.686869	lame	-0.09011696
-4.686869	lamely	-0.09352659
-3.987899	lament	-0.01387581
-4.385839	lamentation	-0.2381208
-4.385839	lamentations	-0.02715003
-4.686869	lamenting	-0.09392811
-3.987899	lancaster	-0.4239275
-4.686869	lance	-0.03498259
-3.987899	land	-0.09980787
-4.686869	language	-0.1030532
-4.686869	lap	-0.1001137
-4.686869	lapsing	-0.1030086
-4.385839	large	-0.1030443
-3.224471	lartius	-0.6938572
-4.686869	larum	-0.09352659
-4.686869	lascivious	-0.1030354
-3.45642	last	-0.1423095
-3.783779	late	-0.2266698
-4.209747	lately	-0.1029282
-4.686869	latest	-0.1030622
-4.209747	laugh	-0.2182299
-4.686869	laughd	-0.1021771
-4.686869	laughter	-0.1029014
-3.732626	law	-0.1567652
-3.908717	lawful	-0.09728996
-4.686869	lawless	-0.1030086
-4.686869	laws	-0.09973589
-3.385839	lay	-0.07216967
-4.209747	lead	-0.03207899
-4.385839	leaden	-0.1030532
-4.686869	leader	-0.03498259
-4.686869	leading	-0.09638391
-3.908717	leads	-0.0881618
-4.686869	leadst	-0.1015053
-4.209747	league	-0.14819
-4.686869	lean	-0.1023023
-4.686869	leanness	-0.09831152
-3.908717	learn	-0.07659562
-4.686869	learnd	-0.03498259
-4.686869	learned	-0.1018727
-4.686869	leash	-0.03498259
-4.686869	leasing	-0.1027673
-4.385839	least	-0.1013439
-3.195507	leave	-0.1644212
-3.987899	leaves	-0.01136798
-4.686869	lectures	-0.09392811
-3.987899	led	-0.02326064
-3.783779	left	-0.01751276
-4.686869	leg	-0.09011696
-4.686869	legion	-0.09638391
-4.209747	legs	-0.02420412
-4.385839	leisure	-0.08950922
-4.686869	leisurely	-0.03498259
-4.209747	lend	-0.09435658
-4.385839	length	-0.02379697
-4.385839	lengthend	-0.1028478
-4.686869	lenity	-0.101586
-4.385839	lent	-0.02624491
-3.344446	less	-0.1168061
-4.686869	lessend	-0.1001407
-4.209747	lesser	-0.09767897
-4.385839	lessond	-0.1008325
-3.645476	lest	0.01713608
-2.713741	let	-0.7507511
-4.686869	lethargy	-0.03498259
-3.306657	lets	-0.1260661
-3.908717	letter	-0.2470951
-4.385839	letters	-0.3051721
-4.686869	levies	-0.1030622
-4.686869	lewd	-0.1030532
-4.385839	liar	-0.09868158
-4.686869	libels	-0.09352659
-4.686869	liberal	-0.1030622
-4.209747	liberties	-0.02293852
-3.987899	liberty	-0.2183109
-4.686869	lick	-0.03498259
-3.54074	lie	-0.07869024
-4.209747	liege	-0.149763
-3.54074	lies	-0.05637776
-4.209747	liest	-0.03378995
-3.908717	lieutenant	-0.2801536
-4.686869	lieve	-0.1001407
-3.306657	life	-0.4175247
-4.385839	lift	-0.1012543
-4.209747	light	-0.02241188
-4.686869	lightly	-0.03498259
-4.686869	lightlythough	-0.0948666
-4.686869	lightning	-0.1029818
-2.767791	like	-0.2717279
-4.385839	likelihood	-0.2995221
-4.385839	likely	-0.0343553
-4.686869	likewise	-0.1001407
-4.686869	liking	-0.03498259
-4.686869	limb	-0.09831152
-4.385839	limbs	-0.03096273
-4.686869	limitation	-0.09352659
-4.686869	linger	-0.03498259
-4.686869	link	-0.1030622
-4.686869	lion	-0.03498259
-4.686869	lions	-0.1030443
-3.987899	lip	-0.08704285
-3.987899	lips	-0.01459907
-4.209747	list	-0.02188461
-4.686869	litterdnot	-0.1030622
-3.271895	little	-0.1150011
-3.224471	live	-0.08850214
-4.385839	lived	-0.03298256
-4.686869	livery	-0.03498259
-3.732626	lives	-0.09702557
-4.686869	livest	-0.03498259
-4.084808	living	-0.09322519
-4.084808	lo	-0.09760662
-3.987899	load	-0.2100466
-4.686869	loaden	-0.09973589
-4.686869	loath	-0.09392811
-4.686869	loathed	-0.1030264
-4.686869	lockram	-0.1030622
-4.686869	locks	-0.101801
-4.686869	lodged	-0.1029818
-4.385839	loins	-0.03389471
-4.686869	london	-0.09392811
-4.686869	lonely	-0.1030532
-3.364649	long	-0.06131241
-4.385839	longer	-0.09378214
-4.686869	longs	-0.1020249
-3.271895	look	-0.161563
-3.783779	lookd	-0.01328318
-4.209747	looked	-0.1011197
-4.686869	looker	-0.1019174
-4.385839	looking	-0.09929465
-4.385839	lookingglass	-0.2381208
-3.686868	looks	-0.09403358
-2.695642	lord	-0.2700546
-3.344446	lords	-0.2477542
-4.686869	lordship	-0.1030622
-3.482749	lose	-0.1340414
-3.732626	loss	-0.3426657
-3.987899	lost	-0.2178477
-4.686869	lots	-0.09392811
-4.686869	loud	-0.03498259
-4.686869	lourd	-0.1023023
-4.686869	louts	-0.03498259
-2.894477	love	-0.204742
-3.572925	loved	-0.03950878
-4.385839	lovelier	-0.03488856
-4.686869	lovely	-0.1029639
-4.385839	lover	-0.02536994
-3.482749	loves	-0.1227533
-4.686869	loveth	-0.09561229
-4.385839	loving	-0.1021592
-4.686869	low	-0.1030443
-4.385839	lowest	-0.1029014
-4.209747	loyal	-0.1593338
-4.209747	ludlow	-0.01866408
-4.686869	lulls	-0.1030443
-4.686869	lump	-0.09638391
-4.686869	lunatic	-0.03498259
-4.385839	lungs	-0.03200538
-4.686869	lurchd	-0.1011825
-4.686869	lurkd	-0.09831152
-4.686869	lute	-0.03498259
-4.686869	lycurgusesif	-0.09011696
-4.686869	lying	-0.1028924
-4.385839	mad	-0.2381208
-3.181719	madam	-0.05956608
-2.887528	made	-0.1053473
-4.686869	madest	-0.102955
-4.686869	madst	-0.1029014
-4.686869	magician	-0.1030622
-4.686869	magistrate	-0.03498259
-4.385839	magistrates	-0.03497215
-4.686869	maid	-0.0948666
-4.686869	maids	-0.1017473
-4.686869	maild	-0.1028388
-4.686869	maims	-0.03498259
-4.209747	main	-0.03487809
-4.686869	maintain	-0.09989785
-3.645476	majesty	-0.4136292
-4.686869	major	-0.1028746
-2.783779	make	-0.1596406
-4.686869	maker	-0.09638391
-3.482749	makes	-0.104965
-4.686869	makest	-0.1013081
-3.908717	making	-0.0777029
-4.686869	malapert	-0.03498259
-4.686869	male	-0.1030532
-3.686868	malice	-0.07169586
-4.385839	malicious	-0.0349617
-4.686869	maliciously	-0.03498259
-4.686869	malign	-0.1012094
-4.686869	malignant	-0.102526
-4.686869	malignantly	-0.1029907
-4.686869	malkin	-0.1030622
-4.385839	malmseybutt	-0.0348154
-4.686869	mammocked	-0.03498259
-2.85436	man	-0.1705069
-4.385839	manacles	-0.03497215
-4.686869	manchild	-0.03498259
-4.686869	manenterd	-0.1027226
-4.686869	mangles	-0.1027048
-4.686869	manhood	-0.1000238
-4.385839	manifest	-0.1030443
-4.686869	manifests	-0.09011696
-4.686869	mankind	-0.03498259
-4.686869	manly	-0.1027584
-4.385839	manner	-0.0314159
-3.732626	mans	-0.1275532
-4.686869	mantled	-0.09874474
-3.239711	many	-0.1250547
-4.686869	manyheaded	-0.1030264
-4.686869	map	-0.09638391
-4.686869	mar	-0.1011825
-4.084808	march	-0.02163691
-4.686869	marches	-0.09392811
-4.686869	marcians	-0.1020338
-2.600509	marcius	-0.4328244
-4.686869	marcus	-0.09902429
-3.255505	margaret	-1.16383
-4.385839	margarets	-0.1028746
-3.645476	mark	-0.1815781
-4.385839	markd	-0.2987505
-4.385839	market	-0.03483631
-3.732626	marketplace	-0.4398592
-4.084808	marks	-0.09442037
-4.209747	marquess	-0.1506379
-4.686869	marquis	-0.1030622
-4.385839	marrd	-0.03114194
-4.686869	marriages	-0.1030175
-4.385839	married	-0.09348094
-3.607687	marry	-0.1553809
-4.686869	marrying	-0.1024634
-4.084808	mars	-0.1148695
-4.686869	marvel	-0.09839278
-4.686869	marvelld	-0.1020607
-4.385839	marvellous	-0.1026958
-4.686869	maskd	-0.09963687
-4.686869	massacre	-0.03498259
-3.783779	master	-0.12863
-3.645476	masters	-0.07357396
-4.686869	mastership	-0.09874474
-4.209747	match	-0.0297907
-4.686869	mates	-0.03498259
-4.686869	matrons	-0.1030622
-3.408115	matter	-0.302794
-4.686869	mature	-0.09963687
-2.83561	may	-0.143347
-4.385839	mayor	-0.2381208
-4.084808	mayst	-0.09762471
-2.168355	me	-0.17067
-4.385839	meal	-0.2966648
-3.84177	mean	-0.1167637
-4.686869	meanborn	-0.1029907
-4.686869	meaner	-0.1024634
-4.686869	meanest	-0.1028746
-4.385839	meaning	-0.03472133
-3.732626	means	-0.1318384
-4.686869	meanst	-0.1013081
-4.686869	meant	-0.1030622
-4.209747	meantime	-0.09690963
-4.686869	measles	-0.03498259
-4.209747	measure	-0.02707555
-4.686869	measureless	-0.1030532
-4.686869	measures	-0.03498259
-4.209747	meat	-0.02398987
-4.686869	mechanics	-0.1026064
-4.084808	meddle	-0.2799954
-4.084808	meed	-0.02398988
-4.686869	meekness	-0.09874474
-3.510777	meet	-0.06351515
-4.686869	meeting	-0.1028567
-4.686869	meetings	-0.03498259
-4.686869	meets	-0.1019891
-4.385839	melancholy	-0.03495125
-4.686869	mellow	-0.1030532
-4.385839	melt	-0.08028015
-4.686869	melted	-0.1027941
-3.987899	members	-0.08513198
-4.084808	memory	-0.1211936
-3.130566	men	-0.1119724
-4.686869	menace	-0.1001137
-4.385839	mend	-0.09028256
-2.438895	menenius	-1.390908
-4.084808	mens	-0.1024365
-4.686869	mepray	-0.09944778
-4.686869	mercenary	-0.03498259
-4.686869	merciless	-0.09831152
-4.686869	mercury	-0.1022486
-3.572925	mercy	-0.09960761
-4.385839	mere	-0.1030532
-4.686869	merely	-0.1030622
-4.084808	merit	-0.1203078
-4.686869	merrier	-0.1028567
-4.686869	merrily	-0.1030622
-4.209747	merry	-0.1002935
-3.306657	messenger	-1.111071
-3.732626	met	-0.138755
-4.686869	metal	-0.09831152
-4.686869	methink	-0.03498259
-4.084808	methinks	-0.3419865
-4.686869	method	-0.03498259
-3.987899	methought	-0.14484
-4.686869	methoughti	-0.03498259
-4.385839	methoughts	-0.09341701
-4.209747	mewd	-0.1588634
-4.686869	microcosm	-0.1030354
-4.686869	middle	-0.09352659
-4.686869	midnight	-0.1029907
-4.385839	midst	-0.09222822
-3.385839	might	-0.1292532
-4.686869	mightily	-0.03498259
-4.209747	mighty	-0.1030086
-4.686869	mild	-0.09352659
-4.686869	milder	-0.1018906
-3.987899	mildly	-0.09728254
-3.987899	mile	-0.08534271
-4.686869	miles	-0.1028924
-4.686869	milk	-0.09874474
-4.686869	millions	-0.09874474
-4.686869	millsbring	-0.1001137
-4.385839	millstones	-0.09929465
-3.607687	mind	-0.4924643
-4.385839	minded	-0.03142644
-4.209747	minds	-0.03323437
-3.024111	mine	-0.4054659
-4.686869	mingle	-0.1029461
-4.686869	mingling	-0.1016935
-4.209747	minister	-0.1515431
-4.385839	ministers	-0.03485721
-4.686869	minnows	-0.1029729
-4.686869	minority	-0.03498259
-4.686869	minute	-0.09561229
-4.686869	mirrors	-0.09638391
-4.385839	mirth	-0.2381208
-4.686869	miscarries	-0.03498259
-4.686869	miscarry	-0.03498259
-4.686869	mischief	-0.1030532
-4.686869	mischiefs	-0.09831152
-4.686869	misdeeds	-0.03498259
-4.084808	miserable	-0.1226344
-3.987899	misery	-0.03117356
-4.686869	misguide	-0.1013619
-4.686869	miss	-0.09989785
-4.686869	missd	-0.1005272
-4.084808	mistake	-0.1720136
-4.686869	mistaken	-0.1011825
-3.987899	mistress	-0.1647489
-4.686869	mistrust	-0.03498259
-4.385839	moan	-0.02940992
-4.686869	moans	-0.03498259
-4.084808	mock	-0.09798632
-4.084808	mockd	-0.0840196
-4.686869	mockers	-0.101586
-4.686869	mockery	-0.03498259
-4.084808	modest	-0.1007158
-4.385839	moiety	-0.02715003
-4.686869	molehill	-0.1024276
-4.385839	monarchy	-0.0349617
-4.686869	monastery	-0.1007248
-4.686869	money	-0.0948666
-4.686869	monster	-0.09638391
-4.686869	monsterd	-0.03498259
-4.686869	monsters	-0.1030354
-4.385839	monstrous	-0.09348093
-4.686869	month	-0.1030354
-4.385839	months	-0.1026154
-4.686869	monuments	-0.03498259
-4.686869	mood	-0.1020607
-4.686869	moods	-0.03498259
-3.84177	moon	-0.2215063
-2.618683	more	-0.1652934
-4.084808	morning	-0.08601204
-4.209747	morrow	-0.02334649
-4.686869	morsel	-0.09638391
-3.84177	mortal	-0.07265763
-2.887528	most	-0.08476797
-2.946506	mother	-0.2993232
-3.908717	mothers	-0.0974619
-4.686869	moths	-0.1021234
-4.084808	motion	-0.03388423
-4.686869	motive	-0.03498259
-4.385839	mould	-0.02715003
-4.686869	mountainous	-0.1030622
-4.686869	mountebank	-0.1017473
-4.686869	mounting	-0.1030622
-4.385839	mourn	-0.09211832
-4.686869	mourner	-0.03498259
-4.686869	mournfully	-0.03498259
-4.686869	mouse	-0.1029907
-4.209747	mouth	-0.02522036
-3.987899	mouths	-0.08761991
-3.908717	move	-0.009366758
-3.987899	moved	-0.08592843
-4.686869	movers	-0.09831152
-4.686869	moves	-0.1023292
-4.686869	moving	-0.03498259
-4.385839	mow	-0.0327726
-3.095804	much	-0.02397797
-4.686869	muck	-0.09638391
-4.686869	mulberry	-0.03498259
-4.686869	mules	-0.1030622
-4.686869	mulled	-0.1030622
-4.686869	multiplying	-0.1030622
-3.987899	multitude	-0.08650865
-4.686869	multitudinous	-0.1028924
-4.686869	mummers	-0.102821
-4.686869	muniments	-0.09352659
-3.84177	murder	-0.1285668
-2.873955	murderer	-1.54495
-4.686869	murderers	-0.1004553
-4.385839	murdering	-0.1001047
-4.209747	murderous	-0.03491989
-4.686869	murrain	-0.1030175
-4.385839	muse	-0.09776939
-2.778383	must	-0.2187512
-4.686869	muster	-0.1011825
-4.209747	musty	-0.2274284
-4.686869	mutable	-0.1030622
-4.686869	mutiners	-0.03498259
-4.385839	mutinies	-0.08910359
-4.084808	mutinous	-0.09342614
-4.686869	mutiny	-0.1021234
-4.686869	mutual	-0.1030264
-4.686869	mutually	-0.1030622
-1.970031	my	-0.2464768
-3.288929	myself	-0.3977607
-4.686869	mysteries	-0.1018189
-4.385839	nail	-0.03399944
-4.686869	nails	-0.1024276
-3.987899	naked	-0.1544237
-3.024111	name	-0.3099411
-4.385839	named	-0.03096273
-4.686869	namely	-0.09392811
-4.209747	names	-0.4134659
-4.686869	napes	-0.09638391
-4.686869	napless	-0.1030622
-4.686869	nation	-0.03498259
-4.686869	nations	-0.0948666
-4.686869	native	-0.1029907
-4.686869	nativity	-0.03498259
-4.385839	natural	-0.1030175
-3.344446	nature	-0.2901879
-4.209747	naught	-0.09035613
-4.686869	navel	-0.09638391
-3.209747	nay	-0.1312456
-4.686869	naytis	-0.1027048
-4.084808	near	-0.07996942
-4.385839	nearer	-0.09753427
-4.686869	nearest	-0.03498259
-4.686869	necessary	-0.03498259
-4.686869	necessities	-0.09352659
-4.686869	necessity	-0.03498259
-3.987899	neck	-0.2091556
-4.385839	necks	-0.03328682
-3.783779	need	-0.1660696
-4.686869	needer	-0.03498259
-4.686869	needless	-0.1030622
-4.385839	needs	-0.1006709
-3.732626	neer	-0.1008953
-4.385839	neighbour	-0.09276816
-3.908717	neighbours	-0.08889995
-3.607687	neither	-0.006274953
-4.686869	neptune	-0.09963687
-4.686869	nerves	-0.09352659
-4.686869	nervy	-0.1029818
-4.686869	nest	-0.03498259
-4.385839	nettle	-0.09092595
-2.996672	never	-0.09860364
-4.686869	neverneeded	-0.1028835
-3.987899	new	-0.1026422
-4.686869	newchristend	-0.09874474
-4.686869	newdeliverd	-0.1028567
-4.686869	newheald	-0.1030622
-4.686869	newly	-0.1030532
-3.118667	news	-0.2346321
-4.209747	next	-0.03472131
-4.385839	nicanor	-0.03302454
-4.686869	nicelygawded	-0.1030175
-4.686869	niece	-0.1030443
-3.54074	night	-0.3886754
-4.686869	nightly	-0.1028031
-4.686869	nightwalking	-0.1030622
-4.686869	nimbly	-0.09874474
-4.385839	nine	-0.09829346
-2.415027	no	-0.3106411
-3.84177	nobility	-0.1487951
-2.789242	noble	-0.1290064
-4.385839	nobleness	-0.02940992
-4.385839	nobler	-0.03454358
-4.686869	noblerwhither	-0.1015143
-3.686868	nobles	-0.1031935
-3.84177	nobly	-0.006531574
-4.385839	nod	-0.2966648
-4.686869	nodding	-0.09638391
-4.686869	nods	-0.09352659
-3.686868	noise	-0.05471985
-4.686869	noisome	-0.1030443
-4.686869	nonage	-0.1030622
-3.510777	none	-0.2007969
-4.686869	noon	-0.1005272
-4.686869	noontide	-0.1029461
-2.987899	nor	-0.09199318
-4.686869	norfolk	-0.03498259
-4.686869	north	-0.1030443
-4.686869	northampton	-0.03498259
-4.686869	northumberland	-0.1021413
-4.385839	nose	-0.08521245
-4.686869	noses	-0.03498259
-2.076208	not	-0.06020898
-4.686869	notched	-0.03498259
-3.908717	note	-0.08881757
-3.45642	nothing	-0.03642464
-4.686869	nothings	-0.1030622
-4.686869	notice	-0.03498259
-4.686869	notion	-0.03498259
-4.686869	notis	-0.09978988
-4.686869	noton	-0.1013619
-4.686869	notsdeath	-0.03498259
-4.686869	notto	-0.1029818
-4.686869	notwithstanding	-0.1030264
-4.209747	nought	-0.02302444
-4.686869	nourish	-0.1030175
-4.686869	nourishd	-0.1030622
-4.686869	novice	-0.1019174
-2.626171	now	-0.08115868
-4.686869	nowwill	-0.09561229
-4.686869	numas	-0.1030443
-4.686869	numb	-0.1030086
-4.084808	number	-0.2760667
-4.209747	numbers	-0.08553803
-4.686869	nuptial	-0.1028567
-3.908717	nurse	-0.1822569
-4.686869	nurses	-0.1029461
-4.686869	nymph	-0.03498259
-2.53458	o	-0.2463601
-4.084808	oak	-0.08712531
-4.686869	oaken	-0.1030354
-4.686869	oaks	-0.09973589
-4.209747	oath	-0.2085713
-4.686869	obdurate	-0.1015143
-4.209747	obedience	-0.02378624
-4.385839	obedient	-0.1030086
-3.987899	obey	-0.08670496
-4.385839	obeyd	-0.03484675
-4.686869	obeys	-0.09978988
-4.385839	object	-0.08322567
-4.686869	obsequiously	-0.1030264
-4.686869	observe	-0.09352659
-4.686869	obstacles	-0.09989785
-4.686869	obstinate	-0.03498259
-4.385839	occasion	-0.03285659
-4.686869	occupation	-0.09352659
-4.686869	occupations	-0.1030443
-4.686869	ocean	-0.1030532
-4.209747	odd	-0.03490944
-4.385839	odds	-0.0349408
-3.987899	oer	-0.1516158
-4.385839	oerbear	-0.03349654
-4.686869	oerborne	-0.1017473
-4.686869	oercome	-0.09973589
-4.686869	oerleap	-0.09831152
-4.686869	oerpeer	-0.1028299
-4.686869	oerpressd	-0.1028388
-4.686869	oershade	-0.1013619
-4.686869	oerwhelm	-0.1018637
-4.686869	oerwhelmd	-0.09839278
-4.686869	oerworn	-0.1030175
-1.81588	of	-0.3805209
-4.686869	ofboils	-0.09352659
-3.431596	off	-0.1919691
-4.084808	offence	-0.2838888
-4.686869	offences	-0.09392811
-4.686869	offend	-0.09839278
-4.209747	offended	-0.09141245
-4.209747	offerd	-0.02360396
-3.987899	office	-0.1590727
-3.572925	officer	-0.6541717
-4.209747	officers	-0.09220989
-4.385839	offices	-0.02715003
-4.686869	official	-0.1030354
-4.686869	officious	-0.09352659
-4.385839	oft	-0.0349408
-3.732626	often	-0.0908341
-3.84177	oh	-0.1371648
-3.364649	old	-0.0704868
-4.686869	oldest	-0.1028478
-4.686869	olympus	-0.09392811
-4.686869	ominous	-0.09392811
-4.686869	omit	-0.03498259
-2.576279	on	-0.2871161
-3.408115	once	-0.07625402
-2.713741	one	-0.1656709
-4.084808	ones	-0.1227708
-4.686869	onewhen	-0.09561229
-3.408115	only	-0.08495452
-4.209747	ons	-0.1024544
-3.908717	ont	-0.07580336
-4.686869	onward	-0.03498259
-4.209747	ope	-0.01854474
-4.084808	open	-0.0949394
-4.686869	opens	-0.09978988
-4.084808	opinion	-0.02576496
-4.686869	oppose	-0.09978988
-4.686869	opposer	-0.1014515
-4.385839	opposers	-0.1029907
-4.686869	opposing	-0.1030622
-4.385839	opposite	-0.09869963
-2.691233	or	-0.1246131
-4.686869	oracle	-0.09839278
-4.686869	orange	-0.1027763
-4.686869	orators	-0.03498259
-4.686869	orb	-0.101801
-4.084808	order	-0.1882547
-4.686869	ordinance	-0.102955
-4.385839	orphans	-0.1021681
-4.686869	osprey	-0.09392811
-4.686869	ostentation	-0.09352659
-4.686869	ostler	-0.09831152
-3.239711	other	-0.1834053
-3.607687	others	-0.08870732
-4.686869	otherwise	-0.1021234
-4.686869	otis	-0.1019801
-4.209747	ought	-0.08803236
-4.686869	ouncehe	-0.1030622
-2.368805	our	-0.1124136
-4.084808	ours	-0.1180219
-3.987899	ourselves	-0.1589158
-2.860794	out	-0.4693893
-4.686869	outdares	-0.09978988
-4.686869	outdone	-0.09978988
-4.686869	outlive	-0.1013619
-4.385839	outrage	-0.102365
-4.686869	outshining	-0.1030622
-4.686869	outstrip	-0.102526
-3.987899	outward	-0.1014336
-4.686869	outweighs	-0.1029996
-3.987899	over	-0.1428133
-4.686869	overboard	-0.03498259
-4.686869	overgo	-0.1013619
-4.686869	overmeasure	-0.03498259
-4.686869	overmuch	-0.1030532
-4.385839	overtaen	-0.09961887
-3.987899	owe	-0.02236888
-4.686869	owest	-0.09392811
-3.0534	own	-0.1298256
-4.686869	owns	-0.09823025
-4.686869	oxford	-0.1021771
-4.686869	pace	-0.09638391
-4.686869	paced	-0.1029996
-4.686869	pacelook	-0.1023023
-4.385839	pack	-0.03447037
-4.686869	packd	-0.09973589
-4.686869	packhorse	-0.09874474
-4.084808	page	-0.4888961
-4.686869	pages	-0.1030622
-4.209747	pain	-0.08873449
-4.686869	painful	-0.1029461
-4.385839	pains	-0.0327726
-4.686869	paint	-0.1000328
-4.385839	painted	-0.0340832
-4.686869	painting	-0.03498259
-4.385839	pair	-0.2995221
-4.686869	palate	-0.1030622
-4.686869	palates	-0.1030264
-3.908717	pale	-0.1818474
-4.686869	palethey	-0.1030532
-4.686869	palm	-0.09963687
-4.686869	palms	-0.09638391
-4.686869	palsied	-0.1030532
-4.686869	paltering	-0.03498259
-4.686869	pamper	-0.09989785
-4.385839	panting	-0.03497215
-4.385839	paper	-0.0348781
-4.686869	parasites	-0.1030532
-4.686869	parcel	-0.09638391
-4.686869	parcelld	-0.1026601
-4.686869	parcels	-0.09638391
-3.510777	pardon	-0.3824771
-4.385839	pardons	-0.03458542
-4.686869	parent	-0.03498259
-4.686869	paris	-0.1005272
-4.686869	parlous	-0.1028656
-3.344446	part	-0.08735901
-4.385839	partake	-0.02715003
-4.385839	parted	-0.09958285
-4.686869	participate	-0.1022486
-4.209747	particular	-0.09897919
-4.686869	particularise	-0.1017473
-4.686869	particularly	-0.09352659
-4.686869	particulars	-0.1029729
-4.686869	particularyou	-0.1021771
-4.084808	parties	-0.09922256
-4.084808	partly	-0.1012632
-4.385839	partner	-0.08910359
-3.987899	parts	-0.2213516
-3.84177	party	-0.07096609
-3.645476	pass	-0.1559137
-4.686869	passable	-0.03498259
-4.385839	passage	-0.1030175
-3.908717	passd	-0.1360665
-4.686869	passes	-0.102365
-4.385839	passing	-0.1029907
-4.686869	passions	-0.09352659
-3.908717	past	-0.07197368
-4.686869	patchd	-0.03498259
-4.686869	pates	-0.03498259
-4.686869	path	-0.09831152
-3.607687	patience	-0.2811504
-3.987899	patient	-0.03007608
-3.987899	patrician	-0.3413772
-3.686868	patricians	-0.04371236
-4.686869	patroness	-0.09011696
-4.686869	pattern	-0.09638391
-4.084808	paul	-0.02973784
-4.686869	pauls	-0.09392811
-4.209747	pause	-0.08560312
-4.686869	pawn	-0.09978988
-4.686869	pawnd	-0.03498259
-4.385839	pay	-0.09085247
-4.686869	pays	-0.1028835
-2.946506	peace	-0.2605159
-4.686869	pearl	-0.03498259
-4.686869	pebbles	-0.1019174
-4.686869	peck	-0.09011696
-4.686869	pedlar	-0.03498259
-4.686869	peep	-0.1024723
-4.084808	peers	-0.1191029
-4.686869	peevish	-0.1030622
-4.686869	pence	-0.09392811
-4.686869	penelope	-0.1024007
-4.686869	penetrable	-0.09392811
-4.686869	penitent	-0.03498259
-4.209747	pent	-0.09242962
-2.848019	people	-0.3519517
-3.783779	peoples	-0.1018727
-4.686869	peoplewhich	-0.1026511
-4.686869	peradventure	-0.1025796
-4.209747	perceive	-0.153803
-4.686869	perceives	-0.1030264
-4.686869	perch	-0.03498259
-4.686869	percussion	-0.09638391
-4.385839	peremptory	-0.09247539
-4.385839	perfect	-0.1024991
-4.686869	perfecter	-0.1030622
-4.686869	perfection	-0.09638391
-4.686869	perfidiously	-0.03498259
-4.686869	perforce	-0.1028924
-4.209747	perform	-0.02555147
-4.385839	performd	-0.2381208
-4.385839	perhaps	-0.03298256
-4.209747	peril	-0.1515431
-4.385839	period	-0.08709752
-4.209747	perish	-0.1593443
-4.686869	perjured	-0.1024723
-4.686869	perjury	-0.03498259
-4.686869	permit	-0.1001137
-4.686869	permitted	-0.1013619
-4.209747	perpetual	-0.1027941
-3.607687	person	-0.1660286
-4.686869	persons	-0.1030532
-4.686869	persuade	-0.1018637
-4.686869	persuaded	-0.03498259
-4.686869	persuading	-0.1001137
-4.686869	pertinent	-0.03498259
-4.686869	perused	-0.03498259
-4.686869	pestering	-0.1030354
-4.686869	pestilence	-0.1029818
-4.209747	petition	-0.09296016
-4.686869	petitionary	-0.1030532
-4.686869	petitiond	-0.1011825
-4.385839	petty	-0.1030086
-4.686869	phoebus	-0.1030532
-4.385839	physic	-0.2381208
-4.686869	physical	-0.03498259
-4.686869	physician	-0.09011696
-4.686869	physicians	-0.1028567
-4.385839	pick	-0.09700023
-4.686869	picturelike	-0.09392811
-4.209747	piece	-0.02699043
-4.084808	pieces	-0.03096272
-4.209747	pierce	-0.01391967
-4.385839	piercing	-0.1012004
-4.385839	pikes	-0.1025796
-4.686869	pilate	-0.1018906
-4.385839	pile	-0.0349408
-4.686869	piles	-0.09638391
-4.686869	pilld	-0.1020338
-4.686869	pinched	-0.09973589
-4.686869	pinnd	-0.09973589
-4.686869	pins	-0.03498259
-4.686869	pipe	-0.03498259
-4.686869	piping	-0.1026511
-4.686869	pirates	-0.09831152
-4.686869	pitchers	-0.09977188
-4.686869	piteous	-0.1030532
-4.686869	pities	-0.09941176
-4.686869	pitiful	-0.1023292
-3.54074	pity	-0.0286221
-4.686869	pitying	-0.1030622
-3.54074	place	-0.1283178
-4.686869	placed	-0.1017473
-4.385839	places	-0.0962932
-4.686869	placeth	-0.1030443
-3.987899	plague	-0.09514865
-4.686869	plagued	-0.1013619
-4.686869	plagues	-0.03498259
-3.987899	plain	-0.09319778
-4.385839	plainly	-0.0349617
-4.686869	plaints	-0.09352659
-4.686869	planet	-0.1020428
-4.385839	plant	-0.09888904
-4.209747	plantagenet	-0.4134659
-4.686869	plantagenets	-0.1030354
-4.686869	planted	-0.09978988
-4.686869	plants	-0.09973589
-4.686869	plaster	-0.09561229
-4.084808	play	-0.222929
-4.686869	playfellow	-0.03498259
-4.209747	plead	-0.1553558
-4.686869	pleader	-0.09944778
-4.686869	pleaders	-0.09352659
-3.572925	please	-0.112878
-4.209747	pleased	-0.0236254
-4.686869	pleaseth	-0.1029639
-4.084808	pleasing	-0.09616618
-4.385839	pleasure	-0.02426839
-4.209747	pleasures	-0.08776414
-3.987899	plebeians	-0.01967172
-4.686869	plebeii	-0.09944778
-4.686869	plenteous	-0.1029461
-4.209747	plot	-0.1486614
-4.385839	plots	-0.3029101
-4.686869	plough	-0.1022844
-4.686869	ploughd	-0.09963687
-3.84177	pluck	-0.02696915
-4.209747	pluckd	-0.0235396
-4.686869	plucked	-0.1011825
-4.686869	plucks	-0.09011696
-4.686869	plumes	-0.03498259
-4.686869	pluto	-0.09352659
-4.686869	pocket	-0.09011696
-4.686869	poets	-0.1030532
-3.783779	point	-0.1769836
-4.385839	points	-0.03349654
-3.84177	poison	-0.09260348
-4.686869	poisond	-0.03498259
-4.209747	poisonous	-0.02713938
-4.209747	policy	-0.1014784
-4.686869	politic	-0.102955
-4.385839	poll	-0.02379697
-4.686869	polled	-0.03498259
-4.686869	pomfret	-0.03498259
-3.084809	poor	-0.1075987
-4.385839	poorest	-0.03495125
-4.686869	poorst	-0.09638391
-4.084808	popular	-0.03259404
-4.686869	porch	-0.101801
-4.686869	portance	-0.03498259
-4.385839	porter	-0.09305158
-4.385839	ports	-0.09841987
-4.686869	positively	-0.1030622
-4.686869	possess	-0.1001137
-4.686869	possessed	-0.09638391
-4.209747	possible	-0.02533788
-4.385839	post	-0.02426839
-4.686869	posterity	-0.03498259
-4.686869	posthorse	-0.1026333
-4.686869	posture	-0.03498259
-4.686869	pot	-0.0948666
-4.686869	potch	-0.1020607
-4.686869	potency	-0.09352659
-4.686869	pother	-0.03498259
-4.686869	pound	-0.1019891
-4.686869	pounds	-0.1030532
-4.385839	pour	-0.08817104
-4.686869	pouring	-0.1028656
-4.686869	pout	-0.1023023
-4.686869	pow	-0.1030622
-3.084809	power	-0.1603749
-4.686869	powerful	-0.1029818
-4.084808	powers	-0.2799954
-4.385839	practise	-0.2381208
-3.908717	praise	-0.0596243
-4.209747	praises	-0.1024902
-4.686869	prank	-0.1016935
-4.084808	prate	-0.2760667
-4.385839	pratest	-0.09342615
-4.686869	prating	-0.102365
-4.686869	prattling	-0.1030175
-3.005627	pray	-0.4461384
-4.686869	prayd	-0.1019353
-4.686869	prayer	-0.09638391
-3.783779	prayers	-0.07612827
